   -0.034101,   0.019900,   -0.008102,   0.034482,   0.000245,   -0.035146,   0.007301,   -0.044840,   -0.017224,   0.047238,   -0.020391,   -0.047511,   0.035415,   -0.002310,   -0.021011,   -0.023417,   -0.027757,   0.029380,   0.048097,   0.003697,   0.005266,   0.035139,   -0.026571,   0.030842,   0.022344,-0.034020,0.014836,0.003689,-0.031250,0.000718,0.040684,0.014282,-0.006294,-0.006411,-0.022814,-0.017899,0.040642,-0.015712,0.027413,-0.003019,-0.029788,-0.038217,0.044897,0.012084,0.040970
   -0.034107,   0.019889,   -0.008099,   0.034467,   0.000248,   -0.035154,   0.007285,   -0.044837,   -0.017244,   0.047243,   -0.020382,   -0.047493,   0.035411,   -0.002286,   -0.021017,   -0.023414,   -0.027752,   0.029379,   0.048104,   0.003695,   0.005275,   0.035154,   -0.026575,   0.030863,   0.022340,-0.033743,0.014901,0.003602,-0.030861,0.000838,0.040562,0.013818,-0.006442,-0.006264,-0.022944,-0.017945,0.040683,-0.016094,0.027325,-0.002899,-0.029788,-0.038217,0.044897,0.012084,0.040970
   -0.034127,   0.019857,   -0.008092,   0.034421,   0.000257,   -0.035179,   0.007243,   -0.044828,   -0.017307,   0.047258,   -0.020352,   -0.047443,   0.035401,   -0.002211,   -0.021035,   -0.023406,   -0.027738,   0.029376,   0.048124,   0.003690,   0.005303,   0.035198,   -0.026585,   0.030927,   0.022327,-0.032771,0.015181,0.003489,-0.029491,0.001327,0.040406,0.012186,-0.007036,-0.006075,-0.023404,-0.018126,0.040735,-0.017433,0.026946,-0.002746,-0.029788,-0.038217,0.044897,0.012084,0.040970
   -0.034167,   0.019799,   -0.008082,   0.034330,   0.000266,   -0.035231,   0.007165,   -0.044816,   -0.017432,   0.047273,   -0.020291,   -0.047350,   0.035386,   -0.002062,   -0.021054,   -0.023390,   -0.027713,   0.029373,   0.048166,   0.003684,   0.005358,   0.035279,   -0.026599,   0.031052,   0.022316,-0.030976,0.015703,0.003295,-0.026933,0.002236,0.040135,0.009135,-0.008144,-0.005748,-0.024268,-0.018465,0.040826,-0.019900,0.026242,-0.002478,-0.029788,-0.038217,0.044897,0.012084,0.040970
   -0.034217,   0.019732,   -0.008081,   0.034201,   0.000264,   -0.035298,   0.007073,   -0.044817,   -0.017614,   0.047275,   -0.020212,   -0.047241,   0.035388,   -0.001846,   -0.021056,   -0.023368,   -0.027682,   0.029373,   0.048227,   0.003683,   0.005428,   0.035371,   -0.026600,   0.031231,   0.022318,-0.028423,0.016609,0.003157,-0.023279,0.003741,0.039948,0.004774,-0.009971,-0.005518,-0.025506,-0.019015,0.040888,-0.023403,0.025015,-0.002290,-0.029788,-0.038217,0.044897,0.012084,0.040970
   -0.034233,   0.019717,   -0.008089,   0.034153,   0.000262,   -0.035317,   0.007055,   -0.044829,   -0.017679,   0.047275,   -0.020189,   -0.047219,   0.035402,   -0.001769,   -0.021056,   -0.023362,   -0.027676,   0.029378,   0.048248,   0.003682,   0.005449,   0.035391,   -0.026589,   0.031296,   0.022321,-0.027297,0.016920,0.003329,-0.021678,0.004290,0.040193,0.002864,-0.010640,-0.005808,-0.026047,-0.019222,0.040805,-0.024952,0.024597,-0.002524,-0.029788,-0.038217,0.044897,0.012084,0.040970
   -0.034255,   0.019689,   -0.008105,   0.034068,   0.000254,   -0.035344,   0.007017,   -0.044852,   -0.017795,   0.047267,   -0.020157,   -0.047174,   0.035430,   -0.001630,   -0.021048,   -0.023354,   -0.027664,   0.029386,   0.048287,   0.003684,   0.005480,   0.035431,   -0.026567,   0.031413,   0.022333,-0.025644,0.017407,0.003272,-0.019330,0.005135,0.040116,0.000063,-0.011671,-0.005713,-0.026843,-0.019540,0.040830,-0.027226,0.023937,-0.002445,-0.029788,-0.038217,0.044897,0.012084,0.040970
   -0.034283,   0.019656,   -0.008139,   0.033940,   0.000230,   -0.035379,   0.006973,   -0.044901,   -0.017974,   0.047238,   -0.020116,   -0.047121,   0.035488,   -0.001417,   -0.021014,   -0.023343,   -0.027650,   0.029402,   0.048347,   0.003693,   0.005518,   0.035476,   -0.026521,   0.031590,   0.022367,-0.023301,0.018204,0.003184,-0.015981,0.006472,0.039996,-0.003934,-0.013295,-0.005564,-0.027983,-0.020036,0.040869,-0.030440,0.022857,-0.002324,-0.029788,-0.038217,0.044897,0.012084,0.040970
   -0.034304,   0.019638,   -0.008198,   0.033790,   0.000188,   -0.035406,   0.006949,   -0.044984,   -0.018183,   0.047184,   -0.020084,   -0.047093,   0.035587,   -0.001168,   -0.020950,   -0.023334,   -0.027642,   0.029431,   0.048417,   0.003710,   0.005548,   0.035502,   -0.026440,   0.031796,   0.022425,-0.020596,0.019190,0.003210,-0.012108,0.008099,0.040036,-0.008555,-0.015269,-0.005607,-0.029302,-0.020638,0.040854,-0.034145,0.021520,-0.002356,-0.029788,-0.038217,0.044897,0.012084,0.040970
   -0.034313,   0.019635,   -0.008250,   0.033683,   0.000150,   -0.035417,   0.006946,   -0.045059,   -0.018333,   0.047133,   -0.020071,   -0.047089,   0.035676,   -0.000989,   -0.020889,   -0.023331,   -0.027641,   0.029456,   0.048467,   0.003727,   0.005561,   0.035505,   -0.026368,   0.031943,   0.022477,-0.018745,0.019836,0.003244,-0.009453,0.009179,0.040086,-0.011723,-0.016579,-0.005663,-0.030209,-0.021041,0.040836,-0.036679,0.020644,-0.002401,-0.029788,-0.038217,0.044897,0.012084,0.040970
   -0.034315,   0.019652,   -0.008300,   0.033611,   0.000115,   -0.035419,   0.006970,   -0.045130,   -0.018434,   0.047085,   -0.020069,   -0.047118,   0.035761,   -0.000869,   -0.020832,   -0.023331,   -0.027650,   0.029480,   0.048501,   0.003743,   0.005564,   0.035483,   -0.026300,   0.032041,   0.022526,-0.017326,0.020143,0.003618,-0.007412,0.009763,0.040617,-0.014157,-0.017297,-0.006293,-0.030909,-0.021275,0.040655,-0.038616,0.020234,-0.002911,-0.029788,-0.038217,0.044897,0.012084,0.040970
   -0.034315,   0.019651,   -0.008309,   0.033594,   0.000110,   -0.035418,   0.006969,   -0.045142,   -0.018458,   0.047079,   -0.020070,   -0.047117,   0.035776,   -0.000841,   -0.020825,   -0.023331,   -0.027649,   0.029484,   0.048509,   0.003744,   0.005564,   0.035484,   -0.026287,   0.032066,   0.022533,-0.017036,0.020214,0.003568,-0.007006,0.009894,0.040546,-0.014641,-0.017458,-0.006208,-0.031047,-0.021326,0.040678,-0.039015,0.020136,-0.002843,-0.029788,-0.038217,0.044897,0.012084,0.040970
   -0.034314,   0.019652,   -0.008343,   0.033534,   0.000088,   -0.035415,   0.006971,   -0.045188,   -0.018538,   0.047053,   -0.020074,   -0.047119,   0.035830,   -0.000745,   -0.020795,   -0.023332,   -0.027650,   0.029500,   0.048536,   0.003752,   0.005563,   0.035483,   -0.026241,   0.032148,   0.022563,-0.016075,0.020461,0.003469,-0.005646,0.010338,0.040406,-0.016264,-0.018003,-0.006039,-0.031512,-0.021501,0.040725,-0.040340,0.019801,-0.002706,-0.029788,-0.038217,0.044897,0.012084,0.040970
   -0.034310,   0.019658,   -0.008414,   0.033417,   0.000042,   -0.035406,   0.006981,   -0.045287,   -0.018699,   0.046993,   -0.020085,   -0.047131,   0.035947,   -0.000553,   -0.020725,   -0.023336,   -0.027654,   0.029533,   0.048589,   0.003771,   0.005557,   0.035474,   -0.026143,   0.032310,   0.022628,-0.014227,0.021039,0.003281,-0.003025,0.011325,0.040140,-0.019391,-0.019208,-0.005719,-0.032408,-0.021879,0.040813,-0.042880,0.019015,-0.002447,-0.029788,-0.038217,0.044897,0.012084,0.040970
   -0.034297,   0.019686,   -0.008533,   0.033246,   -0.000041,   -0.035386,   0.007019,   -0.045453,   -0.018938,   0.046882,   -0.020110,   -0.047177,   0.036145,   -0.000270,   -0.020592,   -0.023344,   -0.027667,   0.029589,   0.048670,   0.003808,   0.005540,   0.035437,   -0.025979,   0.032545,   0.022742,-0.011612,0.021973,0.003156,0.000707,0.012872,0.039962,-0.023839,-0.021084,-0.005503,-0.033690,-0.022463,0.040870,-0.046458,0.017744,-0.002273,-0.029788,-0.038217,0.044897,0.012084,0.040970
   -0.034290,   0.019704,   -0.008587,   0.033180,   -0.000080,   -0.035374,   0.007046,   -0.045528,   -0.019029,   0.046830,   -0.020123,   -0.047208,   0.036234,   -0.000161,   -0.020532,   -0.023348,   -0.027676,   0.029614,   0.048700,   0.003824,   0.005530,   0.035411,   -0.025906,   0.032636,   0.022796,-0.010608,0.022206,0.003208,0.002148,0.013304,0.040035,-0.025560,-0.021616,-0.005588,-0.034189,-0.022638,0.040843,-0.047833,0.017430,-0.002343,-0.029788,-0.038217,0.044897,0.012084,0.040970
   -0.034273,   0.019734,   -0.008674,   0.033073,   -0.000139,   -0.035349,   0.007087,   -0.045648,   -0.019174,   0.046754,   -0.020154,   -0.047258,   0.036377,   0.000012,   -0.020441,   -0.023357,   -0.027691,   0.029655,   0.048749,   0.003849,   0.005508,   0.035370,   -0.025785,   0.032783,   0.022878,-0.008983,0.022687,0.003186,0.004457,0.014139,0.040001,-0.028317,-0.022637,-0.005547,-0.034984,-0.022964,0.040852,-0.050069,0.016775,-0.002311,-0.029788,-0.038217,0.044897,0.012084,0.040970
   -0.034244,   0.019785,   -0.008817,   0.032904,   -0.000240,   -0.035307,   0.007158,   -0.045847,   -0.019410,   0.046617,   -0.020205,   -0.047342,   0.036614,   0.000292,   -0.020279,   -0.023372,   -0.027715,   0.029722,   0.048828,   0.003894,   0.005469,   0.035301,   -0.025588,   0.033017,   0.023018,-0.006608,0.023485,0.003049,0.007849,0.015478,0.039804,-0.032361,-0.024267,-0.005309,-0.036158,-0.023480,0.040914,-0.053319,0.015690,-0.002121,-0.029788,-0.038217,0.044897,0.012084,0.040970
   -0.034203,   0.019865,   -0.008994,   0.032722,   -0.000364,   -0.035246,   0.007272,   -0.046095,   -0.019663,   0.046447,   -0.020277,   -0.047477,   0.036908,   0.000593,   -0.020077,   -0.023394,   -0.027754,   0.029807,   0.048914,   0.003951,   0.005412,   0.035191,   -0.025347,   0.033265,   0.023189,-0.004027,0.024385,0.003182,0.011538,0.016974,0.039987,-0.036749,-0.026079,-0.005521,-0.037439,-0.024057,0.040847,-0.056831,0.014465,-0.002296,-0.029788,-0.038217,0.044897,0.012084,0.040970
   -0.034164,   0.019935,   -0.009139,   0.032580,   -0.000465,   -0.035190,   0.007369,   -0.046298,   -0.019862,   0.046309,   -0.020344,   -0.047593,   0.037149,   0.000830,   -0.019913,   -0.023414,   -0.027788,   0.029876,   0.048981,   0.003997,   0.005359,   0.035096,   -0.025148,   0.033460,   0.023327,-0.002055,0.025069,0.003243,0.014348,0.018111,0.040066,-0.040088,-0.027457,-0.005612,-0.038415,-0.024499,0.040815,-0.059515,0.013535,-0.002373,-0.029788,-0.038217,0.044897,0.012084,0.040970
   -0.034134,   0.019998,   -0.009248,   0.032489,   -0.000543,   -0.035147,   0.007459,   -0.046452,   -0.019990,   0.046201,   -0.020394,   -0.047699,   0.037333,   0.000981,   -0.019784,   -0.023429,   -0.027819,   0.029929,   0.049025,   0.004034,   0.005319,   0.035009,   -0.024999,   0.033585,   0.023434,-0.000758,0.025346,0.003562,0.016209,0.018636,0.040514,-0.042295,-0.028100,-0.006140,-0.039069,-0.024721,0.040658,-0.061267,0.013163,-0.002806,-0.029788,-0.038217,0.044897,0.012084,0.040970
   -0.034127,   0.020007,   -0.009270,   0.032468,   -0.000557,   -0.035138,   0.007471,   -0.046480,   -0.020018,   0.046183,   -0.020405,   -0.047713,   0.037366,   0.001015,   -0.019763,   -0.023432,   -0.027823,   0.029939,   0.049035,   0.004039,   0.005310,   0.034997,   -0.024969,   0.033614,   0.023454,-0.000469,0.025412,0.003524,0.016617,0.018760,0.040459,-0.042782,-0.028253,-0.006075,-0.039210,-0.024773,0.040676,-0.061667,0.013072,-0.002754,-0.029788,-0.038217,0.044897,0.012084,0.040970
   -0.034104,   0.020040,   -0.009345,   0.032391,   -0.000608,   -0.035105,   0.007515,   -0.046582,   -0.020122,   0.046116,   -0.020445,   -0.047765,   0.037487,   0.001139,   -0.019685,   -0.023443,   -0.027838,   0.029973,   0.049069,   0.004061,   0.005278,   0.034952,   -0.024865,   0.033720,   0.023525,0.000521,0.025687,0.003365,0.018016,0.019244,0.040230,-0.044454,-0.028849,-0.005802,-0.039695,-0.024969,0.040752,-0.063033,0.012696,-0.002534,-0.029788,-0.038217,0.044897,0.012084,0.040970
   -0.034058,   0.020113,   -0.009497,   0.032250,   -0.000714,   -0.035039,   0.007616,   -0.046790,   -0.020315,   0.045976,   -0.020523,   -0.047885,   0.037734,   0.001367,   -0.019518,   -0.023466,   -0.027872,   0.030043,   0.049134,   0.004107,   0.005215,   0.034851,   -0.024656,   0.033914,   0.023671,0.002319,0.026197,0.003268,0.020572,0.020136,0.040087,-0.047504,-0.029942,-0.005630,-0.040589,-0.025331,0.040796,-0.065500,0.012003,-0.002399,-0.029788,-0.038217,0.044897,0.012084,0.040970
   -0.033984,   0.020234,   -0.009734,   0.032037,   -0.000882,   -0.034934,   0.007785,   -0.047121,   -0.020611,   0.045745,   -0.020648,   -0.048086,   0.038127,   0.001720,   -0.019244,   -0.023503,   -0.027931,   0.030156,   0.049235,   0.004185,   0.005114,   0.034686,   -0.024331,   0.034206,   0.023903,0.004888,0.027090,0.003160,0.024237,0.021617,0.039922,-0.051858,-0.031736,-0.005428,-0.041877,-0.025915,0.040846,-0.068996,0.010787,-0.002243,-0.029788,-0.038217,0.044897,0.012084,0.040970
   -0.033951,   0.020286,   -0.009829,   0.031958,   -0.000946,   -0.034887,   0.007856,   -0.047252,   -0.020720,   0.045659,   -0.020703,   -0.048170,   0.038282,   0.001849,   -0.019143,   -0.023520,   -0.027955,   0.030201,   0.049272,   0.004213,   0.005069,   0.034614,   -0.024200,   0.034316,   0.023991,0.005937,0.027400,0.003161,0.025717,0.022152,0.039918,-0.053618,-0.032390,-0.005422,-0.042393,-0.026133,0.040844,-0.070431,0.010361,-0.002242,-0.029788,-0.038217,0.044897,0.012084,0.040970
   -0.033896,   0.020372,   -0.009991,   0.031821,   -0.001060,   -0.034810,   0.007974,   -0.047473,   -0.020907,   0.045509,   -0.020796,   -0.048310,   0.038544,   0.002070,   -0.018965,   -0.023547,   -0.027995,   0.030275,   0.049334,   0.004262,   0.004993,   0.034496,   -0.023977,   0.034504,   0.024147,0.007586,0.027873,0.003070,0.028059,0.022977,0.039782,-0.056413,-0.033403,-0.005261,-0.043216,-0.026472,0.040885,-0.072695,0.009716,-0.002115,-0.029788,-0.038217,0.044897,0.012084,0.040970
   -0.033807,   0.020514,   -0.010244,   0.031617,   -0.001235,   -0.034685,   0.008170,   -0.047822,   -0.021188,   0.045270,   -0.020944,   -0.048543,   0.038958,   0.002403,   -0.018683,   -0.023590,   -0.028063,   0.030395,   0.049430,   0.004342,   0.004872,   0.034302,   -0.023630,   0.034784,   0.024389,0.010033,0.028717,0.003042,0.031527,0.024378,0.039728,-0.060532,-0.035102,-0.005194,-0.044438,-0.027032,0.040894,-0.076028,0.008564,-0.002069,-0.029788,-0.038217,0.044897,0.012084,0.040970
   -0.033703,   0.020684,   -0.010543,   0.031382,   -0.001449,   -0.034537,   0.008408,   -0.048240,   -0.021518,   0.044974,   -0.021119,   -0.048824,   0.039453,   0.002794,   -0.018331,   -0.023642,   -0.028146,   0.030540,   0.049543,   0.004443,   0.004731,   0.034070,   -0.023223,   0.035106,   0.024682,0.012588,0.029606,0.002996,0.035174,0.025847,0.039645,-0.064846,-0.036876,-0.005088,-0.045737,-0.027624,0.040913,-0.079478,0.007352,-0.001995,-0.029788,-0.038217,0.044897,0.012084,0.040970
   -0.033622,   0.020823,   -0.010764,   0.031224,   -0.001604,   -0.034423,   0.008601,   -0.048548,   -0.021737,   0.044759,   -0.021254,   -0.049052,   0.039818,   0.003054,   -0.018076,   -0.023683,   -0.028214,   0.030647,   0.049619,   0.004517,   0.004621,   0.033883,   -0.022922,   0.035321,   0.024894,0.014391,0.030169,0.003223,0.037735,0.026797,0.039951,-0.067868,-0.038022,-0.005445,-0.046653,-0.028018,0.040798,-0.081909,0.006589,-0.002296,-0.029788,-0.038217,0.044897,0.012084,0.040970
   -0.033559,   0.020934,   -0.010934,   0.031111,   -0.001723,   -0.034335,   0.008756,   -0.048785,   -0.021896,   0.044594,   -0.021358,   -0.049236,   0.040099,   0.003242,   -0.017880,   -0.023714,   -0.028268,   0.030730,   0.049674,   0.004574,   0.004537,   0.033732,   -0.022692,   0.035475,   0.025057,0.015708,0.030482,0.003514,0.039602,0.027360,0.040351,-0.070062,-0.038704,-0.005911,-0.047325,-0.028267,0.040652,-0.083671,0.006168,-0.002685,-0.029788,-0.038217,0.044897,0.012084,0.040970
   -0.033546,   0.020951,   -0.010967,   0.031082,   -0.001746,   -0.034316,   0.008779,   -0.048830,   -0.021934,   0.044563,   -0.021380,   -0.049263,   0.040152,   0.003287,   -0.017844,   -0.023721,   -0.028276,   0.030745,   0.049687,   0.004584,   0.004518,   0.033708,   -0.022645,   0.035515,   0.025090,0.016013,0.030556,0.003419,0.040030,0.027496,0.040215,-0.070575,-0.038874,-0.005749,-0.047475,-0.028326,0.040699,-0.084092,0.006066,-0.002555,-0.029788,-0.038217,0.044897,0.012084,0.040970
   -0.033500,   0.021017,   -0.011085,   0.030992,   -0.001828,   -0.034253,   0.008868,   -0.048988,   -0.022056,   0.044456,   -0.021455,   -0.049368,   0.040339,   0.003432,   -0.017717,   -0.023742,   -0.028306,   0.030798,   0.049727,   0.004619,   0.004455,   0.033617,   -0.022483,   0.035640,   0.025203,0.017001,0.030823,0.003272,0.041426,0.027970,0.039999,-0.072244,-0.039460,-0.005493,-0.047969,-0.028528,0.040770,-0.085454,0.005700,-0.002351,-0.029788,-0.038217,0.044897,0.012084,0.040970
   -0.033409,   0.021155,   -0.011320,   0.030818,   -0.001994,   -0.034127,   0.009057,   -0.049309,   -0.022294,   0.044234,   -0.021606,   -0.049592,   0.040719,   0.003713,   -0.017454,   -0.023787,   -0.028371,   0.030907,   0.049808,   0.004693,   0.004330,   0.033427,   -0.022159,   0.035879,   0.025431,0.018841,0.031383,0.003129,0.044036,0.028929,0.039783,-0.075352,-0.040633,-0.005237,-0.048900,-0.028930,0.040837,-0.087975,0.004936,-0.002151,-0.029788,-0.038217,0.044897,0.012084,0.040970
   -0.033278,   0.021365,   -0.011659,   0.030578,   -0.002235,   -0.033943,   0.009347,   -0.049781,   -0.022627,   0.043901,   -0.021823,   -0.049936,   0.041278,   0.004108,   -0.017060,   -0.023852,   -0.028473,   0.031072,   0.049923,   0.004807,   0.004152,   0.033142,   -0.021696,   0.036207,   0.025762,0.021276,0.032162,0.003139,0.047491,0.030234,0.039772,-0.079431,-0.042208,-0.005215,-0.050147,-0.029477,0.040828,-0.091262,0.003877,-0.002150,-0.029788,-0.038217,0.044897,0.012084,0.040970
   -0.033217,   0.021459,   -0.011810,   0.030475,   -0.002339,   -0.033858,   0.009476,   -0.049985,   -0.022768,   0.043762,   -0.021923,   -0.050087,   0.041519,   0.004274,   -0.016896,   -0.023881,   -0.028517,   0.031142,   0.049971,   0.004854,   0.004069,   0.033013,   -0.021490,   0.036349,   0.025904,0.022404,0.032516,0.003131,0.049077,0.030832,0.039751,-0.081311,-0.042937,-0.005191,-0.050713,-0.029730,0.040829,-0.092800,0.003391,-0.002137,-0.029788,-0.038217,0.044897,0.012084,0.040970
   -0.033121,   0.021604,   -0.012044,   0.030314,   -0.002502,   -0.033726,   0.009672,   -0.050303,   -0.022987,   0.043544,   -0.022080,   -0.050320,   0.041895,   0.004534,   -0.016638,   -0.023928,   -0.028585,   0.031250,   0.050045,   0.004926,   0.003937,   0.032814,   -0.021168,   0.036571,   0.026129,0.024099,0.033039,0.003045,0.051470,0.031724,0.039614,-0.084160,-0.044030,-0.005030,-0.051568,-0.030108,0.040868,-0.095123,0.002675,-0.002015,-0.029788,-0.038217,0.044897,0.012084,0.040970
   -0.032977,   0.021831,   -0.012404,   0.030071,   -0.002759,   -0.033524,   0.009987,   -0.050801,   -0.023323,   0.043191,   -0.022319,   -0.050692,   0.042484,   0.004931,   -0.016221,   -0.023999,   -0.028695,   0.031423,   0.050161,   0.005047,   0.003741,   0.032503,   -0.020676,   0.036904,   0.026482,0.026426,0.033779,0.003028,0.054775,0.032968,0.039565,-0.088069,-0.045536,-0.004968,-0.052771,-0.030638,0.040871,-0.098273,0.001668,-0.001980,-0.029788,-0.038217,0.044897,0.012084,0.040970
   -0.032808,   0.022093,   -0.012814,   0.029794,   -0.003047,   -0.033288,   0.010348,   -0.051370,   -0.023707,   0.042792,   -0.022596,   -0.051118,   0.043155,   0.005384,   -0.015750,   -0.024083,   -0.028824,   0.031623,   0.050294,   0.005186,   0.003513,   0.032150,   -0.020119,   0.037280,   0.026875,0.029059,0.034800,0.002954,0.058474,0.034596,0.039427,-0.092399,-0.047481,-0.004793,-0.054117,-0.031311,0.040904,-0.101795,0.000274,-0.001861,-0.029788,-0.038217,0.044897,0.012084,0.040970
   -0.032678,   0.022301,   -0.013131,   0.029590,   -0.003274,   -0.033106,   0.010637,   -0.051810,   -0.023992,   0.042478,   -0.022810,   -0.051458,   0.043674,   0.005719,   -0.015378,   -0.024149,   -0.028927,   0.031779,   0.050394,   0.005295,   0.003337,   0.031869,   -0.019690,   0.037558,   0.027184,0.030894,0.035354,0.003035,0.061070,0.035530,0.039516,-0.095440,-0.048602,-0.004891,-0.055076,-0.031721,0.040859,-0.104246,-0.000474,-0.001957,-0.029788,-0.038217,0.044897,0.012084,0.040970
   -0.032589,   0.022453,   -0.013343,   0.029469,   -0.003424,   -0.032982,   0.010849,   -0.052106,   -0.024160,   0.042269,   -0.022956,   -0.051706,   0.044021,   0.005917,   -0.015131,   -0.024194,   -0.029003,   0.031885,   0.050454,   0.005369,   0.003218,   0.031664,   -0.019403,   0.037721,   0.027388,0.032092,0.035586,0.003431,0.062743,0.035960,0.040054,-0.097381,-0.049118,-0.005515,-0.055703,-0.031937,0.040658,-0.105819,-0.000782,-0.002484,-0.029788,-0.038217,0.044897,0.012084,0.040970
   -0.032568,   0.022481,   -0.013390,   0.029437,   -0.003457,   -0.032955,   0.010885,   -0.052167,   -0.024203,   0.042227,   -0.022989,   -0.051750,   0.044094,   0.005969,   -0.015081,   -0.024204,   -0.029015,   0.031905,   0.050468,   0.005383,   0.003190,   0.031626,   -0.019339,   0.037766,   0.027433,0.032402,0.035665,0.003344,0.063179,0.036103,0.039928,-0.097903,-0.049297,-0.005366,-0.055858,-0.032001,0.040701,-0.106249,-0.000891,-0.002365,-0.029788,-0.038217,0.044897,0.012084,0.040970
   -0.032497,   0.022585,   -0.013554,   0.029330,   -0.003572,   -0.032857,   0.011025,   -0.052387,   -0.024347,   0.042075,   -0.023104,   -0.051916,   0.044354,   0.006139,   -0.014902,   -0.024237,   -0.029063,   0.031980,   0.050516,   0.005433,   0.003091,   0.031482,   -0.019112,   0.037914,   0.027593,0.033436,0.035946,0.003231,0.064636,0.036601,0.039756,-0.099644,-0.049915,-0.005163,-0.056383,-0.032224,0.040756,-0.107674,-0.001279,-0.002206,-0.029788,-0.038217,0.044897,0.012084,0.040970
   -0.032363,   0.022784,   -0.013866,   0.029126,   -0.003795,   -0.032673,   0.011296,   -0.052812,   -0.024626,   0.041774,   -0.023323,   -0.052236,   0.044857,   0.006468,   -0.014547,   -0.024302,   -0.029157,   0.032127,   0.050612,   0.005535,   0.002908,   0.031208,   -0.018683,   0.038194,   0.027899,0.035251,0.036503,0.003019,0.067205,0.037550,0.039435,-0.102695,-0.051074,-0.004782,-0.057322,-0.032640,0.040859,-0.110152,-0.002040,-0.001910,-0.029788,-0.038217,0.044897,0.012084,0.040970
   -0.032159,   0.023097,   -0.014344,   0.028819,   -0.004136,   -0.032389,   0.011728,   -0.053474,   -0.025051,   0.041304,   -0.023657,   -0.052743,   0.045635,   0.006969,   -0.013992,   -0.024405,   -0.029312,   0.032362,   0.050761,   0.005700,   0.002632,   0.030785,   -0.018035,   0.038612,   0.028364,0.037840,0.037408,0.002875,0.070850,0.039021,0.039191,-0.106962,-0.052833,-0.004484,-0.058674,-0.033276,0.040926,-0.113620,-0.003267,-0.001693,-0.029788,-0.038217,0.044897,0.012084,0.040970
   -0.032085,   0.023214,   -0.014510,   0.028726,   -0.004252,   -0.032288,   0.011886,   -0.053697,   -0.025177,   0.041149,   -0.023776,   -0.052929,   0.045898,   0.007117,   -0.013810,   -0.024440,   -0.029366,   0.032438,   0.050804,   0.005752,   0.002531,   0.030626,   -0.017808,   0.038740,   0.028523,0.038786,0.037635,0.003024,0.072170,0.039427,0.039387,-0.108521,-0.053333,-0.004715,-0.059159,-0.033470,0.040848,-0.114902,-0.003579,-0.001891,-0.029788,-0.038217,0.044897,0.012084,0.040970
   -0.031949,   0.023421,   -0.014818,   0.028539,   -0.004472,   -0.032101,   0.012166,   -0.054115,   -0.025430,   0.040854,   -0.023997,   -0.053261,   0.046392,   0.007416,   -0.013462,   -0.024506,   -0.029464,   0.032582,   0.050890,   0.005851,   0.002344,   0.030342,   -0.017384,   0.038997,   0.028825,0.040453,0.038113,0.002998,0.074524,0.040255,0.039328,-0.111318,-0.054349,-0.004649,-0.060024,-0.033844,0.040856,-0.117180,-0.004233,-0.001850,-0.029788,-0.038217,0.044897,0.012084,0.040970
   -0.031743,   0.023734,   -0.015287,   0.028250,   -0.004806,   -0.031816,   0.012596,   -0.054759,   -0.025828,   0.040396,   -0.024332,   -0.053766,   0.047149,   0.007884,   -0.012922,   -0.024608,   -0.029617,   0.032810,   0.051030,   0.006012,   0.002065,   0.029917,   -0.016746,   0.039391,   0.029283,0.042837,0.038935,0.002890,0.077877,0.041598,0.039137,-0.115252,-0.055962,-0.004419,-0.061275,-0.034434,0.040905,-0.120384,-0.005351,-0.001685,-0.029788,-0.038217,0.044897,0.012084,0.040970
   -0.031505,   0.024100,   -0.015822,   0.027927,   -0.005189,   -0.031487,   0.013099,   -0.055497,   -0.026275,   0.039869,   -0.024716,   -0.054355,   0.048013,   0.008407,   -0.012303,   -0.024728,   -0.029799,   0.033075,   0.051188,   0.006198,   0.001746,   0.029425,   -0.016025,   0.039828,   0.029801,0.045453,0.039867,0.002915,0.081521,0.043090,0.039122,-0.119474,-0.057730,-0.004387,-0.062652,-0.035095,0.040885,-0.123841,-0.006618,-0.001693,-0.029788,-0.038217,0.044897,0.012084,0.040970
   -0.031334,   0.024363,   -0.016204,   0.027698,   -0.005461,   -0.031249,   0.013462,   -0.056026,   -0.026593,   0.039491,   -0.024994,   -0.054780,   0.048633,   0.008780,   -0.011859,   -0.024815,   -0.029932,   0.033266,   0.051302,   0.006333,   0.001516,   0.029071,   -0.015509,   0.040138,   0.030170,0.047260,0.040507,0.002941,0.084036,0.044111,0.039121,-0.122385,-0.058939,-0.004376,-0.063607,-0.035554,0.040868,-0.126229,-0.007482,-0.001710,-0.029788,-0.038217,0.044897,0.012084,0.040970
   -0.031215,   0.024557,   -0.016469,   0.027555,   -0.005651,   -0.031085,   0.013731,   -0.056391,   -0.026790,   0.039228,   -0.025186,   -0.055093,   0.049060,   0.009012,   -0.011548,   -0.024877,   -0.030031,   0.033400,   0.051373,   0.006428,   0.001358,   0.028811,   -0.015155,   0.040330,   0.030427,0.048414,0.040688,0.003316,0.085626,0.044457,0.039619,-0.124203,-0.059351,-0.004948,-0.064230,-0.035755,0.040673,-0.127717,-0.007715,-0.002202,-0.029788,-0.038217,0.044897,0.012084,0.040970
   -0.031186,   0.024599,   -0.016530,   0.027518,   -0.005695,   -0.031046,   0.013785,   -0.056473,   -0.026839,   0.039171,   -0.025231,   -0.055158,   0.049157,   0.009069,   -0.011481,   -0.024890,   -0.030049,   0.033427,   0.051389,   0.006447,   0.001319,   0.028754,   -0.015070,   0.040381,   0.030487,0.048737,0.040766,0.003270,0.086080,0.044602,0.039549,-0.124749,-0.059533,-0.004866,-0.064396,-0.035824,0.040696,-0.128164,-0.007824,-0.002137,-0.029788,-0.038217,0.044897,0.012084,0.040970
   -0.031092,   0.024737,   -0.016735,   0.027396,   -0.005841,   -0.030918,   0.013970,   -0.056747,   -0.027003,   0.038977,   -0.025383,   -0.055376,   0.049481,   0.009263,   -0.011253,   -0.024935,   -0.030113,   0.033521,   0.051445,   0.006512,   0.001188,   0.028564,   -0.014787,   0.040549,   0.030690,0.049757,0.041043,0.003143,0.087517,0.045093,0.039354,-0.126465,-0.060144,-0.004637,-0.064926,-0.036054,0.040758,-0.129568,-0.008206,-0.001961,-0.029788,-0.038217,0.044897,0.012084,0.040970
   -0.030907,   0.025010,   -0.017137,   0.027157,   -0.006130,   -0.030666,   0.014338,   -0.057290,   -0.027327,   0.038590,   -0.025680,   -0.055810,   0.050120,   0.009644,   -0.010798,   -0.025024,   -0.030242,   0.033710,   0.051557,   0.006644,   0.000936,   0.028191,   -0.014237,   0.040877,   0.031085,0.051660,0.041636,0.002958,0.090188,0.046092,0.039060,-0.129619,-0.061359,-0.004288,-0.065925,-0.036513,0.040848,-0.132153,-0.009015,-0.001697,-0.029788,-0.038217,0.044897,0.012084,0.040970
   -0.030642,   0.025408,   -0.017717,   0.026811,   -0.006545,   -0.030300,   0.014885,   -0.058089,   -0.027806,   0.038017,   -0.026108,   -0.056448,   0.051054,   0.010204,   -0.010126,   -0.025159,   -0.030442,   0.033999,   0.051728,   0.006850,   0.000579,   0.027655,   -0.013454,   0.041346,   0.031648,0.054218,0.042638,0.002791,0.093740,0.047652,0.038767,-0.133727,-0.063192,-0.003930,-0.067286,-0.037210,0.040927,-0.135543,-0.010366,-0.001443,-0.029788,-0.038217,0.044897,0.012084,0.040970
   -0.030544,   0.025558,   -0.017927,   0.026696,   -0.006698,   -0.030167,   0.015087,   -0.058372,   -0.027961,   0.037814,   -0.026264,   -0.056686,   0.051386,   0.010386,   -0.009887,   -0.025206,   -0.030514,   0.034098,   0.051781,   0.006919,   0.000446,   0.027451,   -0.013168,   0.041503,   0.031856,0.055130,0.042758,0.002861,0.095024,0.047927,0.038848,-0.135247,-0.063551,-0.004025,-0.067773,-0.037367,0.040889,-0.136775,-0.010536,-0.001531,-0.029788,-0.038217,0.044897,0.012084,0.040970
   -0.030362,   0.025828,   -0.018315,   0.026476,   -0.006976,   -0.029920,   0.015452,   -0.058895,   -0.028258,   0.037440,   -0.026555,   -0.057116,   0.052002,   0.010735,   -0.009448,   -0.025294,   -0.030642,   0.034280,   0.051884,   0.007047,   0.000198,   0.027081,   -0.012636,   0.041805,   0.032238,0.056845,0.043296,0.002800,0.097434,0.048833,0.038732,-0.138097,-0.064655,-0.003896,-0.068681,-0.037789,0.040914,-0.139109,-0.011270,-0.001440,-0.029788,-0.038217,0.044897,0.012084,0.040970
   -0.030094,   0.026231,   -0.018892,   0.026142,   -0.007393,   -0.029550,   0.016003,   -0.059685,   -0.028715,   0.036871,   -0.026987,   -0.057759,   0.052925,   0.011269,   -0.008781,   -0.025429,   -0.030842,   0.034565,   0.052047,   0.007250,   -0.000164,   0.026536,   -0.011854,   0.042257,   0.032805,0.059232,0.044115,0.002690,0.100762,0.050158,0.038525,-0.141967,-0.066234,-0.003649,-0.069963,-0.038403,0.040963,-0.142289,-0.012379,-0.001268,-0.029788,-0.038217,0.044897,0.012084,0.040970
   -0.029798,   0.026682,   -0.019521,   0.025787,   -0.007847,   -0.029144,   0.016619,   -0.060548,   -0.029204,   0.036247,   -0.027458,   -0.058474,   0.053928,   0.011838,   -0.008052,   -0.025581,   -0.031071,   0.034881,   0.052224,   0.007477,   -0.000559,   0.025935,   -0.011012,   0.042735,   0.033416,0.061734,0.044981,0.002807,0.104199,0.051523,0.038622,-0.145894,-0.067830,-0.003748,-0.071316,-0.039048,0.040894,-0.145545,-0.013547,-0.001392,-0.029788,-0.038217,0.044897,0.012084,0.040970
   -0.029567,   0.027031,   -0.020007,   0.025513,   -0.008198,   -0.028827,   0.017095,   -0.061212,   -0.029581,   0.035765,   -0.027825,   -0.059027,   0.054700,   0.012275,   -0.007490,   -0.025699,   -0.031247,   0.035126,   0.052360,   0.007651,   -0.000867,   0.025469,   -0.010361,   0.043103,   0.033889,0.063637,0.045629,0.002865,0.106809,0.052548,0.038652,-0.148877,-0.069033,-0.003773,-0.072345,-0.039539,0.040858,-0.148025,-0.014416,-0.001445,-0.029788,-0.038217,0.044897,0.012084,0.040970
   -0.029427,   0.027251,   -0.020301,   0.025359,   -0.008411,   -0.028635,   0.017397,   -0.061616,   -0.029794,   0.035470,   -0.028047,   -0.059378,   0.055169,   0.012524,   -0.007144,   -0.025773,   -0.031363,   0.035278,   0.052440,   0.007762,   -0.001050,   0.025177,   -0.009972,   0.043309,   0.034174,0.064694,0.045821,0.003197,0.108237,0.052883,0.039081,-0.150484,-0.069423,-0.004260,-0.072932,-0.039744,0.040681,-0.149361,-0.014662,-0.001874,-0.029788,-0.038217,0.044897,0.012084,0.040970
   -0.029391,   0.027303,   -0.020376,   0.025315,   -0.008465,   -0.028587,   0.017465,   -0.061715,   -0.029852,   0.035399,   -0.028105,   -0.059458,   0.055287,   0.012592,   -0.007061,   -0.025790,   -0.031385,   0.035311,   0.052459,   0.007785,   -0.001101,   0.025106,   -0.009868,   0.043369,   0.034249,0.065025,0.045909,0.003117,0.108703,0.053042,0.038961,-0.151044,-0.069623,-0.004118,-0.073105,-0.039822,0.040723,-0.149820,-0.014784,-0.001763,-0.029788,-0.038217,0.044897,0.012084,0.040970
   -0.029267,   0.027481,   -0.020634,   0.025168,   -0.008652,   -0.028419,   0.017703,   -0.062059,   -0.030049,   0.035152,   -0.028303,   -0.059739,   0.055692,   0.012824,   -0.006771,   -0.025848,   -0.031468,   0.035430,   0.052526,   0.007868,   -0.001272,   0.024860,   -0.009513,   0.043571,   0.034506,0.066095,0.046210,0.002928,0.110208,0.053569,0.038673,-0.152838,-0.070279,-0.003779,-0.073673,-0.040080,0.040819,-0.151290,-0.015198,-0.001500,-0.029788,-0.038217,0.044897,0.012084,0.040970
   -0.029039,   0.027818,   -0.021107,   0.024907,   -0.008995,   -0.028111,   0.018157,   -0.062697,   -0.030402,   0.034691,   -0.028665,   -0.060271,   0.056439,   0.013237,   -0.006231,   -0.025960,   -0.031631,   0.035656,   0.052650,   0.008029,   -0.001581,   0.024401,   -0.008868,   0.043928,   0.034975,0.067930,0.046761,0.002850,0.112771,0.054498,0.038521,-0.155849,-0.071404,-0.003601,-0.074664,-0.040535,0.040853,-0.153767,-0.015947,-0.001380,-0.029788,-0.038217,0.044897,0.012084,0.040970
   -0.028690,   0.028336,   -0.021830,   0.024496,   -0.009522,   -0.027634,   0.018859,   -0.063682,   -0.030964,   0.033972,   -0.029215,   -0.061082,   0.057578,   0.013888,   -0.005395,   -0.026139,   -0.031893,   0.036020,   0.052855,   0.008292,   -0.002046,   0.023712,   -0.007901,   0.044480,   0.035682,0.070590,0.047753,0.002702,0.116407,0.056030,0.038233,-0.159986,-0.073186,-0.003247,-0.076115,-0.041264,0.040923,-0.157229,-0.017275,-0.001138,-0.029788,-0.038217,0.044897,0.012084,0.040970
   -0.028583,   0.028495,   -0.022048,   0.024382,   -0.009678,   -0.027490,   0.019073,   -0.063975,   -0.031117,   0.033764,   -0.029386,   -0.061336,   0.057924,   0.014069,   -0.005150,   -0.026190,   -0.031968,   0.036122,   0.052908,   0.008363,   -0.002192,   0.023493,   -0.007601,   0.044637,   0.035897,0.071453,0.047949,0.002746,0.117617,0.056396,0.038277,-0.161431,-0.073650,-0.003305,-0.076575,-0.041457,0.040896,-0.158413,-0.017547,-0.001195,-0.029788,-0.038217,0.044897,0.012084,0.040970
   -0.028360,   0.028824,   -0.022506,   0.024133,   -0.010011,   -0.027188,   0.019515,   -0.064591,   -0.031454,   0.033318,   -0.029740,   -0.061853,   0.058645,   0.014462,   -0.004629,   -0.026299,   -0.032126,   0.036339,   0.053025,   0.008519,   -0.002496,   0.023045,   -0.006976,   0.044978,   0.036352,0.073155,0.048496,0.002642,0.119998,0.057307,0.038094,-0.164232,-0.074756,-0.003098,-0.077497,-0.041901,0.040943,-0.160718,-0.018293,-0.001046,-0.029788,-0.038217,0.044897,0.012084,0.040970
   -0.028019,   0.029328,   -0.023202,   0.023750,   -0.010517,   -0.026725,   0.020196,   -0.065532,   -0.031973,   0.032633,   -0.030275,   -0.062641,   0.059734,   0.015063,   -0.003833,   -0.026471,   -0.032378,   0.036684,   0.053213,   0.008767,   -0.002952,   0.022370,   -0.006042,   0.045493,   0.037034,0.075649,0.049368,0.002584,0.123414,0.058684,0.037940,-0.168147,-0.076374,-0.002913,-0.078858,-0.042573,0.040965,-0.163994,-0.019465,-0.000933,-0.029788,-0.038217,0.044897,0.012084,0.040970
   -0.027648,   0.029879,   -0.023958,   0.023328,   -0.011073,   -0.026217,   0.020947,   -0.066566,   -0.032552,   0.031870,   -0.030861,   -0.063508,   0.060929,   0.015732,   -0.002948,   -0.026665,   -0.032663,   0.037073,   0.053428,   0.009051,   -0.003445,   0.021638,   -0.005033,   0.046058,   0.037779,0.078132,0.050237,0.002515,0.126801,0.060033,0.037766,-0.171976,-0.077934,-0.002702,-0.080248,-0.043243,0.040991,-0.167191,-0.020628,-0.000804,-0.029788,-0.038217,0.044897,0.012084,0.040970
   -0.027383,   0.030277,   -0.024490,   0.023043,   -0.011464,   -0.025857,   0.021487,   -0.067289,   -0.032941,   0.031338,   -0.031275,   -0.064130,   0.061763,   0.016180,   -0.002331,   -0.026804,   -0.032869,   0.037347,   0.053573,   0.009250,   -0.003795,   0.021110,   -0.004326,   0.046437,   0.038300,0.079866,0.050784,0.002733,0.129137,0.060886,0.038008,-0.174604,-0.078920,-0.002976,-0.081219,-0.043691,0.040868,-0.169405,-0.021350,-0.001066,-0.029788,-0.038217,0.044897,0.012084,0.040970
   -0.027212,   0.030538,   -0.024831,   0.022866,   -0.011714,   -0.025625,   0.021841,   -0.067752,   -0.033183,   0.030994,   -0.031540,   -0.064536,   0.062295,   0.016459,   -0.001933,   -0.026895,   -0.033007,   0.037525,   0.053665,   0.009381,   -0.004018,   0.020768,   -0.003879,   0.046671,   0.038633,0.080941,0.051010,0.003036,0.130556,0.061252,0.038385,-0.176175,-0.079340,-0.003401,-0.081829,-0.043922,0.040702,-0.170739,-0.021637,-0.001450,-0.029788,-0.038217,0.044897,0.012084,0.040970
   -0.027167,   0.030601,   -0.024921,   0.022814,   -0.011780,   -0.025565,   0.021923,   -0.067871,   -0.033252,   0.030908,   -0.031612,   -0.064634,   0.062437,   0.016540,   -0.001831,   -0.026916,   -0.033035,   0.037565,   0.053688,   0.009409,   -0.004081,   0.020681,   -0.003753,   0.046743,   0.038724,0.081285,0.051100,0.002914,0.131041,0.061417,0.038205,-0.176759,-0.079550,-0.003187,-0.082012,-0.044007,0.040767,-0.171217,-0.021764,-0.001282,-0.029788,-0.038217,0.044897,0.012084,0.040970
   -0.027017,   0.030817,   -0.025220,   0.022653,   -0.011998,   -0.025365,   0.022208,   -0.068268,   -0.033466,   0.030621,   -0.031848,   -0.064969,   0.062902,   0.016791,   -0.001495,   -0.026986,   -0.033134,   0.037702,   0.053761,   0.009507,   -0.004286,   0.020385,   -0.003342,   0.046964,   0.039023,0.082375,0.051438,0.002768,0.132563,0.061992,0.037971,-0.178566,-0.080261,-0.002914,-0.082599,-0.044295,0.040842,-0.172709,-0.022228,-0.001076,-0.029788,-0.038217,0.044897,0.012084,0.040970
   -0.026730,   0.031234,   -0.025796,   0.022341,   -0.012421,   -0.024977,   0.022767,   -0.069039,   -0.033885,   0.030055,   -0.032298,   -0.065619,   0.063799,   0.017279,   -0.000836,   -0.027128,   -0.033337,   0.037979,   0.053910,   0.009707,   -0.004675,   0.019820,   -0.002561,   0.047388,   0.039599,0.084287,0.052039,0.002562,0.135220,0.062986,0.037628,-0.181666,-0.081456,-0.002516,-0.083656,-0.044801,0.040945,-0.175275,-0.023039,-0.000779,-0.029788,-0.038217,0.044897,0.012084,0.040970
   -0.026327,   0.031828,   -0.026595,   0.021904,   -0.013011,   -0.024431,   0.023569,   -0.070123,   -0.034481,   0.029252,   -0.032924,   -0.066539,   0.065043,   0.017962,   0.000091,   -0.027340,   -0.033647,   0.038393,   0.054134,   0.010011,   -0.005206,   0.019036,   -0.001502,   0.047969,   0.040384,0.086769,0.052901,0.002581,0.138554,0.064300,0.037561,-0.185395,-0.082960,-0.002422,-0.085056,-0.045482,0.040925,-0.178441,-0.024179,-0.000756,-0.029788,-0.038217,0.044897,0.012084,0.040970
   -0.026189,   0.032029,   -0.026866,   0.021766,   -0.013209,   -0.024248,   0.023836,   -0.070481,   -0.034664,   0.028992,   -0.033140,   -0.066853,   0.065463,   0.018176,   0.000394,   -0.027404,   -0.033740,   0.038516,   0.054196,   0.010099,   -0.005395,   0.018760,   -0.001131,   0.048159,   0.040655,0.087711,0.053167,0.002587,0.139870,0.064766,0.037547,-0.186960,-0.083540,-0.002418,-0.085567,-0.045725,0.040917,-0.179731,-0.024545,-0.000761,-0.029788,-0.038217,0.044897,0.012084,0.040970
   -0.025914,   0.032430,   -0.027408,   0.021481,   -0.013607,   -0.023879,   0.024369,   -0.071203,   -0.035044,   0.028464,   -0.033568,   -0.067472,   0.066301,   0.018618,   0.001008,   -0.027538,   -0.033932,   0.038774,   0.054330,   0.010285,   -0.005767,   0.018217,   -0.000395,   0.048546,   0.041196,0.089494,0.053752,0.002500,0.142337,0.065725,0.037376,-0.189838,-0.084697,-0.002228,-0.086549,-0.046215,0.040955,-0.182127,-0.025337,-0.000630,-0.029788,-0.038217,0.044897,0.012084,0.040970
   -0.025509,   0.033023,   -0.028205,   0.021052,   -0.014197,   -0.023332,   0.025167,   -0.072278,   -0.035625,   0.027665,   -0.034197,   -0.068389,   0.067537,   0.019285,   0.001929,   -0.027748,   -0.034236,   0.039178,   0.054545,   0.010583,   -0.006306,   0.017428,   0.000669,   0.049121,   0.041987,0.091880,0.054569,0.002447,0.145576,0.066997,0.037220,-0.193503,-0.086170,-0.002047,-0.087902,-0.046877,0.040972,-0.185218,-0.026422,-0.000522,-0.029788,-0.038217,0.044897,0.012084,0.040970
   -0.025070,   0.033660,   -0.029058,   0.020586,   -0.014827,   -0.022740,   0.026023,   -0.073427,   -0.036257,   0.026811,   -0.034871,   -0.069365,   0.068847,   0.020005,   0.002908,   -0.027978,   -0.034567,   0.039618,   0.054784,   0.010907,   -0.006883,   0.016589,   0.001794,   0.049739,   0.042823,0.094456,0.055594,0.002345,0.148996,0.068517,0.036981,-0.197301,-0.087901,-0.001767,-0.089352,-0.047647,0.041015,-0.188478,-0.027783,-0.000338,-0.029788,-0.038217,0.044897,0.012084,0.040970
   -0.024738,   0.034147,   -0.029702,   0.020238,   -0.015309,   -0.022291,   0.026680,   -0.074299,   -0.036729,   0.026157,   -0.035383,   -0.070116,   0.069844,   0.020545,   0.003660,   -0.028155,   -0.034824,   0.039955,   0.054964,   0.011157,   -0.007320,   0.015948,   0.002645,   0.050199,   0.043463,0.096233,0.056139,0.002393,0.151376,0.069364,0.036978,-0.199954,-0.088869,-0.001764,-0.090385,-0.048118,0.040980,-0.190727,-0.028496,-0.000369,-0.029788,-0.038217,0.044897,0.012084,0.040970
   -0.024555,   0.034423,   -0.030048,   0.020063,   -0.015569,   -0.022046,   0.027049,   -0.074763,   -0.036965,   0.025805,   -0.035661,   -0.070536,   0.070374,   0.020814,   0.004064,   -0.028254,   -0.034972,   0.040140,   0.055057,   0.011296,   -0.007555,   0.015592,   0.003094,   0.050427,   0.043803,0.097171,0.056287,0.002806,0.152573,0.069598,0.037499,-0.201246,-0.089131,-0.002351,-0.090939,-0.048309,0.040751,-0.191850,-0.028674,-0.000894,-0.029788,-0.038217,0.044897,0.012084,0.040970
   -0.024500,   0.034501,   -0.030155,   0.020007,   -0.015647,   -0.021973,   0.027150,   -0.074903,   -0.037039,   0.025703,   -0.035747,   -0.070656,   0.070538,   0.020901,   0.004184,   -0.028279,   -0.035007,   0.040187,   0.055081,   0.011329,   -0.007631,   0.015484,   0.003242,   0.050504,   0.043911,0.097535,0.056393,0.002725,0.153084,0.069785,0.037374,-0.201860,-0.089369,-0.002205,-0.091136,-0.048408,0.040794,-0.192354,-0.028822,-0.000782,-0.029788,-0.038217,0.044897,0.012084,0.040970
   -0.024318,   0.034762,   -0.030507,   0.019823,   -0.015908,   -0.021731,   0.027494,   -0.075368,   -0.037282,   0.025361,   -0.036030,   -0.071058,   0.071082,   0.021186,   0.004583,   -0.028366,   -0.035128,   0.040350,   0.055166,   0.011447,   -0.007880,   0.015128,   0.003724,   0.050756,   0.044268,0.098645,0.056722,0.002591,0.154630,0.070349,0.037152,-0.203690,-0.090067,-0.001949,-0.091750,-0.048710,0.040863,-0.193866,-0.029271,-0.000592,-0.029788,-0.038217,0.044897,0.012084,0.040970
   -0.023986,   0.035237,   -0.031148,   0.019482,   -0.016384,   -0.021288,   0.028125,   -0.076219,   -0.037738,   0.024729,   -0.036542,   -0.071787,   0.072065,   0.021711,   0.005313,   -0.028530,   -0.035360,   0.040659,   0.055329,   0.011674,   -0.008327,   0.014487,   0.004589,   0.051217,   0.044911,0.100566,0.057391,0.002349,0.157265,0.071417,0.036748,-0.206733,-0.091335,-0.001483,-0.092828,-0.049268,0.040987,-0.196422,-0.030169,-0.000244,-0.029788,-0.038217,0.044897,0.012084,0.040970
   -0.023522,   0.035911,   -0.032032,   0.019006,   -0.017047,   -0.020666,   0.029026,   -0.077406,   -0.038380,   0.023834,   -0.037248,   -0.072810,   0.073414,   0.022441,   0.006336,   -0.028778,   -0.035717,   0.041124,   0.055577,   0.012021,   -0.008932,   0.013607,   0.005749,   0.051844,   0.045786,0.102938,0.058156,0.002400,0.160393,0.072568,0.036712,-0.210175,-0.092631,-0.001430,-0.094212,-0.049919,0.040948,-0.199388,-0.031163,-0.000257,-0.029788,-0.038217,0.044897,0.012084,0.040970
   -0.023344,   0.036166,   -0.032373,   0.018830,   -0.017299,   -0.020429,   0.029362,   -0.077856,   -0.038613,   0.023503,   -0.037524,   -0.073202,   0.073937,   0.022711,   0.006719,   -0.028862,   -0.035836,   0.041281,   0.055658,   0.012135,   -0.009176,   0.013258,   0.006215,   0.052085,   0.046130,0.104004,0.058535,0.002282,0.161874,0.073192,0.036521,-0.211920,-0.093392,-0.001226,-0.094799,-0.050237,0.041007,-0.200840,-0.031680,-0.000095,-0.029788,-0.038217,0.044897,0.012084,0.040970
   -0.023028,   0.036624,   -0.032976,   0.018522,   -0.017748,   -0.020009,   0.029968,   -0.078654,   -0.039022,   0.022910,   -0.038009,   -0.073901,   0.074856,   0.023181,   0.007404,   -0.029017,   -0.036058,   0.041570,   0.055803,   0.012347,   -0.009601,   0.012641,   0.007028,   0.052501,   0.046737,0.105735,0.059087,0.002282,0.164250,0.074092,0.036466,-0.214669,-0.094469,-0.001178,-0.095780,-0.050728,0.040997,-0.203145,-0.032421,-0.000080,-0.029788,-0.038217,0.044897,0.012084,0.040970
   -0.022549,   0.037312,   -0.033882,   0.018038,   -0.018429,   -0.019369,   0.030884,   -0.079863,   -0.039670,   0.021999,   -0.038736,   -0.074943,   0.076231,   0.023917,   0.008444,   -0.029267,   -0.036414,   0.042034,   0.056048,   0.012694,   -0.010233,   0.011733,   0.008227,   0.053144,   0.047640,0.108160,0.059967,0.002171,0.167489,0.075422,0.036217,-0.218281,-0.095986,-0.000902,-0.097186,-0.051447,0.041044,-0.206245,-0.033577,0.000109,-0.029788,-0.038217,0.044897,0.012084,0.040970
   -0.022024,   0.038066,   -0.034862,   0.017510,   -0.019169,   -0.018669,   0.031886,   -0.081169,   -0.040378,   0.021007,   -0.039525,   -0.076073,   0.077706,   0.024716,   0.009569,   -0.029546,   -0.036811,   0.042546,   0.056322,   0.013079,   -0.010917,   0.010750,   0.009509,   0.053837,   0.048613,0.110721,0.060926,0.002151,0.170832,0.076824,0.036080,-0.221934,-0.097555,-0.000751,-0.098682,-0.052215,0.041040,-0.209427,-0.034832,0.000188,-0.029788,-0.038217,0.044897,0.012084,0.040970
   -0.021653,   0.038597,   -0.035551,   0.017139,   -0.019687,   -0.018175,   0.032593,   -0.082090,   -0.040876,   0.020310,   -0.040082,   -0.076872,   0.078746,   0.025278,   0.010360,   -0.029745,   -0.037094,   0.042910,   0.056517,   0.013353,   -0.011399,   0.010058,   0.010411,   0.054323,   0.049294,0.112498,0.061584,0.002156,0.173147,0.077785,0.036008,-0.224466,-0.098635,-0.000676,-0.099721,-0.052750,0.041027,-0.211636,-0.035684,0.000219,-0.029788,-0.038217,0.044897,0.012084,0.040970
   -0.021442,   0.038908,   -0.035935,   0.016943,   -0.019983,   -0.017895,   0.033005,   -0.082602,   -0.041138,   0.019913,   -0.040397,   -0.077337,   0.079324,   0.025574,   0.010811,   -0.029862,   -0.037265,   0.043121,   0.056623,   0.013514,   -0.011667,   0.009661,   0.010904,   0.054576,   0.049677,0.113380,0.061671,0.002547,0.174250,0.077930,0.036492,-0.225637,-0.098795,-0.001222,-0.100270,-0.052916,0.040803,-0.212661,-0.035780,-0.000273,-0.029788,-0.038217,0.044897,0.012084,0.040970
   -0.021377,   0.038999,   -0.036058,   0.016880,   -0.020074,   -0.017810,   0.033124,   -0.082762,   -0.041221,   0.019796,   -0.040498,   -0.077478,   0.079512,   0.025671,   0.010950,   -0.029892,   -0.037306,   0.043174,   0.056651,   0.013553,   -0.011756,   0.009534,   0.011073,   0.054663,   0.049802,0.113750,0.061778,0.002476,0.174769,0.078120,0.036379,-0.226261,-0.099037,-0.001091,-0.100475,-0.053021,0.040842,-0.213173,-0.035928,-0.000174,-0.029788,-0.038217,0.044897,0.012084,0.040970
   -0.021166,   0.039299,   -0.036456,   0.016674,   -0.020371,   -0.017531,   0.033515,   -0.083282,   -0.041491,   0.019408,   -0.040822,   -0.077932,   0.080116,   0.025985,   0.011400,   -0.029992,   -0.037444,   0.043357,   0.056745,   0.013687,   -0.012045,   0.009127,   0.011615,   0.054943,   0.050208,0.114891,0.062150,0.002293,0.176348,0.078741,0.036082,-0.228121,-0.099800,-0.000749,-0.101117,-0.053360,0.040940,-0.214720,-0.036434,0.000083,-0.029788,-0.038217,0.044897,0.012084,0.040970
   -0.020770,   0.039861,   -0.037193,   0.016290,   -0.020927,   -0.017010,   0.034253,   -0.084251,   -0.041999,   0.018677,   -0.041419,   -0.078777,   0.081224,   0.026565,   0.012236,   -0.030188,   -0.037720,   0.043714,   0.056929,   0.013954,   -0.012573,   0.008376,   0.012601,   0.055459,   0.050953,0.116857,0.062807,0.002124,0.179012,0.079784,0.035769,-0.231163,-0.101028,-0.000394,-0.102251,-0.053944,0.041025,-0.217303,-0.037306,0.000338,-0.029788,-0.038217,0.044897,0.012084,0.040970
   -0.020230,   0.040628,   -0.038184,   0.015752,   -0.021682,   -0.016292,   0.035270,   -0.085571,   -0.042719,   0.017666,   -0.042224,   -0.079919,   0.082706,   0.027373,   0.013377,   -0.030481,   -0.038133,   0.044245,   0.057215,   0.014357,   -0.013272,   0.007382,   0.013891,   0.056161,   0.051940,0.119247,0.063668,0.002033,0.182103,0.081027,0.035529,-0.234502,-0.102401,-0.000127,-0.103679,-0.054660,0.041062,-0.220242,-0.038410,0.000516,-0.029788,-0.038217,0.044897,0.012084,0.040970
   -0.020043,   0.040896,   -0.038532,   0.015579,   -0.021942,   -0.016046,   0.035618,   -0.086023,   -0.042944,   0.017330,   -0.042509,   -0.080323,   0.083230,   0.027633,   0.013766,   -0.030568,   -0.038255,   0.044401,   0.057292,   0.014471,   -0.013527,   0.007017,   0.014365,   0.056397,   0.052293,0.120246,0.064003,0.001993,0.183482,0.081585,0.035442,-0.236128,-0.103089,-0.000041,-0.104238,-0.054966,0.041078,-0.221599,-0.038869,0.000574,-0.029788,-0.038217,0.044897,0.012084,0.040970
   -0.019664,   0.041435,   -0.039232,   0.015219,   -0.022471,   -0.015547,   0.036326,   -0.086942,   -0.043418,   0.016635,   -0.043080,   -0.081132,   0.084281,   0.028173,   0.014561,   -0.030755,   -0.038518,   0.044738,   0.057463,   0.014723,   -0.014034,   0.006295,   0.015304,   0.056880,   0.053005,0.122061,0.064613,0.001889,0.185952,0.082559,0.035234,-0.238958,-0.104243,0.000175,-0.105291,-0.055514,0.041125,-0.223995,-0.039678,0.000730,-0.029788,-0.038217,0.044897,0.012084,0.040970
   -0.019107,   0.042224,   -0.040248,   0.014678,   -0.023246,   -0.014812,   0.037364,   -0.088283,   -0.044135,   0.015609,   -0.043905,   -0.082298,   0.085785,   0.028977,   0.015717,   -0.031049,   -0.038931,   0.045265,   0.057741,   0.015124,   -0.014760,   0.005265,   0.016634,   0.057591,   0.054022,0.124503,0.065529,0.001768,0.189153,0.083908,0.034965,-0.242467,-0.105751,0.000454,-0.106742,-0.056276,0.041177,-0.227063,-0.040866,0.000933,-0.029788,-0.038217,0.044897,0.012084,0.040970
   -0.018529,   0.043042,   -0.041286,   0.014122,   -0.024043,   -0.014051,   0.038438,   -0.089649,   -0.044870,   0.014553,   -0.044753,   -0.083497,   0.087309,   0.029796,   0.016901,   -0.031361,   -0.039369,   0.045816,   0.058033,   0.015546,   -0.015505,   0.004210,   0.017976,   0.058311,   0.055059,0.126921,0.066413,0.001861,0.192232,0.085162,0.034978,-0.245764,-0.107124,0.000419,-0.108201,-0.057017,0.041106,-0.229997,-0.042002,0.000863,-0.029788,-0.038217,0.044897,0.012084,0.040970
   -0.018083,   0.043671,   -0.042083,   0.013695,   -0.024656,   -0.013466,   0.039263,   -0.090697,   -0.045434,   0.013743,   -0.045405,   -0.084417,   0.088478,   0.030424,   0.017808,   -0.031602,   -0.039706,   0.046239,   0.058259,   0.015870,   -0.016078,   0.003399,   0.019007,   0.058865,   0.055855,0.128758,0.067067,0.001904,0.194576,0.086101,0.034948,-0.248285,-0.108163,0.000433,-0.109311,-0.057578,0.041069,-0.232234,-0.042836,0.000848,-0.029788,-0.038217,0.044897,0.012084,0.040970
   -0.017862,   0.043988,   -0.042469,   0.013494,   -0.024957,   -0.013176,   0.039679,   -0.091207,   -0.045700,   0.013343,   -0.045728,   -0.084882,   0.089048,   0.030721,   0.018260,   -0.031727,   -0.039885,   0.046455,   0.058370,   0.016038,   -0.016356,   0.002999,   0.019497,   0.059120,   0.056239,0.129566,0.067179,0.002257,0.195555,0.086261,0.035377,-0.249302,-0.108338,-0.000055,-0.109827,-0.057751,0.040861,-0.233148,-0.042962,0.000408,-0.029788,-0.038217,0.044897,0.012084,0.040970
   -0.017786,   0.044094,   -0.042610,   0.013420,   -0.025063,   -0.013076,   0.039815,   -0.091390,   -0.045797,   0.013206,   -0.045845,   -0.085042,   0.089262,   0.030835,   0.018420,   -0.031762,   -0.039931,   0.046516,   0.058403,   0.016083,   -0.016461,   0.002854,   0.019692,   0.059222,   0.056385,0.129962,0.067307,0.002114,0.196109,0.086482,0.035159,-0.249968,-0.108619,0.000201,-0.110049,-0.057875,0.040943,-0.233695,-0.043140,0.000606,-0.029788,-0.038217,0.044897,0.012084,0.040970
   -0.017542,   0.044435,   -0.043056,   0.013192,   -0.025400,   -0.012758,   0.040258,   -0.091968,   -0.046096,   0.012769,   -0.046213,   -0.085553,   0.089929,   0.031178,   0.018923,   -0.031876,   -0.040089,   0.046720,   0.058507,   0.016235,   -0.016791,   0.002391,   0.020296,   0.059533,   0.056843,0.131126,0.067693,0.001920,0.197711,0.087121,0.034841,-0.251842,-0.109400,0.000563,-0.110719,-0.058240,0.041049,-0.235264,-0.043662,0.000878,-0.029788,-0.038217,0.044897,0.012084,0.040970
   -0.017099,   0.045059,   -0.043854,   0.012779,   -0.026012,   -0.012180,   0.041067,   -0.093007,   -0.046635,   0.011973,   -0.046867,   -0.086470,   0.091105,   0.031788,   0.019825,   -0.032097,   -0.040397,   0.047110,   0.058707,   0.016531,   -0.017378,   0.001565,   0.021356,   0.060082,   0.057656,0.133063,0.068365,0.001804,0.200299,0.088161,0.034596,-0.254761,-0.110610,0.000828,-0.111865,-0.058848,0.041104,-0.237777,-0.044542,0.001061,-0.029788,-0.038217,0.044897,0.012084,0.040970
   -0.016486,   0.045915,   -0.044938,   0.012188,   -0.026850,   -0.011377,   0.042187,   -0.094428,   -0.047413,   0.010867,   -0.047756,   -0.087710,   0.092680,   0.032649,   0.021057,   -0.032433,   -0.040863,   0.047694,   0.059023,   0.016983,   -0.018162,   0.000468,   0.022749,   0.060843,   0.058738,0.135454,0.069256,0.001706,0.203316,0.089408,0.034342,-0.257958,-0.111961,0.001092,-0.113325,-0.059600,0.041143,-0.240656,-0.045665,0.001249,-0.029788,-0.038217,0.044897,0.012084,0.040970
   -0.016266,   0.046226,   -0.045334,   0.011994,   -0.027151,   -0.011092,   0.042588,   -0.094939,   -0.047665,   0.010481,   -0.048085,   -0.088173,   0.093267,   0.032937,   0.021501,   -0.032534,   -0.041004,   0.047871,   0.059109,   0.017114,   -0.018460,   0.000046,   0.023286,   0.061107,   0.059146,0.136486,0.069597,0.001700,0.204734,0.089976,0.034297,-0.259622,-0.112660,0.001124,-0.113919,-0.059928,0.041139,-0.242050,-0.046128,0.001262,-0.029788,-0.038217,0.044897,0.012084,0.040970
   -0.015848,   0.046814,   -0.046084,   0.011609,   -0.027724,   -0.010548,   0.043349,   -0.095910,   -0.048165,   0.009737,   -0.048700,   -0.089034,   0.094364,   0.033501,   0.022341,   -0.032740,   -0.041290,   0.048231,   0.059292,   0.017387,   -0.019015,   -0.000734,   0.024282,   0.061619,   0.059910,0.138307,0.070278,0.001576,0.207169,0.091024,0.034056,-0.262376,-0.113884,0.001370,-0.114990,-0.060530,0.041197,-0.244423,-0.047024,0.001445,-0.029788,-0.038217,0.044897,0.012084,0.040970
   -0.015209,   0.047704,   -0.047205,   0.011010,   -0.028593,   -0.009720,   0.044500,   -0.097365,   -0.048946,   0.008604,   -0.049615,   -0.090307,   0.095972,   0.034363,   0.023598,   -0.033079,   -0.041758,   0.048816,   0.059601,   0.017839,   -0.019835,   -0.001877,   0.025728,   0.062394,   0.061034,0.140812,0.071243,0.001464,0.210358,0.092393,0.033788,-0.265793,-0.115381,0.001634,-0.116508,-0.061345,0.041241,-0.247488,-0.048255,0.001642,-0.029788,-0.038217,0.044897,0.012084,0.040970
   -0.014531,   0.048644,   -0.048383,   0.010368,   -0.029516,   -0.008834,   0.045725,   -0.098904,   -0.049787,   0.007393,   -0.050591,   -0.091659,   0.097668,   0.035289,   0.024941,   -0.033451,   -0.042270,   0.049452,   0.059945,   0.018336,   -0.020703,   -0.003082,   0.027241,   0.063220,   0.062224,0.143231,0.072130,0.001376,0.213415,0.093634,0.033561,-0.269027,-0.116715,0.001836,-0.118023,-0.062113,0.041271,-0.250397,-0.049375,0.001800,-0.029788,-0.038217,0.044897,0.012084,0.040970
   -0.014062,   0.049298,   -0.049189,   0.009937,   -0.030148,   -0.008227,   0.046570,   -0.099949,   -0.050348,   0.006569,   -0.051259,   -0.092592,   0.098821,   0.035905,   0.025854,   -0.033709,   -0.042627,   0.049888,   0.060177,   0.018677,   -0.021299,   -0.003914,   0.028271,   0.063770,   0.063035,0.144890,0.072686,0.001579,0.215469,0.094406,0.033750,-0.271187,-0.117551,0.001592,-0.119066,-0.062623,0.041138,-0.252357,-0.050065,0.001573,-0.029788,-0.038217,0.044897,0.012084,0.040970
   -0.013814,   0.049645,   -0.049606,   0.009716,   -0.030478,   -0.007908,   0.047017,   -0.100489,   -0.050635,   0.006137,   -0.051610,   -0.093084,   0.099416,   0.036220,   0.026332,   -0.033850,   -0.042823,   0.050121,   0.060299,   0.018861,   -0.021606,   -0.004346,   0.028793,   0.064047,   0.063451,0.145705,0.072828,0.001895,0.216430,0.094597,0.034121,-0.272168,-0.117760,0.001166,-0.119597,-0.062815,0.040946,-0.253259,-0.050230,0.001186,-0.029788,-0.038217,0.044897,0.012084,0.040970
   -0.013729,   0.049762,   -0.049760,   0.009637,   -0.030594,   -0.007798,   0.047167,   -0.100686,   -0.050737,   0.005989,   -0.051739,   -0.093259,   0.099645,   0.036340,   0.026505,   -0.033887,   -0.042872,   0.050185,   0.060333,   0.018909,   -0.021724,   -0.004507,   0.029004,   0.064156,   0.063611,0.146113,0.072970,0.001762,0.216997,0.094838,0.033916,-0.272847,-0.118065,0.001407,-0.119829,-0.062954,0.041024,-0.253820,-0.050426,0.001370,-0.029788,-0.038217,0.044897,0.012084,0.040970
   -0.013452,   0.050146,   -0.050250,   0.009388,   -0.030970,   -0.007442,   0.047658,   -0.101313,   -0.051059,   0.005509,   -0.052146,   -0.093820,   0.100361,   0.036707,   0.027053,   -0.034015,   -0.043048,   0.050406,   0.060445,   0.019076,   -0.022095,   -0.005024,   0.029663,   0.064492,   0.064117,0.147332,0.073406,0.001593,0.218651,0.095541,0.033625,-0.274766,-0.118917,0.001734,-0.120538,-0.063365,0.041117,-0.255447,-0.051011,0.001610,-0.029788,-0.038217,0.044897,0.012084,0.040970
   -0.012940,   0.050855,   -0.051147,   0.008916,   -0.031668,   -0.006781,   0.048569,   -0.102470,   -0.051669,   0.004608,   -0.052887,   -0.094841,   0.101655,   0.037389,   0.028063,   -0.034272,   -0.043399,   0.050847,   0.060675,   0.019416,   -0.022768,   -0.005954,   0.030844,   0.065113,   0.065038,0.149315,0.074113,0.001323,0.221274,0.096615,0.033163,-0.277690,-0.120150,0.002234,-0.121743,-0.064020,0.041263,-0.257990,-0.051923,0.001996,-0.029788,-0.038217,0.044897,0.012084,0.040970
   -0.012266,   0.051782,   -0.052292,   0.008292,   -0.032570,   -0.005913,   0.049761,   -0.103946,   -0.052478,   0.003437,   -0.053834,   -0.096143,   0.103267,   0.038270,   0.029348,   -0.034646,   -0.043909,   0.051471,   0.061014,   0.019908,   -0.023618,   -0.007126,   0.032295,   0.065906,   0.066187,0.151618,0.074969,0.001359,0.224097,0.097773,0.033095,-0.280613,-0.121373,0.002261,-0.123194,-0.064765,0.041221,-0.260691,-0.052978,0.002003,-0.029788,-0.038217,0.044897,0.012084,0.040970
   -0.012029,   0.052113,   -0.052708,   0.008086,   -0.032890,   -0.005609,   0.050184,   -0.104478,   -0.052742,   0.003030,   -0.054182,   -0.096628,   0.103875,   0.038571,   0.029812,   -0.034753,   -0.044058,   0.051654,   0.061104,   0.020047,   -0.023938,   -0.007573,   0.032858,   0.066185,   0.066619,0.152638,0.075339,0.001314,0.225489,0.098373,0.032996,-0.282237,-0.122106,0.002351,-0.123790,-0.065118,0.041239,-0.262060,-0.053476,0.002066,-0.029788,-0.038217,0.044897,0.012084,0.040970
   -0.011549,   0.052780,   -0.053541,   0.007659,   -0.033539,   -0.004993,   0.051036,   -0.105542,   -0.053290,   0.002200,   -0.054870,   -0.097580,   0.105061,   0.039181,   0.030739,   -0.034989,   -0.044382,   0.052054,   0.061307,   0.020355,   -0.024568,   -0.008448,   0.033952,   0.066747,   0.067473,0.154498,0.076020,0.001248,0.227940,0.099409,0.032827,-0.284974,-0.123304,0.002502,-0.124914,-0.065749,0.041262,-0.264449,-0.054360,0.002172,-0.029788,-0.038217,0.044897,0.012084,0.040970
   -0.010833,   0.053761,   -0.054753,   0.007003,   -0.034497,   -0.004076,   0.052289,   -0.107095,   -0.054134,   0.000967,   -0.055871,   -0.098949,   0.106756,   0.040100,   0.032092,   -0.035375,   -0.044906,   0.052695,   0.061651,   0.020861,   -0.025477,   -0.009695,   0.035497,   0.067586,   0.068699,0.156928,0.076955,0.001147,0.230965,0.100696,0.032577,-0.288148,-0.124677,0.002721,-0.126443,-0.066565,0.041299,-0.267355,-0.055525,0.002348,-0.029788,-0.038217,0.044897,0.012084,0.040970
   -0.010099,   0.054760,   -0.055982,   0.006327,   -0.035470,   -0.003139,   0.053563,   -0.108666,   -0.055002,   -0.000286,   -0.056884,   -0.100328,   0.108454,   0.041036,   0.033452,   -0.035777,   -0.045450,   0.053358,   0.062013,   0.021386,   -0.026400,   -0.010953,   0.037048,   0.068440,   0.069933,0.159401,0.078000,0.001025,0.233982,0.102093,0.032302,-0.291267,-0.126159,0.002954,-0.127993,-0.067428,0.041345,-0.270255,-0.056832,0.002550,-0.029788,-0.038217,0.044897,0.012084,0.040970
   -0.009543,   0.055519,   -0.056909,   0.005819,   -0.036211,   -0.002426,   0.054534,   -0.109856,   -0.055655,   -0.001240,   -0.057660,   -0.101387,   0.109750,   0.041745,   0.034495,   -0.036087,   -0.045869,   0.053865,   0.062291,   0.021790,   -0.027101,   -0.011911,   0.038223,   0.069083,   0.070875,0.161105,0.078556,0.001054,0.236080,0.102860,0.032264,-0.293450,-0.126972,0.002940,-0.129101,-0.067963,0.041309,-0.272253,-0.057507,0.002540,-0.029788,-0.038217,0.044897,0.012084,0.040970
   -0.009304,   0.055847,   -0.057291,   0.005616,   -0.036521,   -0.002125,   0.054949,   -0.110340,   -0.055912,   -0.001638,   -0.057987,   -0.101840,   0.110279,   0.042024,   0.034933,   -0.036225,   -0.046059,   0.054083,   0.062406,   0.021968,   -0.027390,   -0.012312,   0.038691,   0.069331,   0.071258,0.161766,0.078615,0.001495,0.236810,0.102926,0.032800,-0.294165,-0.127043,0.002333,-0.129560,-0.068100,0.041039,-0.272935,-0.057564,0.001996,-0.029788,-0.038217,0.044897,0.012084,0.040970
   -0.009206,   0.055983,   -0.057463,   0.005529,   -0.036653,   -0.002000,   0.055120,   -0.110558,   -0.056023,   -0.001805,   -0.058133,   -0.102039,   0.110531,   0.042153,   0.035126,   -0.036267,   -0.046115,   0.054154,   0.062442,   0.022021,   -0.027525,   -0.012497,   0.038927,   0.069449,   0.071439,0.162196,0.078769,0.001406,0.237405,0.103185,0.032654,-0.294877,-0.127370,0.002500,-0.129809,-0.068254,0.041091,-0.273524,-0.057775,0.002119,-0.029788,-0.038217,0.044897,0.012084,0.040970
   -0.008901,   0.056402,   -0.057989,   0.005260,   -0.037063,   -0.001612,   0.055651,   -0.111225,   -0.056367,   -0.002324,   -0.058573,   -0.102640,   0.111285,   0.042541,   0.035712,   -0.036407,   -0.046306,   0.054390,   0.062562,   0.022202,   -0.027932,   -0.013057,   0.039630,   0.069810,   0.071987,0.163409,0.079212,0.001230,0.239038,0.103889,0.032349,-0.296756,-0.128219,0.002839,-0.130534,-0.068685,0.041191,-0.275129,-0.058364,0.002369,-0.029788,-0.038217,0.044897,0.012084,0.040970
   -0.008344,   0.057161,   -0.058933,   0.004761,   -0.037806,   -0.000906,   0.056608,   -0.112418,   -0.057002,   -0.003265,   -0.059351,   -0.103695,   0.112599,   0.043240,   0.036751,   -0.036683,   -0.046677,   0.054847,   0.062803,   0.022559,   -0.028654,   -0.014040,   0.040855,   0.070459,   0.072954,0.165442,0.080023,0.000948,0.241662,0.105074,0.031863,-0.299632,-0.129562,0.003356,-0.131777,-0.069415,0.041347,-0.277688,-0.059400,0.002772,-0.029788,-0.038217,0.044897,0.012084,0.040970
   -0.007599,   0.058167,   -0.060155,   0.004083,   -0.038789,   0.000039,   0.057882,   -0.113970,   -0.057866,   -0.004520,   -0.060369,   -0.105069,   0.114271,   0.044169,   0.038110,   -0.037101,   -0.047237,   0.055520,   0.063176,   0.023101,   -0.029583,   -0.015297,   0.042386,   0.071310,   0.074189,0.167675,0.080840,0.000922,0.244337,0.106148,0.031721,-0.302347,-0.130666,0.003441,-0.133232,-0.070152,0.041338,-0.280247,-0.060380,0.002850,-0.029788,-0.038217,0.044897,0.012084,0.040970
   -0.007330,   0.058538,   -0.060616,   0.003851,   -0.039148,   0.000380,   0.058351,   -0.114553,   -0.058161,   -0.004973,   -0.060756,   -0.105601,   0.114930,   0.044500,   0.038621,   -0.037221,   -0.047402,   0.055722,   0.063276,   0.023255,   -0.029943,   -0.015794,   0.043004,   0.071620,   0.074671,0.168737,0.081237,0.000831,0.245776,0.106785,0.031553,-0.304013,-0.131439,0.003604,-0.133866,-0.070540,0.041385,-0.281663,-0.060910,0.002974,-0.029788,-0.038217,0.044897,0.012084,0.040970
   -0.006813,   0.059248,   -0.061485,   0.003403,   -0.039835,   0.001033,   0.059244,   -0.115646,   -0.058727,   -0.005839,   -0.061475,   -0.106585,   0.116132,   0.045121,   0.039575,   -0.037474,   -0.047745,   0.056136,   0.063488,   0.023580,   -0.030614,   -0.016715,   0.044133,   0.072203,   0.075565,0.170573,0.081950,0.000816,0.248152,0.107839,0.031456,-0.306628,-0.132641,0.003657,-0.134998,-0.071202,0.041376,-0.283984,-0.061822,0.003009,-0.029788,-0.038217,0.044897,0.012084,0.040970
   -0.006038,   0.060292,   -0.062751,   0.002709,   -0.040854,   0.002009,   0.060558,   -0.117242,   -0.059605,   -0.007130,   -0.062527,   -0.108001,   0.117849,   0.046064,   0.040970,   -0.037896,   -0.048310,   0.056813,   0.063857,   0.024125,   -0.031585,   -0.018024,   0.045723,   0.073077,   0.076850,0.172922,0.082844,0.000763,0.250998,0.109030,0.031278,-0.309553,-0.133882,0.003773,-0.136519,-0.072009,0.041381,-0.286724,-0.062909,0.003114,-0.029788,-0.038217,0.044897,0.012084,0.040970
   -0.005198,   0.061417,   -0.064106,   0.001954,   -0.041951,   0.003062,   0.061964,   -0.118942,   -0.060555,   -0.008513,   -0.063647,   -0.109500,   0.119657,   0.047072,   0.042449,   -0.038358,   -0.048924,   0.057547,   0.064265,   0.024718,   -0.032625,   -0.019418,   0.047407,   0.074016,   0.078219,0.175411,0.083874,0.000682,0.253962,0.110370,0.031068,-0.312553,-0.135269,0.003901,-0.138135,-0.072891,0.041399,-0.289575,-0.064169,0.003250,-0.029788,-0.038217,0.044897,0.012084,0.040970
   -0.004619,   0.062191,   -0.065038,   0.001436,   -0.042702,   0.003787,   0.062934,   -0.120111,   -0.061207,   -0.009462,   -0.064422,   -0.110539,   0.120906,   0.047766,   0.043468,   -0.038680,   -0.049353,   0.058057,   0.064549,   0.025129,   -0.033343,   -0.020381,   0.048568,   0.074661,   0.079160,0.177105,0.084553,0.000681,0.255972,0.111258,0.030994,-0.314597,-0.136200,0.003909,-0.139236,-0.073489,0.041377,-0.291509,-0.064985,0.003275,-0.029788,-0.038217,0.044897,0.012084,0.040970
   -0.004358,   0.062544,   -0.065443,   0.001215,   -0.043039,   0.004114,   0.063376,   -0.120620,   -0.061484,   -0.009890,   -0.064775,   -0.111018,   0.121458,   0.048064,   0.043933,   -0.038836,   -0.049561,   0.058293,   0.064677,   0.025325,   -0.033657,   -0.020807,   0.049060,   0.074927,   0.079571,0.177701,0.084542,0.001112,0.256621,0.111238,0.031521,-0.315222,-0.136180,0.003303,-0.139679,-0.073591,0.041106,-0.292105,-0.064957,0.002740,-0.029788,-0.038217,0.044897,0.012084,0.040970
   -0.004252,   0.062687,   -0.065624,   0.001121,   -0.043181,   0.004248,   0.063555,   -0.120847,   -0.061602,   -0.010066,   -0.064929,   -0.111224,   0.121719,   0.048200,   0.044135,   -0.038879,   -0.049617,   0.058364,   0.064714,   0.025379,   -0.033802,   -0.021003,   0.049308,   0.075055,   0.079764,0.178145,0.084718,0.000973,0.257233,0.111528,0.031302,-0.315950,-0.136543,0.003557,-0.139940,-0.073764,0.041191,-0.292712,-0.065198,0.002931,-0.029788,-0.038217,0.044897,0.012084,0.040970
   -0.003911,   0.063150,   -0.066197,   0.000824,   -0.043633,   0.004676,   0.064131,   -0.121563,   -0.061978,   -0.010630,   -0.065408,   -0.111868,   0.122518,   0.048619,   0.044766,   -0.039032,   -0.049822,   0.058615,   0.064845,   0.025575,   -0.034254,   -0.021616,   0.050068,   0.075450,   0.080364,0.179416,0.085222,0.000729,0.258925,0.112309,0.030898,-0.317881,-0.137475,0.004001,-0.140711,-0.074249,0.041336,-0.294377,-0.065859,0.003269,-0.029788,-0.038217,0.044897,0.012084,0.040970
   -0.003301,   0.063972,   -0.067197,   0.000292,   -0.044435,   0.005436,   0.065153,   -0.122807,   -0.062643,   -0.011631,   -0.066236,   -0.112982,   0.123871,   0.049341,   0.045856,   -0.039336,   -0.050228,   0.059101,   0.065103,   0.025963,   -0.035034,   -0.022667,   0.051348,   0.076133,   0.081395,0.181408,0.085987,0.000580,0.261446,0.113407,0.030595,-0.320602,-0.138703,0.004296,-0.141968,-0.074976,0.041412,-0.296835,-0.066816,0.003493,-0.029788,-0.038217,0.044897,0.012084,0.040970
   -0.002506,   0.065024,   -0.068454,   -0.000421,   -0.045463,   0.006424,   0.066460,   -0.124375,   -0.063534,   -0.012919,   -0.067284,   -0.114367,   0.125530,   0.050283,   0.047227,   -0.039783,   -0.050816,   0.059798,   0.065498,   0.026533,   -0.036009,   -0.023960,   0.052899,   0.077012,   0.082666,0.183581,0.086834,0.000475,0.263973,0.114481,0.030359,-0.323107,-0.139785,0.004461,-0.143412,-0.075732,0.041448,-0.299263,-0.067813,0.003662,-0.029788,-0.038217,0.044897,0.012084,0.040970
   -0.002222,   0.065414,   -0.068929,   -0.000659,   -0.045836,   0.006780,   0.066944,   -0.124963,   -0.063831,   -0.013381,   -0.067681,   -0.114909,   0.126187,   0.050613,   0.047742,   -0.039906,   -0.050983,   0.059997,   0.065597,   0.026687,   -0.036387,   -0.024478,   0.053530,   0.077328,   0.083163,0.184675,0.087292,0.000441,0.265430,0.115191,0.030266,-0.324778,-0.140638,0.004530,-0.144067,-0.076166,0.041459,-0.300704,-0.068418,0.003710,-0.029788,-0.038217,0.044897,0.012084,0.040970
   -0.001645,   0.066192,   -0.069871,   -0.001156,   -0.046593,   0.007497,   0.067909,   -0.126132,   -0.064450,   -0.014322,   -0.068461,   -0.115958,   0.127454,   0.051282,   0.048764,   -0.040187,   -0.051359,   0.060446,   0.065833,   0.027045,   -0.037127,   -0.025476,   0.054739,   0.077967,   0.084137,0.186542,0.088027,0.000312,0.267813,0.116260,0.030019,-0.327366,-0.141842,0.004738,-0.145246,-0.076866,0.041519,-0.303029,-0.069344,0.003886,-0.029788,-0.038217,0.044897,0.012084,0.040970
   -0.000767,   0.067353,   -0.071257,   -0.001932,   -0.047727,   0.008582,   0.069343,   -0.127847,   -0.065414,   -0.015732,   -0.069608,   -0.117475,   0.129263,   0.052297,   0.050259,   -0.040669,   -0.051992,   0.061194,   0.066251,   0.027656,   -0.038208,   -0.026908,   0.056450,   0.078927,   0.085543,0.188958,0.089011,0.000181,0.270667,0.117524,0.029759,-0.330233,-0.143124,0.004901,-0.146843,-0.077742,0.041566,-0.305785,-0.070514,0.004071,-0.029788,-0.038217,0.044897,0.012084,0.040970
   0.000078,   0.068467,   -0.072570,   -0.002672,   -0.048811,   0.009621,   0.070711,   -0.129462,   -0.066327,   -0.017074,   -0.070700,   -0.118914,   0.130960,   0.053252,   0.051675,   -0.041139,   -0.052608,   0.061913,   0.066654,   0.028248,   -0.039237,   -0.028266,   0.058055,   0.079831,   0.086873,0.191191,0.089894,0.000302,0.273230,0.118627,0.029826,-0.332763,-0.144239,0.004711,-0.148348,-0.078536,0.041460,-0.308254,-0.071566,0.003940,-0.029788,-0.038217,0.044897,0.012084,0.040970
   0.000733,   0.069329,   -0.073587,   -0.003247,   -0.049649,   0.010424,   0.071765,   -0.130709,   -0.067033,   -0.018107,   -0.071545,   -0.120027,   0.132271,   0.053992,   0.052767,   -0.041503,   -0.053083,   0.062467,   0.066969,   0.028705,   -0.040037,   -0.029320,   0.059301,   0.080534,   0.087904,0.192915,0.090563,0.000344,0.275222,0.119482,0.029814,-0.334749,-0.145117,0.004631,-0.149505,-0.079150,0.041408,-0.310173,-0.072351,0.003903,-0.029788,-0.038217,0.044897,0.012084,0.040970
   0.000984,   0.069660,   -0.073962,   -0.003457,   -0.049965,   0.010733,   0.072175,   -0.131175,   -0.067292,   -0.018502,   -0.071875,   -0.120465,   0.132770,   0.054267,   0.053192,   -0.041655,   -0.053282,   0.062690,   0.067094,   0.028893,   -0.040333,   -0.029713,   0.059749,   0.080782,   0.088283,0.193443,0.090585,0.000729,0.275772,0.119498,0.030285,-0.335265,-0.145138,0.004081,-0.149905,-0.079255,0.041158,-0.310680,-0.072369,0.003424,-0.029788,-0.038217,0.044897,0.012084,0.040970
   0.001100,   0.069814,   -0.074156,   -0.003560,   -0.050117,   0.010877,   0.072364,   -0.131414,   -0.067421,   -0.018690,   -0.072039,   -0.120681,   0.133041,   0.054414,   0.053405,   -0.041699,   -0.053339,   0.062761,   0.067133,   0.028948,   -0.040491,   -0.029924,   0.060013,   0.080922,   0.088491,0.193908,0.090779,0.000537,0.276409,0.119813,0.029989,-0.336020,-0.145531,0.004425,-0.150181,-0.079448,0.041280,-0.311312,-0.072632,0.003685,-0.029788,-0.038217,0.044897,0.012084,0.040970
   0.001457,   0.070294,   -0.074740,   -0.003866,   -0.050584,   0.011317,   0.072952,   -0.132129,   -0.067800,   -0.019262,   -0.072526,   -0.121329,   0.133830,   0.054831,   0.054035,   -0.041855,   -0.053545,   0.063008,   0.067264,   0.029142,   -0.040960,   -0.030553,   0.060779,   0.081325,   0.089105,0.195186,0.091328,0.000317,0.278087,0.120642,0.029617,-0.337916,-0.146512,0.004826,-0.150964,-0.079971,0.041412,-0.312970,-0.073346,0.003988,-0.029788,-0.038217,0.044897,0.012084,0.040970
   0.002116,   0.071169,   -0.075788,   -0.004433,   -0.051438,   0.012123,   0.074019,   -0.133410,   -0.068497,   -0.020308,   -0.073390,   -0.122474,   0.135201,   0.055576,   0.055158,   -0.042179,   -0.053973,   0.063513,   0.067538,   0.029552,   -0.041790,   -0.031656,   0.062104,   0.082042,   0.090187,0.197186,0.092136,0.000123,0.280571,0.121776,0.029258,-0.340558,-0.147764,0.005165,-0.152252,-0.080740,0.041518,-0.315394,-0.074343,0.004263,-0.029788,-0.038217,0.044897,0.012084,0.040970
   0.002961,   0.072269,   -0.077079,   -0.005177,   -0.052511,   0.013154,   0.075359,   -0.134986,   -0.069407,   -0.021626,   -0.074466,   -0.123874,   0.136844,   0.056523,   0.056539,   -0.042659,   -0.054593,   0.064234,   0.067953,   0.030151,   -0.042811,   -0.032986,   0.063669,   0.082943,   0.091492,0.199286,0.092955,0.000103,0.282936,0.122778,0.029154,-0.342850,-0.148749,0.005154,-0.153685,-0.081488,0.041497,-0.317675,-0.075280,0.004305,-0.029788,-0.038217,0.044897,0.012084,0.040970
   0.003270,   0.072687,   -0.077580,   -0.005432,   -0.052913,   0.013534,   0.075872,   -0.135601,   -0.069722,   -0.022117,   -0.074888,   -0.124443,   0.137522,   0.056869,   0.057081,   -0.042790,   -0.054769,   0.064441,   0.068058,   0.030314,   -0.043218,   -0.033538,   0.064330,   0.083280,   0.092022,0.200378,0.093410,0.000078,0.284379,0.123478,0.029073,-0.344492,-0.149586,0.005207,-0.154358,-0.081937,0.041501,-0.319099,-0.075874,0.004339,-0.029788,-0.038217,0.044897,0.012084,0.040970
   0.003871,   0.073486,   -0.078531,   -0.005942,   -0.053687,   0.014263,   0.076838,   -0.136751,   -0.070342,   -0.023055,   -0.075665,   -0.125473,   0.138746,   0.057527,   0.058080,   -0.043076,   -0.055146,   0.064882,   0.068295,   0.030670,   -0.043975,   -0.034545,   0.065529,   0.083924,   0.093000,0.202279,0.094242,-0.000053,0.286739,0.124644,0.028819,-0.347012,-0.150886,0.005415,-0.155560,-0.082704,0.041563,-0.321418,-0.076910,0.004519,-0.029788,-0.038217,0.044897,0.012084,0.040970
   0.004797,   0.074692,   -0.079947,   -0.006751,   -0.054864,   0.015387,   0.078298,   -0.138468,   -0.071326,   -0.024491,   -0.076834,   -0.126992,   0.140527,   0.058545,   0.059577,   -0.043587,   -0.055807,   0.065651,   0.068733,   0.031309,   -0.045098,   -0.036005,   0.067246,   0.084906,   0.094435,0.204623,0.095268,-0.000174,0.289414,0.125908,0.028590,-0.349634,-0.152145,0.005515,-0.157150,-0.083603,0.041602,-0.324006,-0.078108,0.004672,-0.029788,-0.038217,0.044897,0.012084,0.040970
   0.005757,   0.075933,   -0.081394,   -0.007588,   -0.056078,   0.016547,   0.079796,   -0.140218,   -0.072340,   -0.025968,   -0.078034,   -0.128544,   0.142335,   0.059590,   0.061110,   -0.044124,   -0.056499,   0.066450,   0.069195,   0.031979,   -0.046249,   -0.037497,   0.068988,   0.085912,   0.095902,0.206897,0.096138,-0.000217,0.291992,0.126976,0.028474,-0.352137,-0.153188,0.005485,-0.158722,-0.084416,0.041592,-0.326489,-0.079113,0.004721,-0.029788,-0.038217,0.044897,0.012084,0.040970
   0.006399,   0.076764,   -0.082354,   -0.008138,   -0.056885,   0.017318,   0.080795,   -0.141373,   -0.073002,   -0.026943,   -0.078839,   -0.129588,   0.143538,   0.060276,   0.062131,   -0.044486,   -0.056963,   0.066979,   0.069502,   0.032424,   -0.047020,   -0.038498,   0.070147,   0.086574,   0.096879,0.208403,0.096682,0.000006,0.293663,0.127642,0.028705,-0.353765,-0.153859,0.005138,-0.159779,-0.084949,0.041426,-0.328100,-0.079727,0.004450,-0.029788,-0.038217,0.044897,0.012084,0.040970
   0.006663,   0.077105,   -0.082736,   -0.008359,   -0.057212,   0.017636,   0.081207,   -0.141836,   -0.073268,   -0.027343,   -0.079174,   -0.130023,   0.144027,   0.060554,   0.062555,   -0.044644,   -0.057166,   0.067203,   0.069631,   0.032615,   -0.047328,   -0.038897,   0.070596,   0.086830,   0.097265,0.208931,0.096730,0.000348,0.294199,0.127692,0.029115,-0.354261,-0.153921,0.004653,-0.160184,-0.085068,0.041198,-0.328598,-0.079782,0.004028,-0.029788,-0.038217,0.044897,0.012084,0.040970
   0.006783,   0.077265,   -0.082931,   -0.008461,   -0.057367,   0.017781,   0.081398,   -0.142070,   -0.073394,   -0.027529,   -0.079337,   -0.130238,   0.144290,   0.060695,   0.062763,   -0.044686,   -0.057219,   0.067268,   0.069667,   0.032665,   -0.047490,   -0.039113,   0.070861,   0.086969,   0.097476,0.209417,0.096953,0.000207,0.294857,0.128045,0.028889,-0.355035,-0.154358,0.004913,-0.160472,-0.085285,0.041289,-0.329254,-0.080082,0.004220,-0.029788,-0.038217,0.044897,0.012084,0.040970
   0.007167,   0.077773,   -0.083540,   -0.008786,   -0.057861,   0.018244,   0.082008,   -0.142802,   -0.073788,   -0.028123,   -0.079842,   -0.130903,   0.145085,   0.061124,   0.063408,   -0.044847,   -0.057431,   0.067516,   0.069801,   0.032864,   -0.047988,   -0.039772,   0.071651,   0.087391,   0.098118,0.210723,0.097522,-0.000010,0.296544,0.128892,0.028515,-0.356923,-0.155354,0.005315,-0.161286,-0.085840,0.041423,-0.330922,-0.080813,0.004521,-0.029788,-0.038217,0.044897,0.012084,0.040970
   0.007865,   0.078686,   -0.084622,   -0.009386,   -0.058755,   0.019085,   0.083103,   -0.144102,   -0.074514,   -0.029199,   -0.080729,   -0.132058,   0.146454,   0.061888,   0.064545,   -0.045189,   -0.057873,   0.068035,   0.070091,   0.033290,   -0.048857,   -0.040907,   0.072998,   0.088139,   0.099234,0.212714,0.098376,-0.000328,0.298976,0.130063,0.028002,-0.359473,-0.156632,0.005807,-0.162590,-0.086647,0.041610,-0.333296,-0.081852,0.004941,-0.029788,-0.038217,0.044897,0.012084,0.040970
   0.008737,   0.079803,   -0.085909,   -0.010141,   -0.059844,   0.020127,   0.084436,   -0.145640,   -0.075418,   -0.030508,   -0.081802,   -0.133431,   0.148033,   0.062813,   0.065896,   -0.045688,   -0.058508,   0.068759,   0.070517,   0.033903,   -0.049892,   -0.042235,   0.074530,   0.089037,   0.100535,0.214686,0.099150,-0.000246,0.301117,0.130969,0.028054,-0.361493,-0.157496,0.005602,-0.163977,-0.087365,0.041522,-0.335366,-0.082709,0.004836,-0.029788,-0.038217,0.044897,0.012084,0.040970
   0.009063,   0.080237,   -0.086424,   -0.010411,   -0.060261,   0.020519,   0.084956,   -0.146257,   -0.075743,   -0.031007,   -0.082229,   -0.133998,   0.148703,   0.063165,   0.066437,   -0.045818,   -0.058680,   0.068958,   0.070623,   0.034061,   -0.050317,   -0.042801,   0.075203,   0.089389,   0.101081,0.215825,0.099678,-0.000348,0.302601,0.131760,0.027866,-0.363167,-0.158432,0.005772,-0.164681,-0.087869,0.041577,-0.336836,-0.083392,0.004969,-0.029788,-0.038217,0.044897,0.012084,0.040970
   0.009700,   0.081074,   -0.087402,   -0.010943,   -0.061071,   0.021279,   0.085953,   -0.147421,   -0.076380,   -0.031973,   -0.083031,   -0.135050,   0.149927,   0.063833,   0.067455,   -0.046121,   -0.059077,   0.069413,   0.070870,   0.034434,   -0.051109,   -0.043842,   0.076420,   0.090051,   0.102091,0.217667,0.100457,-0.000350,0.304842,0.132834,0.027790,-0.365527,-0.159616,0.005767,-0.165886,-0.088622,0.041555,-0.339036,-0.084342,0.004975,-0.029788,-0.038217,0.044897,0.012084,0.040970
   0.010693,   0.082341,   -0.088864,   -0.011800,   -0.062310,   0.022455,   0.087451,   -0.149152,   -0.077397,   -0.033449,   -0.084233,   -0.136582,   0.151693,   0.064868,   0.068968,   -0.046670,   -0.059773,   0.070209,   0.071339,   0.035108,   -0.052286,   -0.045345,   0.078156,   0.091068,   0.103569,0.219965,0.101452,-0.000442,0.307380,0.134022,0.027614,-0.367956,-0.160776,0.005791,-0.167488,-0.089513,0.041576,-0.341495,-0.085479,0.005077,-0.029788,-0.038217,0.044897,0.012084,0.040970
   0.011651,   0.083562,   -0.090269,   -0.012627,   -0.063501,   0.023588,   0.088893,   -0.150812,   -0.078376,   -0.034865,   -0.085384,   -0.138048,   0.153375,   0.065857,   0.070410,   -0.047207,   -0.060454,   0.070985,   0.071796,   0.035765,   -0.053415,   -0.046784,   0.079813,   0.092043,   0.104980,0.222168,0.102444,-0.000489,0.309790,0.135193,0.027516,-0.370245,-0.161921,0.005719,-0.169018,-0.090382,0.041563,-0.343836,-0.086616,0.005109,-0.029788,-0.038217,0.044897,0.012084,0.040970
   0.012380,   0.084489,   -0.091330,   -0.013253,   -0.064407,   0.024450,   0.089988,   -0.152068,   -0.079117,   -0.035942,   -0.086271,   -0.139176,   0.154664,   0.066614,   0.071520,   -0.047619,   -0.060975,   0.071574,   0.072147,   0.036268,   -0.054279,   -0.047886,   0.081077,   0.092785,   0.106062,0.223712,0.102974,-0.000421,0.311493,0.135836,0.027569,-0.371884,-0.162544,0.005539,-0.170128,-0.090928,0.041491,-0.345474,-0.087191,0.005011,-0.029788,-0.038217,0.044897,0.012084,0.040970
   0.012603,   0.084772,   -0.091636,   -0.013431,   -0.064675,   0.024713,   0.090324,   -0.152432,   -0.079326,   -0.036264,   -0.086549,   -0.139532,   0.155050,   0.066833,   0.071863,   -0.047757,   -0.061147,   0.071757,   0.072255,   0.036429,   -0.054532,   -0.048209,   0.081428,   0.092985,   0.106372,0.224082,0.102942,0.000073,0.311822,0.135784,0.028172,-0.372166,-0.162506,0.004853,-0.170445,-0.090983,0.041162,-0.345773,-0.087155,0.004405,-0.029788,-0.038217,0.044897,0.012084,0.040970
   0.012728,   0.084937,   -0.091834,   -0.013537,   -0.064835,   0.024862,   0.090518,   -0.152666,   -0.079454,   -0.036453,   -0.086715,   -0.139749,   0.155310,   0.066975,   0.072072,   -0.047797,   -0.061198,   0.071817,   0.072290,   0.036476,   -0.054701,   -0.048432,   0.081696,   0.093128,   0.106589,0.224574,0.103174,-0.000064,0.312484,0.136147,0.027948,-0.372944,-0.162955,0.005109,-0.170742,-0.091214,0.041253,-0.346433,-0.087464,0.004592,-0.029788,-0.038217,0.044897,0.012084,0.040970
   0.013119,   0.085448,   -0.092439,   -0.013866,   -0.065332,   0.025323,   0.091119,   -0.153378,   -0.079847,   -0.037037,   -0.087210,   -0.140393,   0.156071,   0.067396,   0.072698,   -0.047953,   -0.061400,   0.072051,   0.072421,   0.036665,   -0.055203,   -0.049089,   0.082473,   0.093552,   0.107228,0.225879,0.103781,-0.000314,0.314148,0.137033,0.027529,-0.374788,-0.163990,0.005559,-0.171564,-0.091801,0.041413,-0.348081,-0.088236,0.004932,-0.029788,-0.038217,0.044897,0.012084,0.040970
   0.013841,   0.086378,   -0.093524,   -0.014480,   -0.066240,   0.026170,   0.092207,   -0.154648,   -0.080571,   -0.038103,   -0.088089,   -0.141521,   0.157385,   0.068145,   0.073803,   -0.048299,   -0.061842,   0.072560,   0.072712,   0.037087,   -0.056084,   -0.050224,   0.083799,   0.094303,   0.108340,0.227893,0.104698,-0.000598,0.316541,0.138256,0.027063,-0.377260,-0.165314,0.005990,-0.172892,-0.092659,0.041581,-0.350431,-0.089339,0.005305,-0.029788,-0.038217,0.044897,0.012084,0.040970
   0.014750,   0.087522,   -0.094827,   -0.015264,   -0.067360,   0.027239,   0.093550,   -0.156180,   -0.081494,   -0.039428,   -0.089177,   -0.142888,   0.158939,   0.069079,   0.075154,   -0.048822,   -0.062497,   0.073299,   0.073160,   0.037723,   -0.057150,   -0.051565,   0.085329,   0.095222,   0.109661,0.229750,0.105421,-0.000586,0.318509,0.139076,0.027045,-0.379084,-0.166076,0.005847,-0.174244,-0.093346,0.041538,-0.352330,-0.090113,0.005266,-0.029788,-0.038217,0.044897,0.012084,0.040970
   0.015078,   0.087955,   -0.095332,   -0.015533,   -0.067774,   0.027625,   0.094057,   -0.156771,   -0.081810,   -0.039911,   -0.089590,   -0.143432,   0.159570,   0.069416,   0.075669,   -0.048946,   -0.062658,   0.073481,   0.073258,   0.037869,   -0.057572,   -0.052124,   0.085981,   0.095568,   0.110196,0.230881,0.105975,-0.000652,0.319964,0.139891,0.026910,-0.380711,-0.167036,0.005949,-0.174949,-0.093875,0.041569,-0.353774,-0.090824,0.005347,-0.029788,-0.038217,0.044897,0.012084,0.040970
   0.015745,   0.088819,   -0.096329,   -0.016088,   -0.068610,   0.028403,   0.095062,   -0.157932,   -0.082460,   -0.040886,   -0.090397,   -0.144475,   0.160769,   0.070086,   0.076678,   -0.049256,   -0.063059,   0.073935,   0.073513,   0.038246,   -0.058389,   -0.053181,   0.087202,   0.096248,   0.111223,0.232745,0.106825,-0.000704,0.322188,0.141035,0.026778,-0.383021,-0.168282,0.005993,-0.176184,-0.094682,0.041580,-0.355961,-0.091847,0.005407,-0.029788,-0.038217,0.044897,0.012084,0.040970
   0.016745,   0.090076,   -0.097755,   -0.016941,   -0.069838,   0.029569,   0.096527,   -0.159595,   -0.083455,   -0.042327,   -0.091580,   -0.145959,   0.162450,   0.071089,   0.078142,   -0.049822,   -0.063768,   0.074732,   0.073991,   0.038931,   -0.059554,   -0.054646,   0.088866,   0.097241,   0.112661,0.234815,0.107651,-0.000612,0.324385,0.141976,0.026857,-0.385068,-0.169169,0.005731,-0.177687,-0.095466,0.041479,-0.358090,-0.092755,0.005265,-0.029788,-0.038217,0.044897,0.012084,0.040970
   0.017783,   0.091376,   -0.099229,   -0.017828,   -0.071109,   0.030766,   0.098024,   -0.161293,   -0.084479,   -0.043801,   -0.092778,   -0.147459,   0.164144,   0.072108,   0.079619,   -0.050400,   -0.064488,   0.075540,   0.074481,   0.039626,   -0.060753,   -0.056149,   0.090570,   0.098265,   0.114138,0.237036,0.108656,-0.000635,0.326750,0.143132,0.026810,-0.387272,-0.170280,0.005583,-0.179272,-0.096359,0.041451,-0.360388,-0.093882,0.005247,-0.029788,-0.038217,0.044897,0.012084,0.040970
   0.018486,   0.092257,   -0.100224,   -0.018428,   -0.071967,   0.031578,   0.099040,   -0.162441,   -0.085172,   -0.044795,   -0.093597,   -0.148485,   0.165301,   0.072802,   0.080626,   -0.050795,   -0.064979,   0.076088,   0.074816,   0.040099,   -0.061572,   -0.057176,   0.091733,   0.098962,   0.115143,0.238519,0.109296,-0.000577,0.328329,0.143881,0.026864,-0.388766,-0.171018,0.005391,-0.180334,-0.096952,0.041381,-0.361923,-0.094584,0.005148,-0.029788,-0.038217,0.044897,0.012084,0.040970
   0.018724,   0.092554,   -0.100544,   -0.018618,   -0.072252,   0.031859,   0.099392,   -0.162820,   -0.085394,   -0.045136,   -0.093894,   -0.148860,   0.165703,   0.073034,   0.080988,   -0.050945,   -0.065164,   0.076284,   0.074935,   0.040274,   -0.061842,   -0.057517,   0.092100,   0.099175,   0.115472,0.238833,0.109190,-0.000085,0.328606,0.143748,0.027474,-0.389000,-0.170891,0.004690,-0.180633,-0.096964,0.041046,-0.362166,-0.094458,0.004539,-0.029788,-0.038217,0.044897,0.012084,0.040970
   0.018851,   0.092717,   -0.100741,   -0.018729,   -0.072413,   0.032004,   0.099578,   -0.163046,   -0.085526,   -0.045319,   -0.094054,   -0.149063,   0.165949,   0.073179,   0.081187,   -0.050978,   -0.065204,   0.076331,   0.074967,   0.040310,   -0.062012,   -0.057737,   0.092365,   0.099325,   0.115689,0.239353,0.109460,-0.000326,0.329301,0.144162,0.027101,-0.389810,-0.171398,0.005121,-0.180946,-0.097225,0.041214,-0.362859,-0.094815,0.004863,-0.029788,-0.038217,0.044897,0.012084,0.040970
   0.019256,   0.093242,   -0.101354,   -0.019071,   -0.072922,   0.032473,   0.100181,   -0.163751,   -0.085926,   -0.045905,   -0.094549,   -0.149699,   0.166691,   0.073601,   0.081804,   -0.051132,   -0.065400,   0.076556,   0.075098,   0.040494,   -0.062527,   -0.058402,   0.093143,   0.099760,   0.116336,0.240681,0.110104,-0.000613,0.330973,0.145089,0.026638,-0.391647,-0.172472,0.005611,-0.181792,-0.097851,0.041402,-0.364516,-0.095626,0.005242,-0.029788,-0.038217,0.044897,0.012084,0.040970
   0.019995,   0.094182,   -0.102431,   -0.019691,   -0.073837,   0.033325,   0.101262,   -0.164991,   -0.086644,   -0.046962,   -0.095423,   -0.150808,   0.167959,   0.074335,   0.082888,   -0.051486,   -0.065848,   0.077062,   0.075393,   0.040920,   -0.063416,   -0.059532,   0.094440,   0.100507,   0.117442,0.242595,0.110968,-0.000744,0.333193,0.146215,0.026384,-0.393907,-0.173679,0.005796,-0.183095,-0.098681,0.041470,-0.366695,-0.096643,0.005410,-0.029788,-0.038217,0.044897,0.012084,0.040970
   0.020902,   0.095304,   -0.103692,   -0.020469,   -0.074935,   0.034366,   0.102548,   -0.166437,   -0.087537,   -0.048229,   -0.096465,   -0.152094,   0.169400,   0.075224,   0.084157,   -0.052007,   -0.066490,   0.077776,   0.075838,   0.041542,   -0.064457,   -0.060821,   0.095890,   0.101399,   0.118709,0.244373,0.111717,-0.000744,0.335020,0.147046,0.026371,-0.395569,-0.174451,0.005636,-0.184401,-0.099375,0.041434,-0.368471,-0.097438,0.005370,-0.029788,-0.038217,0.044897,0.012084,0.040970
   0.021237,   0.095742,   -0.104196,   -0.020742,   -0.075353,   0.034749,   0.103048,   -0.167011,   -0.087851,   -0.048703,   -0.096869,   -0.152622,   0.170002,   0.075554,   0.084654,   -0.052123,   -0.066641,   0.077943,   0.075931,   0.041676,   -0.064884,   -0.061381,   0.096533,   0.101747,   0.119242,0.245535,0.112306,-0.000784,0.336491,0.147899,0.026266,-0.397201,-0.175450,0.005705,-0.185132,-0.099941,0.041448,-0.369935,-0.098186,0.005420,-0.029788,-0.038217,0.044897,0.012084,0.040970
   0.021910,   0.096601,   -0.105178,   -0.021303,   -0.076186,   0.035520,   0.104030,   -0.168132,   -0.088496,   -0.049656,   -0.097656,   -0.153625,   0.171142,   0.076208,   0.085625,   -0.052431,   -0.067033,   0.078383,   0.076186,   0.042046,   -0.065697,   -0.062417,   0.097717,   0.102424,   0.120250,0.247348,0.113181,-0.000896,0.338618,0.149055,0.026068,-0.399387,-0.176705,0.005811,-0.186350,-0.100764,0.041500,-0.372027,-0.099231,0.005541,-0.029788,-0.038217,0.044897,0.012084,0.040970
   0.022929,   0.097863,   -0.106591,   -0.022167,   -0.077420,   0.036686,   0.105471,   -0.169747,   -0.089484,   -0.051075,   -0.098825,   -0.155069,   0.172755,   0.077191,   0.087049,   -0.053014,   -0.067751,   0.079179,   0.076677,   0.042740,   -0.066863,   -0.063861,   0.099336,   0.103410,   0.121670,0.249304,0.113963,-0.000753,0.340626,0.149910,0.026233,-0.401214,-0.177485,0.005446,-0.187812,-0.101517,0.041365,-0.373975,-0.100062,0.005319,-0.029788,-0.038217,0.044897,0.012084,0.040970
   0.023981,   0.099161,   -0.108042,   -0.023059,   -0.078689,   0.037879,   0.106942,   -0.171392,   -0.090495,   -0.052523,   -0.100008,   -0.156528,   0.174382,   0.078188,   0.088487,   -0.053608,   -0.068482,   0.079989,   0.077179,   0.043445,   -0.068058,   -0.065336,   0.100986,   0.104421,   0.123119,0.251368,0.114868,-0.000673,0.342752,0.150914,0.026335,-0.403150,-0.178430,0.005129,-0.189335,-0.102345,0.041267,-0.376040,-0.101051,0.005157,-0.029788,-0.038217,0.044897,0.012084,0.040970
   0.024734,   0.100088,   -0.109076,   -0.023697,   -0.079594,   0.038727,   0.107985,   -0.172556,   -0.091214,   -0.053547,   -0.100855,   -0.157571,   0.175540,   0.078900,   0.089511,   -0.054027,   -0.068993,   0.080551,   0.077534,   0.043938,   -0.068919,   -0.066400,   0.102173,   0.105149,   0.124162,0.252860,0.115506,-0.000580,0.344303,0.151648,0.026441,-0.404599,-0.179144,0.004874,-0.190435,-0.102951,0.041176,-0.377548,-0.101735,0.005006,-0.029788,-0.038217,0.044897,0.012084,0.040970
   0.024937,   0.100338,   -0.109342,   -0.023859,   -0.079833,   0.038964,   0.108278,   -0.172867,   -0.091401,   -0.053828,   -0.101103,   -0.157879,   0.175866,   0.079094,   0.089808,   -0.054156,   -0.069150,   0.080715,   0.077637,   0.044086,   -0.069146,   -0.066682,   0.102473,   0.105327,   0.124433,0.253124,0.115449,-0.000163,0.344525,0.151577,0.026958,-0.404782,-0.179088,0.004274,-0.190686,-0.102975,0.040885,-0.377744,-0.101676,0.004488,-0.029788,-0.038217,0.044897,0.012084,0.040970
   0.025056,   0.100491,   -0.109523,   -0.023964,   -0.079981,   0.039096,   0.108444,   -0.173065,   -0.091521,   -0.053990,   -0.101244,   -0.158057,   0.176078,   0.079223,   0.089980,   -0.054177,   -0.069175,   0.080744,   0.077660,   0.044107,   -0.069306,   -0.066886,   0.102716,   0.105468,   0.124632,0.253648,0.115742,-0.000388,0.345218,0.152018,0.026608,-0.405587,-0.179625,0.004678,-0.191001,-0.103254,0.041045,-0.378440,-0.102061,0.004789,-0.029788,-0.038217,0.044897,0.012084,0.040970
   0.025452,   0.100997,   -0.110107,   -0.024298,   -0.080471,   0.039540,   0.109010,   -0.173718,   -0.091901,   -0.054537,   -0.101704,   -0.158642,   0.176751,   0.079617,   0.090543,   -0.054313,   -0.069347,   0.080937,   0.077778,   0.044264,   -0.069802,   -0.067521,   0.103448,   0.105887,   0.125247,0.254985,0.116443,-0.000666,0.346871,0.153004,0.026155,-0.407389,-0.180764,0.005155,-0.191852,-0.103921,0.041231,-0.380085,-0.102938,0.005156,-0.029788,-0.038217,0.044897,0.012084,0.040970
   0.026220,   0.101962,   -0.111203,   -0.024947,   -0.081413,   0.040409,   0.110098,   -0.174956,   -0.092639,   -0.055604,   -0.102584,   -0.159742,   0.177998,   0.080360,   0.091620,   -0.054676,   -0.069800,   0.081444,   0.078085,   0.044697,   -0.070714,   -0.068665,   0.104749,   0.106657,   0.126369,0.256901,0.117349,-0.000918,0.349065,0.154168,0.025761,-0.409600,-0.181999,0.005479,-0.193178,-0.104789,0.041385,-0.382236,-0.103990,0.005457,-0.029788,-0.038217,0.044897,0.012084,0.040970
   0.027124,   0.103064,   -0.112423,   -0.025712,   -0.082490,   0.041429,   0.111340,   -0.176331,   -0.093502,   -0.056825,   -0.103597,   -0.160976,   0.179359,   0.081213,   0.092835,   -0.055202,   -0.070439,   0.082144,   0.078530,   0.045315,   -0.071735,   -0.069911,   0.106130,   0.107520,   0.127593,0.258524,0.117998,-0.000753,0.350673,0.154854,0.025977,-0.411030,-0.182615,0.005065,-0.194416,-0.105417,0.041236,-0.383799,-0.104649,0.005199,-0.029788,-0.038217,0.044897,0.012084,0.040970
   0.027450,   0.103486,   -0.112903,   -0.025980,   -0.082892,   0.041793,   0.111811,   -0.176864,   -0.093804,   -0.057270,   -0.103975,   -0.161464,   0.179909,   0.081525,   0.093293,   -0.055304,   -0.070571,   0.082288,   0.078615,   0.045430,   -0.072147,   -0.070445,   0.106737,   0.107859,   0.128101,0.259664,0.118604,-0.000812,0.352098,0.155720,0.025846,-0.412601,-0.183625,0.005165,-0.195139,-0.105998,0.041266,-0.385219,-0.105413,0.005272,-0.029788,-0.038217,0.044897,0.012084,0.040970
   0.028125,   0.104337,   -0.113862,   -0.026542,   -0.083713,   0.042544,   0.112755,   -0.177928,   -0.094432,   -0.058184,   -0.104728,   -0.162410,   0.180970,   0.082151,   0.094207,   -0.055602,   -0.070946,   0.082702,   0.078863,   0.045780,   -0.072946,   -0.071450,   0.107870,   0.108522,   0.129075,0.261489,0.119523,-0.000892,0.354189,0.156913,0.025687,-0.414727,-0.184917,0.005230,-0.196373,-0.106858,0.041298,-0.387286,-0.106499,0.005354,-0.029788,-0.038217,0.044897,0.012084,0.040970
   0.029203,   0.105650,   -0.115319,   -0.027457,   -0.085002,   0.043756,   0.114228,   -0.179563,   -0.095458,   -0.059638,   -0.105924,   -0.163865,   0.182578,   0.083157,   0.095644,   -0.056228,   -0.071705,   0.083537,   0.079393,   0.046517,   -0.074157,   -0.072926,   0.109508,   0.109547,   0.130530,0.263402,0.120336,-0.000852,0.356106,0.157768,0.025766,-0.416431,-0.185673,0.004925,-0.197833,-0.107622,0.041227,-0.389144,-0.107340,0.005218,-0.029788,-0.038217,0.044897,0.012084,0.040970
   0.030275,   0.106955,   -0.116763,   -0.028363,   -0.086279,   0.044949,   0.115679,   -0.181169,   -0.096466,   -0.061067,   -0.107095,   -0.165289,   0.184149,   0.084138,   0.097048,   -0.056835,   -0.072443,   0.084346,   0.079906,   0.047230,   -0.075354,   -0.074384,   0.111121,   0.110555,   0.131963,0.265393,0.121233,-0.000762,0.358105,0.158742,0.025900,-0.418222,-0.186583,0.004565,-0.199336,-0.108445,0.041124,-0.391087,-0.108305,0.005025,-0.029788,-0.038217,0.044897,0.012084,0.040970
   0.030964,   0.107793,   -0.117684,   -0.028940,   -0.087096,   0.045717,   0.116612,   -0.182194,   -0.097108,   -0.061981,   -0.107865,   -0.166225,   0.185173,   0.084778,   0.097965,   -0.057223,   -0.072910,   0.084851,   0.080232,   0.047678,   -0.076136,   -0.075337,   0.112170,   0.111207,   0.132897,0.266643,0.121710,-0.000479,0.359356,0.159275,0.026237,-0.419374,-0.187099,0.004085,-0.200308,-0.108939,0.040909,-0.392302,-0.108797,0.004651,-0.029788,-0.038217,0.044897,0.012084,0.040970
   0.031164,   0.108035,   -0.117939,   -0.029100,   -0.087327,   0.045945,   0.116888,   -0.182485,   -0.097289,   -0.062247,   -0.108101,   -0.166512,   0.185474,   0.084963,   0.098242,   -0.057347,   -0.073057,   0.085003,   0.080332,   0.047816,   -0.076357,   -0.075606,   0.112454,   0.111381,   0.133155,0.266909,0.121684,-0.000097,0.359581,0.159247,0.026705,-0.419563,-0.187093,0.003539,-0.200558,-0.108978,0.040639,-0.392503,-0.108782,0.004179,-0.029788,-0.038217,0.044897,0.012084,0.040970
   0.031280,   0.108183,   -0.118112,   -0.029202,   -0.087469,   0.046067,   0.117044,   -0.182666,   -0.097401,   -0.062396,   -0.108229,   -0.166675,   0.185662,   0.085082,   0.098396,   -0.057358,   -0.073070,   0.085016,   0.080347,   0.047824,   -0.076512,   -0.075805,   0.112686,   0.111517,   0.133347,0.267452,0.121997,-0.000279,0.360290,0.159712,0.026413,-0.420384,-0.187658,0.003875,-0.200886,-0.109278,0.040770,-0.393217,-0.109189,0.004423,-0.029788,-0.038217,0.044897,0.012084,0.040970
   0.031674,   0.108682,   -0.118680,   -0.029537,   -0.087951,   0.046499,   0.117587,   -0.183285,   -0.097774,   -0.062920,   -0.108669,   -0.167228,   0.186290,   0.085464,   0.098927,   -0.057483,   -0.073226,   0.085188,   0.080459,   0.047965,   -0.077000,   -0.076422,   0.113388,   0.111932,   0.133944,0.268770,0.122703,-0.000563,0.361902,0.160697,0.025950,-0.422130,-0.188790,0.004365,-0.201740,-0.109957,0.040968,-0.394821,-0.110065,0.004797,-0.029788,-0.038217,0.044897,0.012084,0.040970
   0.032423,   0.109610,   -0.119725,   -0.030172,   -0.088857,   0.047328,   0.118611,   -0.184439,   -0.098482,   -0.063923,   -0.109494,   -0.168245,   0.187432,   0.086165,   0.099922,   -0.057826,   -0.073650,   0.085659,   0.080755,   0.048369,   -0.077875,   -0.077504,   0.114608,   0.112674,   0.135004,0.270641,0.123664,-0.000882,0.364010,0.161912,0.025483,-0.424237,-0.190082,0.004761,-0.203038,-0.110854,0.041173,-0.396892,-0.111182,0.005166,-0.029788,-0.038217,0.044897,0.012084,0.040970
   0.033321,   0.110690,   -0.120908,   -0.030932,   -0.089914,   0.048324,   0.119806,   -0.185748,   -0.099324,   -0.065100,   -0.110475,   -0.169422,   0.188717,   0.086990,   0.101083,   -0.058353,   -0.074280,   0.086341,   0.081202,   0.048978,   -0.078875,   -0.078707,   0.115927,   0.113517,   0.136188,0.272157,0.124267,-0.000701,0.365464,0.162527,0.025728,-0.425506,-0.190619,0.004322,-0.204227,-0.111449,0.041016,-0.398309,-0.111770,0.004881,-0.029788,-0.038217,0.044897,0.012084,0.040970
   0.033651,   0.111112,   -0.121384,   -0.031207,   -0.090315,   0.048682,   0.120264,   -0.186263,   -0.099626,   -0.065532,   -0.110839,   -0.169887,   0.189237,   0.087297,   0.101518,   -0.058444,   -0.074396,   0.086466,   0.081281,   0.049077,   -0.079287,   -0.079235,   0.116522,   0.113860,   0.136690,0.273329,0.124921,-0.000818,0.366916,0.163449,0.025524,-0.427097,-0.191688,0.004498,-0.204976,-0.112072,0.041088,-0.399756,-0.112588,0.005021,-0.029788,-0.038217,0.044897,0.012084,0.040970
   0.034316,   0.111942,   -0.122307,   -0.031756,   -0.091115,   0.049411,   0.121172,   -0.187270,   -0.100230,   -0.066408,   -0.111564,   -0.170791,   0.190234,   0.087893,   0.102386,   -0.058737,   -0.074764,   0.086865,   0.081525,   0.049418,   -0.080064,   -0.080204,   0.117598,   0.114500,   0.137625,0.275037,0.125775,-0.000738,0.368831,0.164539,0.025580,-0.429020,-0.192861,0.004324,-0.206165,-0.112890,0.041010,-0.401647,-0.113581,0.004900,-0.029788,-0.038217,0.044897,0.012084,0.040970
   0.035371,   0.113208,   -0.123696,   -0.032650,   -0.092355,   0.050570,   0.122561,   -0.188794,   -0.101210,   -0.067777,   -0.112693,   -0.172143,   0.191713,   0.088842,   0.103721,   -0.059349,   -0.075496,   0.087661,   0.082045,   0.050127,   -0.081224,   -0.081597,   0.119126,   0.115479,   0.138996,0.276889,0.126653,-0.000676,0.370622,0.165438,0.025693,-0.430588,-0.193664,0.003988,-0.207591,-0.113681,0.040925,-0.403400,-0.114495,0.004728,-0.029788,-0.038217,0.044897,0.012084,0.040970
   0.036436,   0.114488,   -0.125099,   -0.033547,   -0.093609,   0.051736,   0.123961,   -0.190329,   -0.102191,   -0.069156,   -0.113829,   -0.173506,   0.193201,   0.089789,   0.105065,   -0.059957,   -0.076225,   0.088454,   0.082559,   0.050832,   -0.082397,   -0.083007,   0.120672,   0.116462,   0.140383,0.278749,0.127505,-0.000537,0.372443,0.166345,0.025907,-0.432191,-0.194506,0.003539,-0.209031,-0.114467,0.040791,-0.405169,-0.115386,0.004461,-0.029788,-0.038217,0.044897,0.012084,0.040970
