0.044783,0.041887,-0.000554,-0.049055,-0.039742,-0.022230,0.026343,0.016232,-0.026685,-0.028921,-0.027370,0.028062,-0.000750,-0.028199,0.049360,0.017803,-0.002789,-0.010595,0.015682,-0.003189,0.020937,-0.044435,-0.047510,0.044941,0.010317,-0.046084,0.024404,0.036067,-0.018025,-0.019873,0.014365,-0.040081,0.017992,-0.041667,0.039143,-0.026653,0.007595,-0.043569,0.045308,-0.001067,0.041281,0.002083,0.026476,-0.029067,0.020537
0.044888,0.042026,-0.000460,-0.049117,-0.039737,-0.022223,0.026355,0.016239,-0.026689,-0.028922,-0.027303,0.028146,-0.000692,-0.028238,0.049363,0.017726,-0.002892,-0.010664,0.015726,-0.003191,0.020989,-0.044368,-0.047464,0.044910,0.010320,-0.049431,0.023084,0.036027,-0.018344,-0.020077,0.014361,-0.042111,0.017240,-0.041680,0.041657,-0.025577,0.007617,-0.045178,0.044706,-0.001080,0.041281,0.002083,0.026476,-0.029067,0.020537
0.044928,0.042082,-0.000423,-0.049141,-0.039737,-0.022222,0.026360,0.016240,-0.026690,-0.028923,-0.027277,0.028181,-0.000668,-0.028254,0.049365,0.017699,-0.002933,-0.010689,0.015743,-0.003190,0.021009,-0.044341,-0.047446,0.044898,0.010321,-0.050842,0.022651,0.035997,-0.018473,-0.020157,0.014359,-0.042971,0.017002,-0.041693,0.042710,-0.025210,0.007635,-0.045859,0.044513,-0.001092,0.041281,0.002083,0.026476,-0.029067,0.020537
0.045024,0.042195,-0.000353,-0.049194,-0.039731,-0.022216,0.026369,0.016244,-0.026692,-0.028925,-0.027216,0.028251,-0.000624,-0.028288,0.049370,0.017630,-0.003016,-0.010738,0.015780,-0.003191,0.021057,-0.044286,-0.047410,0.044871,0.010325,-0.053583,0.021636,0.036134,-0.018726,-0.020321,0.014371,-0.044640,0.016431,-0.041598,0.044758,-0.024377,0.007525,-0.047182,0.044052,-0.001020,0.041281,0.002083,0.026476,-0.029067,0.020537
0.045195,0.042362,-0.000222,-0.049297,-0.039709,-0.022204,0.026384,0.016253,-0.026699,-0.028926,-0.027109,0.028353,-0.000544,-0.028353,0.049385,0.017505,-0.003141,-0.010833,0.015854,-0.003206,0.021142,-0.044205,-0.047347,0.044820,0.010337,-0.057501,0.020001,0.036209,-0.019101,-0.020567,0.014379,-0.047021,0.015491,-0.041536,0.047700,-0.023053,0.007457,-0.049069,0.043301,-0.000976,0.041281,0.002083,0.026476,-0.029067,0.020537
0.045394,0.042528,-0.000053,-0.049433,-0.039663,-0.022188,0.026399,0.016267,-0.026709,-0.028924,-0.026985,0.028455,-0.000440,-0.028436,0.049415,0.017360,-0.003265,-0.010956,0.015953,-0.003238,0.021239,-0.044124,-0.047264,0.044754,0.010360,-0.061274,0.018610,0.035958,-0.019479,-0.020796,0.014356,-0.049305,0.014703,-0.041674,0.050549,-0.021906,0.007632,-0.050883,0.042671,-0.001089,0.041281,0.002083,0.026476,-0.029067,0.020537
0.045380,0.042526,-0.000027,-0.049441,-0.039661,-0.022190,0.026399,0.016269,-0.026710,-0.028924,-0.026993,0.028454,-0.000423,-0.028442,0.049416,0.017370,-0.003263,-0.010976,0.015959,-0.003238,0.021233,-0.044125,-0.047251,0.044749,0.010361,-0.061371,0.018825,0.035437,-0.019489,-0.020789,0.014308,-0.049360,0.014845,-0.041993,0.050621,-0.022055,0.008023,-0.050929,0.042782,-0.001341,0.041281,0.002083,0.026476,-0.029067,0.020537
0.045416,0.042560,-0.000006,-0.049461,-0.039657,-0.022188,0.026401,0.016270,-0.026710,-0.028925,-0.026970,0.028475,-0.000410,-0.028455,0.049419,0.017345,-0.003288,-0.010990,0.015973,-0.003240,0.021251,-0.044109,-0.047241,0.044739,0.010363,-0.062178,0.018568,0.035535,-0.019561,-0.020836,0.014317,-0.049854,0.014704,-0.041929,0.051220,-0.021840,0.007947,-0.051319,0.042667,-0.001292,0.041281,0.002083,0.026476,-0.029067,0.020537
0.045522,0.042649,0.000061,-0.049524,-0.039640,-0.022182,0.026408,0.016273,-0.026713,-0.028925,-0.026902,0.028530,-0.000367,-0.028495,0.049431,0.017270,-0.003353,-0.011037,0.016016,-0.003251,0.021304,-0.044065,-0.047208,0.044708,0.010373,-0.064242,0.017878,0.035718,-0.019753,-0.020959,0.014334,-0.051112,0.014320,-0.041806,0.052761,-0.021264,0.007801,-0.052316,0.042357,-0.001198,0.041281,0.002083,0.026476,-0.029067,0.020537
0.045709,0.042788,0.000192,-0.049643,-0.039596,-0.022170,0.026420,0.016281,-0.026721,-0.028925,-0.026784,0.028616,-0.000286,-0.028570,0.049460,0.017134,-0.003456,-0.011131,0.016102,-0.003280,0.021397,-0.043997,-0.047143,0.044649,0.010395,-0.067358,0.016745,0.035826,-0.020055,-0.021148,0.014345,-0.053006,0.013681,-0.041724,0.055102,-0.020331,0.007709,-0.053818,0.041843,-0.001139,0.041281,0.002083,0.026476,-0.029067,0.020537
0.045897,0.042922,0.000323,-0.049765,-0.039551,-0.022158,0.026432,0.016290,-0.026728,-0.028924,-0.026665,0.028698,-0.000205,-0.028646,0.049489,0.016998,-0.003555,-0.011224,0.016189,-0.003311,0.021490,-0.043932,-0.047079,0.044588,0.010418,-0.070339,0.015703,0.035931,-0.020343,-0.021329,0.014355,-0.054820,0.013096,-0.041644,0.057340,-0.019467,0.007618,-0.055257,0.041372,-0.001082,0.041281,0.002083,0.026476,-0.029067,0.020537
0.046124,0.043070,0.000491,-0.049918,-0.039494,-0.022139,0.026445,0.016303,-0.026740,-0.028920,-0.026524,0.028790,-0.000101,-0.028741,0.049526,0.016831,-0.003666,-0.011347,0.016301,-0.003351,0.021602,-0.043860,-0.046996,0.044513,0.010446,-0.073621,0.014428,0.035835,-0.020667,-0.021535,0.014347,-0.056820,0.012369,-0.041687,0.059814,-0.018424,0.007678,-0.056844,0.040790,-0.001121,0.041281,0.002083,0.026476,-0.029067,0.020537
0.046215,0.043133,0.000553,-0.049977,-0.039473,-0.022134,0.026450,0.016306,-0.026743,-0.028921,-0.026465,0.028829,-0.000062,-0.028779,0.049540,0.016766,-0.003713,-0.011390,0.016343,-0.003365,0.021648,-0.043829,-0.046966,0.044483,0.010458,-0.075063,0.013952,0.035883,-0.020801,-0.021621,0.014351,-0.057701,0.012105,-0.041648,0.060890,-0.018026,0.007635,-0.057541,0.040577,-0.001094,0.041281,0.002083,0.026476,-0.029067,0.020537
0.046409,0.043256,0.000689,-0.050108,-0.039421,-0.022122,0.026460,0.016315,-0.026752,-0.028919,-0.026343,0.028905,0.000024,-0.028862,0.049574,0.016626,-0.003803,-0.011488,0.016436,-0.003400,0.021744,-0.043769,-0.046898,0.044419,0.010484,-0.077755,0.013031,0.035895,-0.021062,-0.021786,0.014353,-0.059341,0.011589,-0.041624,0.062909,-0.017260,0.007614,-0.058841,0.040162,-0.001080,0.041281,0.002083,0.026476,-0.029067,0.020537
0.046735,0.043440,0.000912,-0.050325,-0.039330,-0.022096,0.026477,0.016333,-0.026769,-0.028914,-0.026139,0.029019,0.000161,-0.028997,0.049631,0.016387,-0.003941,-0.011651,0.016596,-0.003465,0.021905,-0.043679,-0.046789,0.044312,0.010529,-0.081659,0.011442,0.035948,-0.021453,-0.022038,0.014359,-0.061725,0.010675,-0.041571,0.065857,-0.015965,0.007558,-0.060735,0.039431,-0.001046,0.041281,0.002083,0.026476,-0.029067,0.020537
0.047090,0.043628,0.001151,-0.050562,-0.039230,-0.022066,0.026495,0.016353,-0.026789,-0.028906,-0.025918,0.029135,0.000309,-0.029143,0.049694,0.016123,-0.004082,-0.011827,0.016771,-0.003538,0.022079,-0.043587,-0.046672,0.044196,0.010578,-0.085566,0.009842,0.036012,-0.021848,-0.022292,0.014365,-0.064115,0.009752,-0.041509,0.068813,-0.014661,0.007493,-0.062633,0.038691,-0.001007,0.041281,0.002083,0.026476,-0.029067,0.020537
0.047051,0.043613,0.001175,-0.050562,-0.039232,-0.022070,0.026494,0.016355,-0.026788,-0.028907,-0.025942,0.029125,0.000324,-0.029143,0.049693,0.016153,-0.004070,-0.011845,0.016770,-0.003537,0.022060,-0.043595,-0.046660,0.044196,0.010578,-0.085418,0.010196,0.035265,-0.021835,-0.022268,0.014294,-0.064019,0.009979,-0.041971,0.068700,-0.014921,0.008055,-0.062562,0.038869,-0.001370,0.041281,0.002083,0.026476,-0.029067,0.020537
0.047115,0.043650,0.001214,-0.050604,-0.039215,-0.022066,0.026496,0.016357,-0.026790,-0.028907,-0.025901,0.029148,0.000349,-0.029170,0.049704,0.016107,-0.004097,-0.011872,0.016800,-0.003548,0.022092,-0.043576,-0.046641,0.044175,0.010586,-0.086224,0.009958,0.035340,-0.021910,-0.022316,0.014301,-0.064512,0.009850,-0.041919,0.069301,-0.014720,0.007995,-0.062952,0.038765,-0.001331,0.041281,0.002083,0.026476,-0.029067,0.020537
0.047293,0.043747,0.001325,-0.050721,-0.039164,-0.022055,0.026504,0.016364,-0.026798,-0.028905,-0.025788,0.029208,0.000418,-0.029244,0.049737,0.015979,-0.004169,-0.011951,0.016883,-0.003583,0.022181,-0.043529,-0.046586,0.044117,0.010612,-0.088266,0.009295,0.035503,-0.022107,-0.022440,0.014317,-0.065758,0.009481,-0.041805,0.070829,-0.014163,0.007861,-0.063939,0.038468,-0.001246,0.041281,0.002083,0.026476,-0.029067,0.020537
0.047593,0.043900,0.001524,-0.050924,-0.039074,-0.022034,0.026518,0.016378,-0.026812,-0.028900,-0.025599,0.029303,0.000542,-0.029372,0.049795,0.015761,-0.004282,-0.012094,0.017031,-0.003647,0.022330,-0.043454,-0.046488,0.044016,0.010658,-0.091448,0.008117,0.035596,-0.022421,-0.022642,0.014327,-0.067703,0.008811,-0.041726,0.073223,-0.013193,0.007776,-0.065482,0.037930,-0.001193,0.041281,0.002083,0.026476,-0.029067,0.020537
0.047900,0.044049,0.001712,-0.051127,-0.038981,-0.022011,0.026531,0.016391,-0.026826,-0.028895,-0.025406,0.029395,0.000659,-0.029498,0.049854,0.015537,-0.004393,-0.012230,0.017177,-0.003713,0.022482,-0.043381,-0.046395,0.043916,0.010704,-0.094429,0.007059,0.035889,-0.022719,-0.022831,0.014356,-0.069526,0.008212,-0.041525,0.075469,-0.012315,0.007539,-0.066927,0.037449,-0.001042,0.041281,0.002083,0.026476,-0.029067,0.020537
0.048235,0.044203,0.001946,-0.051362,-0.038875,-0.021983,0.026545,0.016411,-0.026846,-0.028888,-0.025196,0.029492,0.000805,-0.029645,0.049921,0.015289,-0.004509,-0.012403,0.017351,-0.003790,0.022647,-0.043305,-0.046280,0.043800,0.010756,-0.097572,0.005820,0.035726,-0.023042,-0.023037,0.014340,-0.071458,0.007500,-0.041607,0.077853,-0.011299,0.007647,-0.068466,0.036877,-0.001116,0.041281,0.002083,0.026476,-0.029067,0.020537
0.048376,0.044273,0.002038,-0.051459,-0.038831,-0.021974,0.026551,0.016416,-0.026852,-0.028886,-0.025106,0.029535,0.000863,-0.029707,0.049949,0.015187,-0.004560,-0.012468,0.017421,-0.003820,0.022718,-0.043271,-0.046234,0.043752,0.010779,-0.099021,0.005354,0.035776,-0.023181,-0.023127,0.014346,-0.072345,0.007241,-0.041564,0.078937,-0.010908,0.007600,-0.069167,0.036669,-0.001086,0.041281,0.002083,0.026476,-0.029067,0.020537
0.048670,0.044408,0.002232,-0.051663,-0.038737,-0.021954,0.026562,0.016429,-0.026866,-0.028881,-0.024921,0.029619,0.000984,-0.029835,0.050009,0.014974,-0.004660,-0.012607,0.017568,-0.003886,0.022864,-0.043204,-0.046139,0.043651,0.010826,-0.101740,0.004377,0.035819,-0.023451,-0.023302,0.014351,-0.074011,0.006686,-0.041516,0.080982,-0.010098,0.007551,-0.070487,0.036225,-0.001056,0.041281,0.002083,0.026476,-0.029067,0.020537
0.049114,0.044596,0.002534,-0.051975,-0.038590,-0.021916,0.026580,0.016455,-0.026893,-0.028870,-0.024642,0.029735,0.001172,-0.030029,0.050102,0.014643,-0.004802,-0.012831,0.017800,-0.003994,0.023083,-0.043112,-0.045990,0.043497,0.010899,-0.105386,0.002988,0.035695,-0.023834,-0.023542,0.014339,-0.076255,0.005887,-0.041570,0.083756,-0.008952,0.007627,-0.072276,0.035582,-0.001110,0.041281,0.002083,0.026476,-0.029067,0.020537
0.049618,0.044806,0.002859,-0.052320,-0.038432,-0.021872,0.026601,0.016484,-0.026923,-0.028857,-0.024325,0.029867,0.001374,-0.030245,0.050201,0.014267,-0.004961,-0.013072,0.018056,-0.004111,0.023333,-0.043008,-0.045829,0.043327,0.010976,-0.109501,0.001107,0.035788,-0.024256,-0.023831,0.014348,-0.078811,0.004777,-0.041486,0.086888,-0.007430,0.007536,-0.074314,0.034692,-0.001058,0.041281,0.002083,0.026476,-0.029067,0.020537
0.049580,0.044787,0.002882,-0.052320,-0.038428,-0.021876,0.026599,0.016486,-0.026923,-0.028857,-0.024350,0.029855,0.001387,-0.030244,0.050203,0.014297,-0.004946,-0.013088,0.018055,-0.004113,0.023314,-0.043018,-0.045819,0.043327,0.010978,-0.109175,0.001656,0.035093,-0.024235,-0.023787,0.014280,-0.078596,0.005129,-0.041919,0.086645,-0.007839,0.008062,-0.074147,0.034968,-0.001398,0.041281,0.002083,0.026476,-0.029067,0.020537
0.049678,0.044830,0.002934,-0.052383,-0.038398,-0.021870,0.026602,0.016488,-0.026926,-0.028856,-0.024288,0.029882,0.001421,-0.030284,0.050223,0.014227,-0.004978,-0.013125,0.018100,-0.004133,0.023362,-0.042996,-0.045792,0.043296,0.010993,-0.110024,0.001387,0.035271,-0.024315,-0.023841,0.014298,-0.079116,0.004979,-0.041802,0.087277,-0.007612,0.007922,-0.074557,0.034849,-0.001309,0.041281,0.002083,0.026476,-0.029067,0.020537
0.049933,0.044938,0.003089,-0.052557,-0.038314,-0.021853,0.026611,0.016498,-0.026938,-0.028852,-0.024126,0.029949,0.001518,-0.030394,0.050276,0.014042,-0.005057,-0.013236,0.018225,-0.004192,0.023490,-0.042943,-0.045715,0.043209,0.011036,-0.112110,0.000685,0.035475,-0.024521,-0.023975,0.014319,-0.080395,0.004585,-0.041658,0.088843,-0.007025,0.007755,-0.075570,0.034533,-0.001202,0.041281,0.002083,0.026476,-0.029067,0.020537
0.050331,0.045097,0.003353,-0.052839,-0.038176,-0.021823,0.026626,0.016518,-0.026959,-0.028844,-0.023875,0.030048,0.001683,-0.030571,0.050364,0.013751,-0.005176,-0.013428,0.018431,-0.004292,0.023687,-0.042865,-0.045585,0.043069,0.011104,-0.115156,-0.000406,0.035438,-0.024835,-0.024174,0.014316,-0.082269,0.003960,-0.041656,0.091148,-0.006118,0.007763,-0.077059,0.034031,-0.001212,0.041281,0.002083,0.026476,-0.029067,0.020537
0.050741,0.045260,0.003606,-0.053119,-0.038041,-0.021792,0.026640,0.016536,-0.026980,-0.028835,-0.023615,0.030150,0.001841,-0.030748,0.050450,0.013451,-0.005297,-0.013611,0.018636,-0.004389,0.023892,-0.042785,-0.045459,0.042930,0.011172,-0.118236,-0.001561,0.035680,-0.025146,-0.024380,0.014340,-0.084168,0.003297,-0.041482,0.093472,-0.005163,0.007561,-0.078566,0.033499,-0.001086,0.041281,0.002083,0.026476,-0.029067,0.020537
0.051188,0.045423,0.003903,-0.053436,-0.037883,-0.021753,0.026656,0.016563,-0.027008,-0.028822,-0.023334,0.030252,0.002027,-0.030946,0.050549,0.013116,-0.005421,-0.013832,0.018872,-0.004506,0.024113,-0.042703,-0.045312,0.042773,0.011250,-0.121193,-0.002691,0.035596,-0.025469,-0.024580,0.014332,-0.086007,0.002640,-0.041514,0.095742,-0.004226,0.007609,-0.080036,0.032969,-0.001124,0.041281,0.002083,0.026476,-0.029067,0.020537
0.051379,0.045500,0.004029,-0.053574,-0.037817,-0.021741,0.026662,0.016570,-0.027017,-0.028819,-0.023212,0.030300,0.002106,-0.031033,0.050591,0.012979,-0.005477,-0.013922,0.018971,-0.004552,0.024209,-0.042666,-0.045250,0.042704,0.011283,-0.122711,-0.003192,0.035578,-0.025617,-0.024679,0.014331,-0.086940,0.002359,-0.041509,0.096876,-0.003805,0.007610,-0.080772,0.032745,-0.001125,0.041281,0.002083,0.026476,-0.029067,0.020537
0.051773,0.045647,0.004275,-0.053848,-0.037679,-0.021712,0.026675,0.016588,-0.027037,-0.028810,-0.022963,0.030392,0.002260,-0.031206,0.050679,0.012691,-0.005586,-0.014101,0.019171,-0.004651,0.024405,-0.042593,-0.045128,0.042568,0.011352,-0.125379,-0.004151,0.035735,-0.025893,-0.024858,0.014348,-0.088584,0.001809,-0.041387,0.098895,-0.003006,0.007472,-0.082076,0.032305,-0.001039,0.041281,0.002083,0.026476,-0.029067,0.020537
0.052353,0.045849,0.004658,-0.054261,-0.037472,-0.021660,0.026695,0.016623,-0.027074,-0.028793,-0.022597,0.030519,0.002500,-0.031465,0.050810,0.012257,-0.005740,-0.014386,0.019479,-0.004805,0.024694,-0.042493,-0.044938,0.042363,0.011455,-0.128971,-0.005563,0.035631,-0.026287,-0.025107,0.014338,-0.090827,0.000981,-0.041426,0.101655,-0.001835,0.007529,-0.083870,0.031637,-0.001085,0.041281,0.002083,0.026476,-0.029067,0.020537
0.053015,0.046075,0.005089,-0.054731,-0.037234,-0.021600,0.026718,0.016662,-0.027117,-0.028773,-0.022178,0.030661,0.002771,-0.031761,0.050959,0.011760,-0.005912,-0.014708,0.019832,-0.004981,0.025024,-0.042379,-0.044723,0.042129,0.011572,-0.132922,-0.007245,0.035577,-0.026724,-0.025390,0.014332,-0.093312,-0.000020,-0.041432,0.104705,-0.000450,0.007547,-0.085864,0.030828,-0.001109,0.041281,0.002083,0.026476,-0.029067,0.020537
0.052942,0.046050,0.005080,-0.054700,-0.037251,-0.021608,0.026716,0.016661,-0.027114,-0.028775,-0.022225,0.030645,0.002765,-0.031741,0.050948,0.011816,-0.005892,-0.014701,0.019807,-0.004967,0.024988,-0.042392,-0.044728,0.042145,0.011563,-0.132597,-0.006802,0.035008,-0.026690,-0.025351,0.014274,-0.093100,0.000268,-0.041790,0.104450,-0.000788,0.007981,-0.085698,0.031054,-0.001390,0.041281,0.002083,0.026476,-0.029067,0.020537
0.053065,0.046096,0.005150,-0.054784,-0.037210,-0.021600,0.026719,0.016665,-0.027119,-0.028773,-0.022146,0.030674,0.002809,-0.031794,0.050975,0.011728,-0.005926,-0.014750,0.019867,-0.004997,0.025049,-0.042369,-0.044693,0.042103,0.011584,-0.133451,-0.007077,0.035155,-0.026772,-0.025407,0.014290,-0.093625,0.000114,-0.041690,0.105087,-0.000557,0.007863,-0.086111,0.030932,-0.001315,0.041281,0.002083,0.026476,-0.029067,0.020537
0.053390,0.046213,0.005347,-0.055010,-0.037095,-0.021578,0.026729,0.016678,-0.027135,-0.028766,-0.021940,0.030747,0.002933,-0.031937,0.051048,0.011492,-0.006013,-0.014892,0.020031,-0.005078,0.025211,-0.042312,-0.044595,0.041990,0.011642,-0.135543,-0.007800,0.035356,-0.026985,-0.025548,0.014311,-0.094914,-0.000297,-0.041544,0.106661,0.000048,0.007694,-0.087131,0.030603,-0.001209,0.041281,0.002083,0.026476,-0.029067,0.020537
0.053911,0.046388,0.005679,-0.055381,-0.036904,-0.021537,0.026745,0.016704,-0.027164,-0.028753,-0.021609,0.030858,0.003141,-0.032171,0.051169,0.011108,-0.006144,-0.015134,0.020303,-0.005218,0.025472,-0.042224,-0.044430,0.041805,0.011738,-0.138608,-0.008883,0.035447,-0.027313,-0.025756,0.014321,-0.096817,-0.000924,-0.041460,0.108997,0.000957,0.007603,-0.088645,0.030100,-0.001157,0.041281,0.002083,0.026476,-0.029067,0.020537
0.054421,0.046559,0.006004,-0.055745,-0.036716,-0.021497,0.026761,0.016729,-0.027193,-0.028740,-0.021286,0.030965,0.003346,-0.032401,0.051288,0.010733,-0.006272,-0.015373,0.020571,-0.005354,0.025727,-0.042140,-0.044267,0.041624,0.011832,-0.141566,-0.009935,0.035500,-0.027629,-0.025959,0.014327,-0.098653,-0.001532,-0.041399,0.111248,0.001840,0.007541,-0.090106,0.029611,-0.001123,0.041281,0.002083,0.026476,-0.029067,0.020537
0.054961,0.046732,0.006354,-0.056131,-0.036518,-0.021447,0.026779,0.016761,-0.027229,-0.028722,-0.020943,0.031075,0.003567,-0.032645,0.051414,0.010326,-0.006404,-0.015635,0.020861,-0.005502,0.025997,-0.042053,-0.044092,0.041431,0.011930,-0.144476,-0.011107,0.035458,-0.027956,-0.026169,0.014322,-0.100496,-0.002229,-0.041405,0.113502,0.002814,0.007555,-0.091585,0.029046,-0.001144,0.041281,0.002083,0.026476,-0.029067,0.020537
0.055203,0.046814,0.006511,-0.056307,-0.036428,-0.021431,0.026785,0.016771,-0.027240,-0.028717,-0.020788,0.031127,0.003666,-0.032756,0.051471,0.010152,-0.006465,-0.015747,0.020988,-0.005566,0.026118,-0.042012,-0.044014,0.041343,0.011975,-0.145960,-0.011580,0.035444,-0.028107,-0.026268,0.014322,-0.101410,-0.002495,-0.041395,0.114616,0.003215,0.007551,-0.092307,0.028834,-0.001142,0.041281,0.002083,0.026476,-0.029067,0.020537
0.055691,0.046975,0.006818,-0.056655,-0.036249,-0.021395,0.026800,0.016794,-0.027267,-0.028705,-0.020477,0.031228,0.003860,-0.032978,0.051586,0.009793,-0.006585,-0.015971,0.021243,-0.005696,0.026364,-0.041932,-0.043861,0.041168,0.012065,-0.148736,-0.012609,0.035569,-0.028398,-0.026464,0.014335,-0.103138,-0.003093,-0.041288,0.116723,0.004074,0.007433,-0.093679,0.028355,-0.001071,0.041281,0.002083,0.026476,-0.029067,0.020537
0.056423,0.047198,0.007280,-0.057174,-0.035975,-0.021326,0.026823,0.016837,-0.027316,-0.028681,-0.020010,0.031370,0.004152,-0.033307,0.051759,0.009239,-0.006756,-0.016318,0.021635,-0.005900,0.026732,-0.041819,-0.043629,0.040908,0.012201,-0.152284,-0.014082,0.035693,-0.028809,-0.026725,0.014348,-0.105392,-0.003981,-0.041181,0.119486,0.005300,0.007313,-0.095488,0.027638,-0.001007,0.041281,0.002083,0.026476,-0.029067,0.020537
0.057165,0.047419,0.007775,-0.057716,-0.035690,-0.021255,0.026846,0.016885,-0.027368,-0.028655,-0.019537,0.031511,0.004466,-0.033651,0.051939,0.008677,-0.006926,-0.016692,0.022045,-0.006114,0.027105,-0.041707,-0.043380,0.040635,0.012343,-0.155838,-0.015475,0.035411,-0.029228,-0.026985,0.014318,-0.107669,-0.004818,-0.041334,0.122269,0.006471,0.007507,-0.097328,0.026952,-0.001150,0.041281,0.002083,0.026476,-0.029067,0.020537
0.057104,0.047400,0.007766,-0.057689,-0.035705,-0.021263,0.026844,0.016883,-0.027364,-0.028657,-0.019577,0.031499,0.004459,-0.033633,0.051929,0.008727,-0.006911,-0.016683,0.022023,-0.006102,0.027074,-0.041716,-0.043385,0.040649,0.012335,-0.155636,-0.015153,0.034962,-0.029205,-0.026957,0.014271,-0.107532,-0.004604,-0.041619,0.122105,0.006224,0.007851,-0.097221,0.027120,-0.001374,0.041281,0.002083,0.026476,-0.029067,0.020537
0.057258,0.047452,0.007860,-0.057799,-0.035649,-0.021254,0.026848,0.016888,-0.027371,-0.028654,-0.019479,0.031531,0.004518,-0.033703,0.051965,0.008617,-0.006949,-0.016750,0.022101,-0.006142,0.027151,-0.041691,-0.043338,0.040594,0.012364,-0.156527,-0.015434,0.035036,-0.029293,-0.027018,0.014280,-0.108080,-0.004761,-0.041561,0.122770,0.006462,0.007786,-0.097652,0.026996,-0.001333,0.041281,0.002083,0.026476,-0.029067,0.020537
0.057659,0.047579,0.008105,-0.058085,-0.035498,-0.021225,0.026859,0.016905,-0.027392,-0.028645,-0.019223,0.031611,0.004674,-0.033884,0.052061,0.008324,-0.007043,-0.016927,0.022309,-0.006250,0.027352,-0.041628,-0.043215,0.040451,0.012439,-0.158650,-0.016156,0.035222,-0.029516,-0.027166,0.014300,-0.109397,-0.005175,-0.041422,0.124375,0.007071,0.007626,-0.098696,0.026666,-0.001234,0.041281,0.002083,0.026476,-0.029067,0.020537
0.058267,0.047763,0.008488,-0.058522,-0.035267,-0.021176,0.026877,0.016936,-0.027428,-0.028627,-0.018834,0.031728,0.004916,-0.034162,0.052209,0.007873,-0.007182,-0.017209,0.022633,-0.006420,0.027659,-0.041535,-0.043023,0.040231,0.012556,-0.161644,-0.017285,0.035350,-0.029846,-0.027382,0.014314,-0.111279,-0.005844,-0.041311,0.126673,0.008018,0.007504,-0.100197,0.026128,-0.001165,0.041281,0.002083,0.026476,-0.029067,0.020537
0.058897,0.047951,0.008880,-0.058973,-0.035025,-0.021124,0.026895,0.016968,-0.027465,-0.028609,-0.018431,0.031847,0.005165,-0.034449,0.052363,0.007405,-0.007324,-0.017498,0.022967,-0.006597,0.027977,-0.041441,-0.042825,0.040005,0.012677,-0.164602,-0.018354,0.035540,-0.030176,-0.027596,0.014334,-0.113136,-0.006475,-0.041161,0.128944,0.008922,0.007333,-0.101676,0.025622,-0.001064,0.041281,0.002083,0.026476,-0.029067,0.020537
0.059517,0.048128,0.009285,-0.059425,-0.034785,-0.021065,0.026914,0.017007,-0.027509,-0.028587,-0.018034,0.031962,0.005423,-0.034737,0.052516,0.006936,-0.007460,-0.017804,0.023309,-0.006778,0.028291,-0.041350,-0.042620,0.039776,0.012798,-0.167348,-0.019428,0.035428,-0.030503,-0.027801,0.014322,-0.114908,-0.007124,-0.041210,0.131101,0.009828,0.007400,-0.103108,0.025089,-0.001123,0.041281,0.002083,0.026476,-0.029067,0.020537
0.059823,0.048223,0.009476,-0.059647,-0.034667,-0.021045,0.026922,0.017019,-0.027524,-0.028580,-0.017838,0.032021,0.005544,-0.034879,0.052591,0.006713,-0.007530,-0.017941,0.023470,-0.006862,0.028445,-0.041303,-0.042525,0.039665,0.012857,-0.168904,-0.019950,0.035508,-0.030665,-0.027912,0.014331,-0.115873,-0.007423,-0.041138,0.132273,0.010270,0.007322,-0.103869,0.024853,-0.001074,0.041281,0.002083,0.026476,-0.029067,0.020537
0.060390,0.048389,0.009842,-0.060062,-0.034446,-0.021000,0.026937,0.017048,-0.027557,-0.028564,-0.017474,0.032127,0.005776,-0.035143,0.052733,0.006294,-0.007655,-0.018210,0.023776,-0.007024,0.028731,-0.041220,-0.042341,0.039456,0.012969,-0.171544,-0.020873,0.035472,-0.030958,-0.028103,0.014329,-0.117529,-0.007965,-0.041129,0.134295,0.011054,0.007323,-0.105188,0.024418,-0.001082,0.041281,0.002083,0.026476,-0.029067,0.020537
0.061242,0.048630,0.010380,-0.060675,-0.034119,-0.020918,0.026963,0.017100,-0.027617,-0.028533,-0.016924,0.032283,0.006122,-0.035538,0.052942,0.005645,-0.007842,-0.018619,0.024243,-0.007271,0.029166,-0.041095,-0.042066,0.039142,0.013133,-0.175209,-0.022499,0.035599,-0.031392,-0.028391,0.014341,-0.119919,-0.008970,-0.041020,0.137184,0.012411,0.007201,-0.107122,0.023596,-0.001024,0.041281,0.002083,0.026476,-0.029067,0.020537
0.062068,0.048850,0.010932,-0.061286,-0.033783,-0.020836,0.026987,0.017155,-0.027679,-0.028500,-0.016393,0.032425,0.006475,-0.035929,0.053156,0.005014,-0.008013,-0.019039,0.024710,-0.007526,0.029586,-0.040982,-0.041785,0.038832,0.013302,-0.178342,-0.023605,0.035306,-0.031794,-0.028625,0.014309,-0.121957,-0.009644,-0.041181,0.139678,0.013367,0.007401,-0.108778,0.023039,-0.001175,0.041281,0.002083,0.026476,-0.029067,0.020537
0.062029,0.048839,0.010932,-0.061272,-0.033791,-0.020842,0.026986,0.017154,-0.027676,-0.028502,-0.016419,0.032418,0.006474,-0.035919,0.053150,0.005048,-0.008004,-0.019036,0.024696,-0.007517,0.029566,-0.040987,-0.041786,0.038840,0.013297,-0.178273,-0.023410,0.034924,-0.031783,-0.028611,0.014268,-0.121903,-0.009510,-0.041423,0.139614,0.013217,0.007693,-0.108735,0.023145,-0.001365,0.041281,0.002083,0.026476,-0.029067,0.020537
0.062212,0.048895,0.011042,-0.061404,-0.033721,-0.020831,0.026990,0.017160,-0.027684,-0.028499,-0.016302,0.032453,0.006543,-0.036003,0.053195,0.004916,-0.008045,-0.019114,0.024791,-0.007567,0.029658,-0.040960,-0.041731,0.038774,0.013333,-0.179167,-0.023703,0.035046,-0.031874,-0.028675,0.014281,-0.122455,-0.009675,-0.041334,0.140283,0.013464,0.007591,-0.109169,0.023015,-0.001300,0.041281,0.002083,0.026476,-0.029067,0.020537
0.062681,0.049031,0.011331,-0.061743,-0.033538,-0.020796,0.027002,0.017181,-0.027709,-0.028486,-0.016001,0.032539,0.006727,-0.036220,0.053313,0.004572,-0.008146,-0.019324,0.025039,-0.007700,0.029895,-0.040892,-0.041586,0.038603,0.013425,-0.181266,-0.024410,0.035210,-0.032103,-0.028828,0.014300,-0.123767,-0.010086,-0.041205,0.141880,0.014067,0.007445,-0.110210,0.022688,-0.001212,0.041281,0.002083,0.026476,-0.029067,0.020537
0.063398,0.049229,0.011787,-0.062267,-0.033252,-0.020736,0.027022,0.017219,-0.027754,-0.028464,-0.015539,0.032666,0.007018,-0.036555,0.053496,0.004037,-0.008297,-0.019662,0.025429,-0.007912,0.030259,-0.040791,-0.041354,0.038337,0.013570,-0.184247,-0.025506,0.035285,-0.032447,-0.029051,0.014308,-0.125664,-0.010745,-0.041124,0.144188,0.014999,0.007359,-0.111727,0.022156,-0.001169,0.041281,0.002083,0.026476,-0.029067,0.020537
0.064124,0.049430,0.012232,-0.062789,-0.032967,-0.020675,0.027042,0.017256,-0.027799,-0.028441,-0.015070,0.032795,0.007304,-0.036891,0.053679,0.003494,-0.008449,-0.019993,0.025819,-0.008123,0.030629,-0.040689,-0.041128,0.038071,0.013715,-0.187189,-0.026628,0.035604,-0.032786,-0.029276,0.014344,-0.127538,-0.011423,-0.040887,0.146467,0.015950,0.007086,-0.113223,0.021611,-0.001004,0.041281,0.002083,0.026476,-0.029067,0.020537
0.064825,0.049616,0.012691,-0.063306,-0.032683,-0.020606,0.027062,0.017302,-0.027850,-0.028413,-0.014615,0.032916,0.007600,-0.037225,0.053861,0.002958,-0.008594,-0.020343,0.026214,-0.008339,0.030989,-0.040592,-0.040892,0.037806,0.013858,-0.189811,-0.027646,0.035498,-0.033117,-0.029482,0.014331,-0.129267,-0.012055,-0.040935,0.148558,0.016822,0.007148,-0.114631,0.021088,-0.001065,0.041281,0.002083,0.026476,-0.029067,0.020537
0.065171,0.049715,0.012911,-0.063562,-0.032545,-0.020582,0.027071,0.017317,-0.027868,-0.028405,-0.014393,0.032979,0.007740,-0.037389,0.053950,0.002707,-0.008667,-0.020502,0.026400,-0.008437,0.031164,-0.040542,-0.040781,0.037677,0.013928,-0.191368,-0.028200,0.035508,-0.033282,-0.029598,0.014333,-0.130238,-0.012377,-0.040903,0.149734,0.017289,0.007120,-0.115397,0.020833,-0.001048,0.041281,0.002083,0.026476,-0.029067,0.020537
0.065858,0.049901,0.013345,-0.064065,-0.032269,-0.020526,0.027089,0.017352,-0.027910,-0.028384,-0.013948,0.033099,0.008018,-0.037712,0.054128,0.002195,-0.008809,-0.020822,0.026775,-0.008641,0.031515,-0.040448,-0.040561,0.037421,0.014068,-0.194080,-0.029181,0.035631,-0.033595,-0.029806,0.014348,-0.131963,-0.012967,-0.040788,0.151831,0.018127,0.006995,-0.116772,0.020361,-0.000976,0.041281,0.002083,0.026476,-0.029067,0.020537
0.066819,0.050149,0.013972,-0.064775,-0.031876,-0.020429,0.027117,0.017416,-0.027983,-0.028344,-0.013321,0.033262,0.008425,-0.038174,0.054382,0.001455,-0.009003,-0.021303,0.027321,-0.008942,0.032012,-0.040317,-0.040237,0.037054,0.014269,-0.197449,-0.030575,0.035539,-0.034033,-0.030079,0.014337,-0.134208,-0.013850,-0.040817,0.154541,0.019322,0.007037,-0.118607,0.019628,-0.001031,0.041281,0.002083,0.026476,-0.029067,0.020537
0.067695,0.050371,0.014555,-0.065428,-0.031512,-0.020340,0.027142,0.017476,-0.028051,-0.028308,-0.012750,0.033408,0.008803,-0.038599,0.054616,0.000781,-0.009177,-0.021751,0.027824,-0.009220,0.032465,-0.040201,-0.039935,0.036716,0.014454,-0.200430,-0.031659,0.035279,-0.034427,-0.030314,0.014306,-0.136195,-0.014528,-0.040960,0.156943,0.020265,0.007214,-0.120233,0.019062,-0.001173,0.041281,0.002083,0.026476,-0.029067,0.020537
0.067679,0.050367,0.014565,-0.065429,-0.031513,-0.020344,0.027141,0.017475,-0.028049,-0.028309,-0.012761,0.033405,0.008809,-0.038598,0.054615,0.000797,-0.009173,-0.021756,0.027821,-0.009218,0.032456,-0.040203,-0.039930,0.036716,0.014454,-0.200459,-0.031558,0.034971,-0.034427,-0.030310,0.014272,-0.136205,-0.014454,-0.041154,0.156956,0.020188,0.007449,-0.120241,0.019120,-0.001325,0.041281,0.002083,0.026476,-0.029067,0.020537
0.067901,0.050430,0.014695,-0.065588,-0.031425,-0.020330,0.027146,0.017483,-0.028060,-0.028304,-0.012618,0.033445,0.008891,-0.038700,0.054671,0.000636,-0.009220,-0.021848,0.027936,-0.009280,0.032568,-0.040171,-0.039865,0.036636,0.014498,-0.201391,-0.031860,0.035165,-0.034525,-0.030380,0.014294,-0.136783,-0.014625,-0.041018,0.157656,0.020445,0.007290,-0.120695,0.018987,-0.001225,0.041281,0.002083,0.026476,-0.029067,0.020537
0.068451,0.050579,0.015034,-0.065990,-0.031204,-0.020288,0.027160,0.017508,-0.028091,-0.028289,-0.012263,0.033540,0.009108,-0.038958,0.054814,0.000231,-0.009331,-0.022096,0.028231,-0.009442,0.032848,-0.040096,-0.039694,0.036433,0.014611,-0.203531,-0.032604,0.035379,-0.034766,-0.030544,0.014319,-0.138134,-0.015066,-0.040852,0.159295,0.021081,0.007101,-0.121767,0.018636,-0.001110,0.041281,0.002083,0.026476,-0.029067,0.020537
0.069244,0.050785,0.015544,-0.066578,-0.030876,-0.020220,0.027181,0.017552,-0.028142,-0.028261,-0.011747,0.033674,0.009437,-0.039339,0.055026,-0.000365,-0.009489,-0.022477,0.028673,-0.009686,0.033257,-0.039989,-0.039431,0.036130,0.014778,-0.206421,-0.033696,0.035404,-0.035114,-0.030772,0.014322,-0.140002,-0.015739,-0.040799,0.161556,0.022017,0.007050,-0.123267,0.018091,-0.001093,0.041281,0.002083,0.026476,-0.029067,0.020537
0.070065,0.051000,0.016060,-0.067181,-0.030541,-0.020150,0.027202,0.017596,-0.028195,-0.028234,-0.011211,0.033814,0.009771,-0.039731,0.055244,-0.000982,-0.009654,-0.022862,0.029126,-0.009937,0.033680,-0.039878,-0.039165,0.035819,0.014950,-0.209393,-0.034814,0.035602,-0.035468,-0.031010,0.014345,-0.141926,-0.016427,-0.040637,0.163880,0.022977,0.006867,-0.124813,0.017534,-0.000991,0.041281,0.002083,0.026476,-0.029067,0.020537
0.070833,0.051190,0.016562,-0.067752,-0.030219,-0.020070,0.027225,0.017648,-0.028255,-0.028201,-0.010707,0.033940,0.010100,-0.040105,0.055453,-0.001575,-0.009804,-0.023250,0.029568,-0.010184,0.034080,-0.039777,-0.038904,0.035521,0.015115,-0.211825,-0.035776,0.035538,-0.035798,-0.031211,0.014336,-0.143567,-0.017042,-0.040654,0.165853,0.023812,0.006893,-0.126156,0.017020,-0.001030,0.041281,0.002083,0.026476,-0.029067,0.020537
0.071240,0.051299,0.016825,-0.068059,-0.030050,-0.020042,0.027234,0.017667,-0.028277,-0.028190,-0.010443,0.034010,0.010268,-0.040301,0.055562,-0.001873,-0.009885,-0.023440,0.029791,-0.010306,0.034288,-0.039723,-0.038771,0.035366,0.015201,-0.213409,-0.036308,0.035516,-0.035973,-0.031334,0.014335,-0.144562,-0.017354,-0.040639,0.167058,0.024269,0.006886,-0.126943,0.016775,-0.001028,0.041281,0.002083,0.026476,-0.029067,0.020537
0.071993,0.051494,0.017299,-0.068614,-0.029740,-0.019979,0.027253,0.017706,-0.028325,-0.028165,-0.009951,0.034136,0.010575,-0.040662,0.055763,-0.002438,-0.010034,-0.023793,0.030207,-0.010537,0.034676,-0.039622,-0.038527,0.035080,0.015360,-0.216067,-0.037346,0.035693,-0.036289,-0.031550,0.014356,-0.146277,-0.017994,-0.040486,0.169130,0.025155,0.006715,-0.128314,0.016261,-0.000928,0.041281,0.002083,0.026476,-0.029067,0.020537
0.073054,0.051752,0.017996,-0.069406,-0.029289,-0.019866,0.027284,0.017780,-0.028410,-0.028117,-0.009248,0.034309,0.011034,-0.041186,0.056058,-0.003264,-0.010239,-0.024334,0.030824,-0.010885,0.035235,-0.039483,-0.038160,0.034663,0.015594,-0.219254,-0.038624,0.035610,-0.036734,-0.031820,0.014345,-0.148457,-0.018829,-0.040508,0.171744,0.026275,0.006748,-0.130110,0.015558,-0.000981,0.041281,0.002083,0.026476,-0.029067,0.020537
0.073993,0.051978,0.018630,-0.070118,-0.028883,-0.019768,0.027311,0.017848,-0.028487,-0.028075,-0.008627,0.034461,0.011451,-0.041655,0.056323,-0.003993,-0.010418,-0.024824,0.031377,-0.011198,0.035729,-0.039361,-0.037826,0.034288,0.015804,-0.222057,-0.039610,0.035291,-0.037128,-0.032052,0.014306,-0.150374,-0.019463,-0.040689,0.174042,0.027150,0.006970,-0.131695,0.015021,-0.001159,0.041281,0.002083,0.026476,-0.029067,0.020537
0.074015,0.051985,0.018656,-0.070142,-0.028871,-0.019768,0.027311,0.017848,-0.028487,-0.028075,-0.008613,0.034464,0.011467,-0.041670,0.056331,-0.004006,-0.010423,-0.024842,0.031393,-0.011206,0.035740,-0.039358,-0.037813,0.034276,0.015811,-0.222193,-0.039603,0.035116,-0.037141,-0.032059,0.014287,-0.150452,-0.019449,-0.040797,0.174139,0.027147,0.007101,-0.131756,0.015032,-0.001243,0.041281,0.002083,0.026476,-0.029067,0.020537
0.074262,0.052052,0.018808,-0.070325,-0.028770,-0.019753,0.027317,0.017858,-0.028499,-0.028070,-0.008454,0.034507,0.011563,-0.041786,0.056395,-0.004184,-0.010472,-0.024950,0.031524,-0.011278,0.035865,-0.039325,-0.037737,0.034184,0.015862,-0.223156,-0.039943,0.035224,-0.037244,-0.032135,0.014300,-0.151053,-0.019646,-0.040712,0.174864,0.027434,0.007005,-0.132229,0.014879,-0.001184,0.041281,0.002083,0.026476,-0.029067,0.020537
0.074872,0.052210,0.019187,-0.070776,-0.028517,-0.019706,0.027332,0.017886,-0.028534,-0.028051,-0.008057,0.034609,0.011808,-0.042079,0.056560,-0.004636,-0.010591,-0.025228,0.031858,-0.011463,0.036178,-0.039244,-0.037543,0.033953,0.015991,-0.225301,-0.040723,0.035436,-0.037492,-0.032309,0.014325,-0.152425,-0.020118,-0.040544,0.176518,0.028104,0.006815,-0.133321,0.014503,-0.001071,0.041281,0.002083,0.026476,-0.029067,0.020537
0.075768,0.052431,0.019759,-0.071443,-0.028136,-0.019626,0.027355,0.017937,-0.028595,-0.028018,-0.007468,0.034755,0.012182,-0.042516,0.056809,-0.005315,-0.010762,-0.025660,0.032363,-0.011751,0.036645,-0.039128,-0.037245,0.033605,0.016189,-0.228118,-0.041747,0.035579,-0.037851,-0.032541,0.014342,-0.154274,-0.020764,-0.040413,0.178751,0.028999,0.006669,-0.134811,0.013978,-0.000994,0.041281,0.002083,0.026476,-0.029067,0.020537
0.076674,0.052654,0.020342,-0.072121,-0.027750,-0.019545,0.027378,0.017989,-0.028657,-0.027984,-0.006871,0.034902,0.012563,-0.042961,0.057061,-0.006001,-0.010935,-0.026099,0.032877,-0.012041,0.037118,-0.039011,-0.036941,0.033252,0.016389,-0.230961,-0.042784,0.035653,-0.038212,-0.032778,0.014351,-0.156145,-0.021417,-0.040325,0.181005,0.029908,0.006577,-0.136321,0.013444,-0.000953,0.041281,0.002083,0.026476,-0.029067,0.020537
0.077504,0.052854,0.020889,-0.072746,-0.027392,-0.019457,0.027402,0.018048,-0.028725,-0.027946,-0.006316,0.035037,0.012926,-0.043377,0.057297,-0.006650,-0.011094,-0.026524,0.033365,-0.012319,0.037560,-0.038903,-0.036650,0.032919,0.016576,-0.233344,-0.043768,0.035630,-0.038549,-0.032988,0.014347,-0.157792,-0.022066,-0.040312,0.182965,0.030770,0.006566,-0.137681,0.012898,-0.000971,0.041281,0.002083,0.026476,-0.029067,0.020537
0.077959,0.052971,0.021180,-0.073089,-0.027199,-0.019425,0.027413,0.018068,-0.028750,-0.027934,-0.006020,0.035112,0.013114,-0.043598,0.057422,-0.006983,-0.011181,-0.026736,0.033616,-0.012459,0.037793,-0.038843,-0.036502,0.032744,0.016675,-0.234935,-0.044335,0.035660,-0.038730,-0.033118,0.014352,-0.158801,-0.022405,-0.040261,0.184182,0.031255,0.006517,-0.138479,0.012633,-0.000943,0.041281,0.002083,0.026476,-0.029067,0.020537
0.078811,0.053182,0.021728,-0.073729,-0.026835,-0.019353,0.027434,0.018114,-0.028806,-0.027903,-0.005458,0.035251,0.013472,-0.044019,0.057662,-0.007626,-0.011343,-0.027147,0.034099,-0.012732,0.038239,-0.038733,-0.036216,0.032410,0.016864,-0.237622,-0.045342,0.035747,-0.039065,-0.033345,0.014363,-0.160563,-0.023038,-0.040160,0.186300,0.032132,0.006411,-0.139896,0.012121,-0.000889,0.041281,0.002083,0.026476,-0.029067,0.020537
0.079998,0.053461,0.022500,-0.074617,-0.026320,-0.019220,0.027469,0.018201,-0.028907,-0.027846,-0.004657,0.035441,0.013990,-0.044616,0.058004,-0.008563,-0.011568,-0.027754,0.034800,-0.013136,0.038877,-0.038579,-0.035802,0.031932,0.017137,-0.240765,-0.046679,0.035907,-0.039529,-0.033631,0.014381,-0.162774,-0.023944,-0.040014,0.188926,0.033316,0.006244,-0.141729,0.011354,-0.000812,0.041281,0.002083,0.026476,-0.029067,0.020537
0.080935,0.053677,0.023155,-0.075345,-0.025894,-0.019118,0.027496,0.018273,-0.028988,-0.027800,-0.004028,0.035589,0.014426,-0.045103,0.058286,-0.009297,-0.011742,-0.028265,0.035370,-0.013467,0.039379,-0.038460,-0.035450,0.031541,0.017361,-0.243221,-0.047472,0.035381,-0.039905,-0.033841,0.014315,-0.164501,-0.024467,-0.040338,0.190982,0.034040,0.006632,-0.143179,0.010898,-0.001105,0.041281,0.002083,0.026476,-0.029067,0.020537
0.080982,0.053690,0.023194,-0.075386,-0.025872,-0.019117,0.027497,0.018275,-0.028990,-0.027799,-0.003998,0.035597,0.014451,-0.045129,0.058300,-0.009329,-0.011751,-0.028292,0.035399,-0.013482,0.039403,-0.038453,-0.035431,0.031521,0.017372,-0.243434,-0.047544,0.035247,-0.039926,-0.033858,0.014300,-0.164633,-0.024507,-0.040415,0.191139,0.034100,0.006728,-0.143281,0.010867,-0.001166,0.041281,0.002083,0.026476,-0.029067,0.020537
0.081264,0.053762,0.023370,-0.075598,-0.025753,-0.019098,0.027503,0.018286,-0.029004,-0.027792,-0.003815,0.035643,0.014564,-0.045265,0.058377,-0.009534,-0.011805,-0.028418,0.035552,-0.013568,0.039547,-0.038417,-0.035342,0.031414,0.017433,-0.244401,-0.047868,0.035330,-0.040034,-0.033937,0.014310,-0.165238,-0.024695,-0.040344,0.191871,0.034377,0.006650,-0.143757,0.010722,-0.001118,0.041281,0.002083,0.026476,-0.029067,0.020537
0.081948,0.053932,0.023802,-0.076111,-0.025459,-0.019045,0.027520,0.018319,-0.029045,-0.027770,-0.003366,0.035754,0.014845,-0.045600,0.058569,-0.010043,-0.011934,-0.028738,0.035934,-0.013785,0.039902,-0.038329,-0.035118,0.031148,0.017585,-0.246542,-0.048632,0.035518,-0.040294,-0.034118,0.014334,-0.166623,-0.025165,-0.040188,0.193538,0.035042,0.006474,-0.144862,0.010347,-0.001017,0.041281,0.002083,0.026476,-0.029067,0.020537
0.082910,0.054164,0.024422,-0.076836,-0.025040,-0.018958,0.027545,0.018375,-0.029113,-0.027732,-0.002724,0.035909,0.015256,-0.046082,0.058846,-0.010777,-0.012115,-0.029208,0.036488,-0.014104,0.040412,-0.038205,-0.034790,0.030763,0.017806,-0.249359,-0.049726,0.035679,-0.040662,-0.034365,0.014353,-0.168509,-0.025873,-0.040040,0.195793,0.036002,0.006311,-0.146392,0.009768,-0.000932,0.041281,0.002083,0.026476,-0.029067,0.020537
0.083931,0.054408,0.025073,-0.077602,-0.024595,-0.018863,0.027571,0.018436,-0.029185,-0.027691,-0.002042,0.036072,0.015688,-0.046592,0.059141,-0.011560,-0.012305,-0.029705,0.037074,-0.014443,0.040954,-0.038075,-0.034444,0.030357,0.018040,-0.252197,-0.050812,0.035955,-0.041042,-0.034616,0.014387,-0.170415,-0.026581,-0.039812,0.198076,0.036962,0.006052,-0.147935,0.009190,-0.000782,0.041281,0.002083,0.026476,-0.029067,0.020537
0.084791,0.054608,0.025651,-0.078260,-0.024209,-0.018768,0.027596,0.018500,-0.029260,-0.027649,-0.001459,0.036210,0.016077,-0.047036,0.059399,-0.012238,-0.012467,-0.030158,0.037593,-0.014745,0.041420,-0.037964,-0.034132,0.030001,0.018245,-0.254389,-0.051687,0.035857,-0.041374,-0.034818,0.014374,-0.171971,-0.027176,-0.039847,0.199912,0.037745,0.006098,-0.149235,0.008680,-0.000841,0.041281,0.002083,0.026476,-0.029067,0.020537
0.085302,0.054735,0.025980,-0.078649,-0.023987,-0.018731,0.027608,0.018524,-0.029289,-0.027633,-0.001124,0.036292,0.016290,-0.047290,0.059544,-0.012615,-0.012562,-0.030399,0.037879,-0.014908,0.041684,-0.037898,-0.033963,0.029800,0.018360,-0.256001,-0.052257,0.035909,-0.041565,-0.034956,0.014382,-0.173003,-0.027522,-0.039776,0.201154,0.038239,0.006027,-0.150052,0.008409,-0.000799,0.041281,0.002083,0.026476,-0.029067,0.020537
0.086207,0.054951,0.026575,-0.079340,-0.023586,-0.018652,0.027631,0.018576,-0.029351,-0.027599,-0.000519,0.036436,0.016684,-0.047749,0.059810,-0.013303,-0.012730,-0.030848,0.038405,-0.015211,0.042165,-0.037783,-0.033648,0.029434,0.018571,-0.258567,-0.053219,0.035889,-0.041901,-0.035184,0.014381,-0.174715,-0.028141,-0.039741,0.203203,0.039088,0.006000,-0.151437,0.007905,-0.000797,0.041281,0.002083,0.026476,-0.029067,0.020537
0.087469,0.055243,0.027409,-0.080299,-0.023022,-0.018506,0.027669,0.018673,-0.029464,-0.027533,0.000350,0.036640,0.017255,-0.048407,0.060193,-0.014312,-0.012968,-0.031512,0.039171,-0.015659,0.042860,-0.037617,-0.033189,0.028905,0.018877,-0.261668,-0.054640,0.036025,-0.042382,-0.035487,0.014396,-0.176967,-0.029134,-0.039602,0.205840,0.040352,0.005843,-0.153327,0.007057,-0.000732,0.041281,0.002083,0.026476,-0.029067,0.020537
0.088478,0.055468,0.028117,-0.081088,-0.022548,-0.018392,0.027699,0.018754,-0.029556,-0.027480,0.001037,0.036796,0.017733,-0.048943,0.060511,-0.015111,-0.013152,-0.032070,0.039797,-0.016031,0.043412,-0.037490,-0.032802,0.028473,0.019132,-0.263941,-0.055293,0.035562,-0.042761,-0.035688,0.014336,-0.178606,-0.029582,-0.039883,0.207783,0.040976,0.006178,-0.154714,0.006657,-0.000993,0.041281,0.002083,0.026476,-0.029067,0.020537
0.088532,0.055482,0.028163,-0.081136,-0.022521,-0.018390,0.027700,0.018756,-0.029558,-0.027479,0.001072,0.036805,0.017762,-0.048974,0.060528,-0.015149,-0.013162,-0.032102,0.039831,-0.016050,0.043440,-0.037483,-0.032779,0.028449,0.019145,-0.264165,-0.055367,0.035397,-0.042785,-0.035707,0.014316,-0.178744,-0.029624,-0.039979,0.207949,0.041039,0.006298,-0.154822,0.006625,-0.001068,0.041281,0.002083,0.026476,-0.029067,0.020537
0.088854,0.055564,0.028359,-0.081377,-0.022383,-0.018369,0.027707,0.018768,-0.029574,-0.027470,0.001281,0.036858,0.017888,-0.049129,0.060618,-0.015382,-0.013222,-0.032243,0.040005,-0.016150,0.043604,-0.037442,-0.032679,0.028326,0.019216,-0.265179,-0.055739,0.035591,-0.042900,-0.035795,0.014341,-0.179384,-0.029845,-0.039834,0.208720,0.041356,0.006132,-0.155325,0.006455,-0.000964,0.041281,0.002083,0.026476,-0.029067,0.020537
0.089597,0.055743,0.028835,-0.081941,-0.022055,-0.018310,0.027724,0.018806,-0.029621,-0.027445,0.001775,0.036976,0.018201,-0.049502,0.060834,-0.015939,-0.013360,-0.032597,0.040428,-0.016395,0.043995,-0.037348,-0.032430,0.028030,0.019388,-0.267308,-0.056526,0.035770,-0.043169,-0.035986,0.014364,-0.180782,-0.030342,-0.039677,0.210393,0.042046,0.005957,-0.156444,0.006057,-0.000864,0.041281,0.002083,0.026476,-0.029067,0.020537
0.090623,0.055983,0.029511,-0.082727,-0.021591,-0.018214,0.027751,0.018869,-0.029697,-0.027401,0.002468,0.037139,0.018655,-0.050031,0.061145,-0.016730,-0.013548,-0.033115,0.041034,-0.016750,0.044548,-0.037217,-0.032066,0.027606,0.019636,-0.269994,-0.057522,0.035818,-0.043542,-0.036230,0.014371,-0.182616,-0.031004,-0.039597,0.212576,0.042941,0.005876,-0.157942,0.005510,-0.000835,0.041281,0.002083,0.026476,-0.029067,0.020537
0.091709,0.056239,0.030209,-0.083551,-0.021107,-0.018111,0.027780,0.018935,-0.029777,-0.027355,0.003205,0.037313,0.019126,-0.050588,0.061471,-0.017570,-0.013750,-0.033652,0.041671,-0.017123,0.045135,-0.037078,-0.031689,0.027161,0.019896,-0.272811,-0.058677,0.036148,-0.043931,-0.036497,0.014412,-0.184547,-0.031776,-0.039327,0.214868,0.043963,0.005569,-0.159515,0.004876,-0.000656,0.041281,0.002083,0.026476,-0.029067,0.020537
0.092621,0.056446,0.030831,-0.084258,-0.020682,-0.018006,0.027807,0.019007,-0.029860,-0.027307,0.003834,0.037458,0.019551,-0.051073,0.061759,-0.018296,-0.013920,-0.034145,0.042234,-0.017458,0.045640,-0.036959,-0.031345,0.026769,0.020127,-0.274888,-0.059481,0.036048,-0.044270,-0.036698,0.014399,-0.186062,-0.032344,-0.039357,0.216641,0.044702,0.005610,-0.160794,0.004383,-0.000712,0.041281,0.002083,0.026476,-0.029067,0.020537
0.093173,0.056581,0.031193,-0.084685,-0.020436,-0.017967,0.027820,0.019033,-0.029892,-0.027290,0.004200,0.037547,0.019788,-0.051354,0.061922,-0.018705,-0.014022,-0.034411,0.042550,-0.017640,0.045930,-0.036889,-0.031157,0.026547,0.020256,-0.276541,-0.060104,0.036048,-0.044469,-0.036848,0.014401,-0.187134,-0.032730,-0.039316,0.217923,0.045242,0.005577,-0.161646,0.004079,-0.000696,0.041281,0.002083,0.026476,-0.029067,0.020537
0.094194,0.056819,0.031859,-0.085465,-0.019974,-0.017873,0.027846,0.019093,-0.029965,-0.027248,0.004891,0.037709,0.020235,-0.051881,0.062232,-0.019491,-0.014209,-0.034920,0.043151,-0.017994,0.046481,-0.036760,-0.030799,0.026126,0.020503,-0.279128,-0.061075,0.036221,-0.044828,-0.037090,0.014425,-0.188894,-0.033375,-0.039143,0.220019,0.046115,0.005389,-0.163075,0.003552,-0.000588,0.041281,0.002083,0.026476,-0.029067,0.020537
0.095521,0.057118,0.032767,-0.086496,-0.019351,-0.017713,0.027887,0.019203,-0.030092,-0.027172,0.005820,0.037921,0.020866,-0.052600,0.062662,-0.020563,-0.014456,-0.035649,0.043983,-0.018493,0.047229,-0.036586,-0.030288,0.025544,0.020848,-0.281988,-0.062314,0.036129,-0.045316,-0.037382,0.014412,-0.191037,-0.034280,-0.039147,0.222511,0.047253,0.005403,-0.164900,0.002764,-0.000636,0.041281,0.002083,0.026476,-0.029067,0.020537
0.096537,0.057344,0.033484,-0.087299,-0.018863,-0.017593,0.027918,0.019289,-0.030189,-0.027114,0.006527,0.038081,0.021361,-0.053156,0.062996,-0.021379,-0.014643,-0.036223,0.044628,-0.018883,0.047800,-0.036454,-0.029886,0.025093,0.021118,-0.284125,-0.063003,0.035737,-0.045691,-0.037587,0.014358,-0.192630,-0.034768,-0.039378,0.224372,0.047906,0.005678,-0.166264,0.002325,-0.000860,0.041281,0.002083,0.026476,-0.029067,0.020537
0.096606,0.057361,0.033537,-0.087357,-0.018830,-0.017591,0.027919,0.019291,-0.030192,-0.027113,0.006572,0.038093,0.021394,-0.053194,0.063017,-0.021427,-0.014655,-0.036260,0.044669,-0.018906,0.047835,-0.036445,-0.029860,0.025064,0.021134,-0.284369,-0.063090,0.035623,-0.045717,-0.037609,0.014345,-0.192781,-0.034819,-0.039441,0.224553,0.047980,0.005759,-0.166382,0.002287,-0.000910,0.041281,0.002083,0.026476,-0.029067,0.020537
0.096951,0.057446,0.033752,-0.087619,-0.018677,-0.017568,0.027927,0.019305,-0.030210,-0.027104,0.006798,0.038148,0.021533,-0.053364,0.063117,-0.021679,-0.014719,-0.036415,0.044860,-0.019017,0.048013,-0.036402,-0.029749,0.024929,0.021213,-0.285387,-0.063472,0.035787,-0.045836,-0.037702,0.014367,-0.193429,-0.035049,-0.039312,0.225330,0.048306,0.005612,-0.166891,0.002110,-0.000820,0.041281,0.002083,0.026476,-0.029067,0.020537
0.097762,0.057639,0.034274,-0.088240,-0.018310,-0.017502,0.027947,0.019347,-0.030262,-0.027074,0.007342,0.038277,0.021881,-0.053779,0.063362,-0.022291,-0.014868,-0.036806,0.045329,-0.019293,0.048445,-0.036299,-0.029471,0.024598,0.021408,-0.287521,-0.064271,0.036017,-0.046116,-0.037902,0.014398,-0.194851,-0.035564,-0.039115,0.227026,0.049015,0.005392,-0.168034,0.001697,-0.000690,0.041281,0.002083,0.026476,-0.029067,0.020537
0.098867,0.057894,0.035007,-0.089095,-0.017797,-0.017397,0.027976,0.019417,-0.030346,-0.027025,0.008100,0.038453,0.022380,-0.054363,0.063711,-0.023150,-0.015071,-0.037373,0.045994,-0.019690,0.049052,-0.036157,-0.029069,0.024129,0.021688,-0.290189,-0.065301,0.036135,-0.046505,-0.038160,0.014413,-0.196712,-0.036269,-0.038982,0.229224,0.049948,0.005249,-0.169564,0.001111,-0.000622,0.041281,0.002083,0.026476,-0.029067,0.020537
0.100013,0.058159,0.035768,-0.089982,-0.017264,-0.017286,0.028007,0.019490,-0.030435,-0.026973,0.008890,0.038637,0.022901,-0.054973,0.064075,-0.024044,-0.015283,-0.037963,0.046686,-0.020104,0.049685,-0.036008,-0.028650,0.023638,0.021980,-0.292930,-0.066379,0.036281,-0.046908,-0.038431,0.014433,-0.198639,-0.037012,-0.038827,0.231493,0.050927,0.005081,-0.171153,0.000491,-0.000538,0.041281,0.002083,0.026476,-0.029067,0.020537
0.100949,0.058369,0.036415,-0.090716,-0.016816,-0.017173,0.028036,0.019569,-0.030525,-0.026919,0.009547,0.038787,0.023351,-0.055486,0.064384,-0.024800,-0.015456,-0.038482,0.047278,-0.020463,0.050215,-0.035886,-0.028285,0.023223,0.022229,-0.294861,-0.067157,0.036191,-0.047243,-0.038631,0.014421,-0.200082,-0.037581,-0.038839,0.233168,0.051650,0.005104,-0.172381,-0.000006,-0.000578,0.041281,0.002083,0.026476,-0.029067,0.020537
0.101549,0.058512,0.036813,-0.091184,-0.016541,-0.017129,0.028050,0.019598,-0.030561,-0.026899,0.009948,0.038881,0.023613,-0.055796,0.064567,-0.025247,-0.015565,-0.038776,0.047627,-0.020667,0.050533,-0.035811,-0.028076,0.022976,0.022374,-0.296482,-0.067756,0.036180,-0.047449,-0.038784,0.014422,-0.201145,-0.037958,-0.038801,0.234437,0.052176,0.005076,-0.173228,-0.000303,-0.000565,0.041281,0.002083,0.026476,-0.029067,0.020537
0.102601,0.058758,0.037508,-0.092000,-0.016052,-0.017032,0.028077,0.019662,-0.030639,-0.026853,0.010674,0.039052,0.024089,-0.056356,0.064901,-0.026064,-0.015760,-0.039312,0.048260,-0.021045,0.051114,-0.035674,-0.027693,0.022526,0.022642,-0.299054,-0.068828,0.036367,-0.047815,-0.039043,0.014449,-0.202937,-0.038690,-0.038613,0.236546,0.053137,0.004872,-0.174695,-0.000906,-0.000450,0.041281,0.002083,0.026476,-0.029067,0.020537
0.104014,0.059072,0.038486,-0.093109,-0.015367,-0.016854,0.028123,0.019786,-0.030782,-0.026767,0.011683,0.039280,0.024780,-0.057145,0.065382,-0.027221,-0.016024,-0.040108,0.049168,-0.021602,0.051931,-0.035485,-0.027130,0.021885,0.023031,-0.301763,-0.069969,0.036345,-0.048317,-0.039335,0.014446,-0.205032,-0.039563,-0.038553,0.238960,0.054216,0.004816,-0.176498,-0.001676,-0.000447,0.041281,0.002083,0.026476,-0.029067,0.020537
0.105057,0.059301,0.039236,-0.093944,-0.014848,-0.016726,0.028156,0.019878,-0.030887,-0.026703,0.012422,0.039446,0.025307,-0.057735,0.065744,-0.028068,-0.016216,-0.040714,0.049847,-0.022021,0.052531,-0.035348,-0.026700,0.021404,0.023324,-0.303757,-0.070594,0.035900,-0.048695,-0.039537,0.014384,-0.206566,-0.040024,-0.038817,0.240735,0.054823,0.005129,-0.177832,-0.002099,-0.000698,0.041281,0.002083,0.026476,-0.029067,0.020537
0.105135,0.059321,0.039293,-0.094009,-0.014811,-0.016723,0.028157,0.019881,-0.030891,-0.026701,0.012472,0.039458,0.025344,-0.057776,0.065768,-0.028124,-0.016230,-0.040754,0.049893,-0.022047,0.052571,-0.035338,-0.026672,0.021371,0.023343,-0.304008,-0.070687,0.035817,-0.048722,-0.039560,0.014374,-0.206722,-0.040078,-0.038859,0.240922,0.054901,0.005185,-0.177953,-0.002140,-0.000733,0.041281,0.002083,0.026476,-0.029067,0.020537
0.105515,0.059413,0.039538,-0.094304,-0.014637,-0.016699,0.028165,0.019896,-0.030910,-0.026690,0.012722,0.039519,0.025503,-0.057969,0.065882,-0.028401,-0.016299,-0.040931,0.050108,-0.022173,0.052769,-0.035290,-0.026545,0.021218,0.023434,-0.305069,-0.071089,0.035912,-0.048850,-0.039662,0.014388,-0.207402,-0.040323,-0.038771,0.241736,0.055248,0.005090,-0.178489,-0.002329,-0.000676,0.041281,0.002083,0.026476,-0.029067,0.020537
0.106369,0.059616,0.040095,-0.094966,-0.014240,-0.016629,0.028186,0.019941,-0.030966,-0.026658,0.013304,0.039657,0.025880,-0.058419,0.066152,-0.029051,-0.016457,-0.041353,0.050612,-0.022475,0.053234,-0.035180,-0.026242,0.020858,0.023649,-0.307210,-0.071928,0.036142,-0.049140,-0.039875,0.014419,-0.208857,-0.040878,-0.038571,0.243456,0.055995,0.004867,-0.179667,-0.002777,-0.000548,0.041281,0.002083,0.026476,-0.029067,0.020537
0.107514,0.059877,0.040863,-0.095861,-0.013693,-0.016516,0.028218,0.020017,-0.031058,-0.026603,0.014102,0.039840,0.026411,-0.059040,0.066529,-0.029950,-0.016668,-0.041952,0.051315,-0.022902,0.053875,-0.035031,-0.025813,0.020357,0.023952,-0.309749,-0.072933,0.036306,-0.049531,-0.040135,0.014443,-0.210668,-0.041587,-0.038397,0.245580,0.056919,0.004678,-0.181166,-0.003371,-0.000447,0.041281,0.002083,0.026476,-0.029067,0.020537
0.108725,0.060152,0.041682,-0.096810,-0.013112,-0.016393,0.028251,0.020100,-0.031157,-0.026543,0.014949,0.040034,0.026979,-0.059701,0.066932,-0.030906,-0.016890,-0.042594,0.052065,-0.023359,0.054557,-0.034873,-0.025353,0.019822,0.024277,-0.312354,-0.073914,0.036409,-0.049943,-0.040405,0.014458,-0.212544,-0.042287,-0.038262,0.247777,0.057834,0.004536,-0.182726,-0.003961,-0.000380,0.041281,0.002083,0.026476,-0.029067,0.020537
0.109693,0.060371,0.042358,-0.097578,-0.012634,-0.016274,0.028283,0.020184,-0.031254,-0.026484,0.015643,0.040194,0.027458,-0.060249,0.067268,-0.031695,-0.017073,-0.043142,0.052691,-0.023746,0.055120,-0.034742,-0.024962,0.019375,0.024550,-0.314244,-0.074721,0.036377,-0.050287,-0.040613,0.014454,-0.213992,-0.042895,-0.038225,0.249438,0.058589,0.004504,-0.183971,-0.004496,-0.000382,0.041281,0.002083,0.026476,-0.029067,0.020537
0.110349,0.060527,0.042793,-0.098093,-0.012326,-0.016226,0.028298,0.020216,-0.031293,-0.026462,0.016086,0.040299,0.027749,-0.060595,0.067475,-0.032187,-0.017193,-0.043465,0.053077,-0.023976,0.055473,-0.034658,-0.024729,0.019100,0.024715,-0.315915,-0.075381,0.036442,-0.050506,-0.040781,0.014466,-0.215104,-0.043321,-0.038130,0.250758,0.059170,0.004410,-0.184860,-0.004832,-0.000325,0.041281,0.002083,0.026476,-0.029067,0.020537
0.111463,0.060783,0.043551,-0.098973,-0.011788,-0.016120,0.028328,0.020288,-0.031381,-0.026410,0.016866,0.040479,0.028275,-0.061208,0.067849,-0.033060,-0.017398,-0.044056,0.053767,-0.024397,0.056100,-0.034513,-0.024304,0.018605,0.025016,-0.318391,-0.076344,0.036455,-0.050884,-0.041040,0.014470,-0.216867,-0.043998,-0.038050,0.252823,0.060058,0.004337,-0.186318,-0.005396,-0.000297,0.041281,0.002083,0.026476,-0.029067,0.020537
0.112929,0.061109,0.044574,-0.100134,-0.011059,-0.015926,0.028378,0.020423,-0.031537,-0.026313,0.017938,0.040722,0.029015,-0.062053,0.068372,-0.034280,-0.017677,-0.044900,0.054732,-0.024999,0.056974,-0.034310,-0.023698,0.017912,0.025442,-0.321009,-0.077516,0.036584,-0.051398,-0.041344,0.014490,-0.218958,-0.044925,-0.037867,0.255201,0.061178,0.004142,-0.188137,-0.006221,-0.000195,0.041281,0.002083,0.026476,-0.029067,0.020537
0.113965,0.061336,0.045338,-0.100977,-0.010524,-0.015794,0.028412,0.020521,-0.031648,-0.026244,0.018686,0.040890,0.029561,-0.062660,0.068753,-0.035132,-0.017870,-0.045524,0.055426,-0.025436,0.057586,-0.034170,-0.023249,0.017413,0.025753,-0.322812,-0.078070,0.036055,-0.051771,-0.041538,0.014414,-0.220397,-0.045353,-0.038187,0.256846,0.061728,0.004521,-0.189410,-0.006623,-0.000493,0.041281,0.002083,0.026476,-0.029067,0.020537
0.114050,0.061358,0.045403,-0.101050,-0.010481,-0.015791,0.028414,0.020524,-0.031651,-0.026242,0.018741,0.040904,0.029602,-0.062707,0.068780,-0.035192,-0.017885,-0.045570,0.055477,-0.025466,0.057630,-0.034159,-0.023216,0.017376,0.025775,-0.323079,-0.078173,0.035922,-0.051801,-0.041564,0.014398,-0.220564,-0.045413,-0.038260,0.257046,0.061816,0.004614,-0.189540,-0.006668,-0.000550,0.041281,0.002083,0.026476,-0.029067,0.020537
0.114452,0.061455,0.045662,-0.101364,-0.010293,-0.015766,0.028422,0.020540,-0.031672,-0.026230,0.019008,0.040968,0.029772,-0.062914,0.068904,-0.035485,-0.017959,-0.045758,0.055706,-0.025603,0.057841,-0.034108,-0.023080,0.017212,0.025874,-0.324134,-0.078589,0.036066,-0.051932,-0.041670,0.014418,-0.221247,-0.045672,-0.038138,0.257861,0.062175,0.004479,-0.190080,-0.006868,-0.000469,0.041281,0.002083,0.026476,-0.029067,0.020537
0.115357,0.061667,0.046266,-0.102076,-0.009858,-0.015690,0.028445,0.020590,-0.031734,-0.026193,0.019632,0.041114,0.030185,-0.063403,0.069202,-0.036180,-0.018125,-0.046218,0.056253,-0.025936,0.058342,-0.033991,-0.022747,0.016819,0.026113,-0.326220,-0.079384,0.036234,-0.052232,-0.041887,0.014443,-0.222687,-0.046210,-0.037972,0.259558,0.062898,0.004299,-0.191253,-0.007306,-0.000369,0.041281,0.002083,0.026476,-0.029067,0.020537
0.116556,0.061942,0.047082,-0.103025,-0.009268,-0.015570,0.028479,0.020672,-0.031833,-0.026133,0.020482,0.041311,0.030760,-0.064074,0.069617,-0.037130,-0.018349,-0.046862,0.057006,-0.026402,0.059029,-0.033830,-0.022280,0.016274,0.026448,-0.328753,-0.080409,0.036385,-0.052639,-0.042162,0.014466,-0.224536,-0.046953,-0.037798,0.261706,0.063850,0.004113,-0.192798,-0.007933,-0.000271,0.041281,0.002083,0.026476,-0.029067,0.020537
0.117850,0.062237,0.047958,-0.104045,-0.008634,-0.015433,0.028517,0.020764,-0.031944,-0.026065,0.021408,0.041524,0.031380,-0.064800,0.070066,-0.038167,-0.018591,-0.047558,0.057823,-0.026908,0.059778,-0.033656,-0.021775,0.015684,0.026812,-0.331363,-0.081474,0.036701,-0.053070,-0.042452,0.014513,-0.226465,-0.047738,-0.037498,0.263943,0.064849,0.003783,-0.194413,-0.008596,-0.000073,0.041281,0.002083,0.026476,-0.029067,0.020537
0.118795,0.062450,0.048637,-0.104808,-0.008149,-0.015313,0.028549,0.020851,-0.032044,-0.026003,0.022095,0.041681,0.031869,-0.065353,0.070413,-0.038944,-0.018771,-0.048113,0.058451,-0.027304,0.060340,-0.033525,-0.021374,0.015230,0.027096,-0.333050,-0.082162,0.036557,-0.053404,-0.042648,0.014494,-0.227797,-0.048278,-0.037536,0.265454,0.065510,0.003840,-0.195576,-0.009082,-0.000135,0.041281,0.002083,0.026476,-0.029067,0.020537
0.119468,0.062610,0.049092,-0.105345,-0.007823,-0.015264,0.028564,0.020884,-0.032085,-0.025979,0.022556,0.041791,0.032177,-0.065718,0.070635,-0.039452,-0.018895,-0.048453,0.058856,-0.027550,0.060709,-0.033437,-0.021126,0.014937,0.027273,-0.334702,-0.082848,0.036572,-0.053627,-0.042823,0.014500,-0.228911,-0.048728,-0.037467,0.266770,0.066115,0.003780,-0.196472,-0.009439,-0.000099,0.041281,0.002083,0.026476,-0.029067,0.020537
0.120630,0.062876,0.049894,-0.106273,-0.007246,-0.015150,0.028597,0.020963,-0.032180,-0.025921,0.023384,0.041982,0.032742,-0.066376,0.071042,-0.040373,-0.019112,-0.049084,0.059592,-0.028006,0.061379,-0.033281,-0.020666,0.014403,0.027603,-0.337112,-0.083804,0.036594,-0.054016,-0.043090,0.014507,-0.230670,-0.049424,-0.037369,0.268814,0.067012,0.003690,-0.197939,-0.010024,-0.000057,0.041281,0.002083,0.026476,-0.029067,0.020537
0.122122,0.063212,0.050961,-0.107475,-0.006477,-0.014946,0.028650,0.021109,-0.032348,-0.025815,0.024500,0.042239,0.033532,-0.067272,0.071607,-0.041631,-0.019402,-0.049977,0.060604,-0.028649,0.062298,-0.033066,-0.020014,0.013662,0.028068,-0.339641,-0.084964,0.036622,-0.054544,-0.043404,0.014513,-0.232760,-0.050373,-0.037242,0.271156,0.068135,0.003564,-0.199788,-0.010881,-0.000000,0.041281,0.002083,0.026476,-0.029067,0.020537
0.123178,0.063442,0.051750,-0.108343,-0.005913,-0.014805,0.028687,0.021215,-0.032467,-0.025738,0.025277,0.042412,0.034105,-0.067907,0.072015,-0.042511,-0.019600,-0.050629,0.061328,-0.029116,0.062937,-0.032919,-0.019540,0.013136,0.028404,-0.341260,-0.085420,0.036125,-0.054917,-0.043587,0.014441,-0.234097,-0.050748,-0.037529,0.272674,0.068610,0.003908,-0.200988,-0.011242,-0.000269,0.041281,0.002083,0.026476,-0.029067,0.020537
0.123271,0.063465,0.051819,-0.108422,-0.005866,-0.014801,0.028689,0.021218,-0.032471,-0.025736,0.025338,0.042427,0.034150,-0.067958,0.072045,-0.042576,-0.019617,-0.050678,0.061383,-0.029149,0.062985,-0.032907,-0.019504,0.013096,0.028428,-0.341534,-0.085529,0.036003,-0.054948,-0.043615,0.014426,-0.234269,-0.050813,-0.037594,0.272880,0.068703,0.003993,-0.201121,-0.011291,-0.000321,0.041281,0.002083,0.026476,-0.029067,0.020537
0.123714,0.063573,0.052104,-0.108769,-0.005655,-0.014774,0.028699,0.021235,-0.032494,-0.025723,0.025634,0.042499,0.034339,-0.068189,0.072186,-0.042902,-0.019699,-0.050885,0.061638,-0.029304,0.063221,-0.032851,-0.019353,0.012912,0.028540,-0.342632,-0.085969,0.036233,-0.055089,-0.043731,0.014459,-0.234988,-0.051090,-0.037412,0.273735,0.069087,0.003786,-0.201690,-0.011505,-0.000193,0.041281,0.002083,0.026476,-0.029067,0.020537
0.124670,0.063798,0.052749,-0.109530,-0.005183,-0.014693,0.028724,0.021290,-0.032561,-0.025682,0.026305,0.042657,0.034788,-0.068721,0.072515,-0.043642,-0.019877,-0.051381,0.062228,-0.029669,0.063761,-0.032723,-0.018990,0.012483,0.028806,-0.344733,-0.086829,0.036438,-0.055403,-0.043964,0.014491,-0.236470,-0.051688,-0.037208,0.275467,0.069871,0.003566,-0.202905,-0.011994,-0.000063,0.041281,0.002083,0.026476,-0.029067,0.020537
0.125865,0.064071,0.053584,-0.110492,-0.004574,-0.014570,0.028759,0.021376,-0.032664,-0.025618,0.027166,0.042856,0.035384,-0.069411,0.072949,-0.044599,-0.020103,-0.052045,0.062999,-0.030155,0.064463,-0.032558,-0.018502,0.011918,0.029160,-0.347093,-0.087771,0.036465,-0.055807,-0.044234,0.014498,-0.238237,-0.052395,-0.037111,0.277503,0.070765,0.003474,-0.204399,-0.012599,-0.000028,0.041281,0.002083,0.026476,-0.029067,0.020537
0.127177,0.064373,0.054488,-0.111541,-0.003911,-0.014428,0.028798,0.021473,-0.032781,-0.025545,0.028122,0.043079,0.036037,-0.070173,0.073428,-0.045661,-0.020354,-0.052772,0.063848,-0.030690,0.065242,-0.032375,-0.017967,0.011295,0.029550,-0.349637,-0.088866,0.036740,-0.056246,-0.044536,0.014541,-0.240167,-0.053226,-0.036828,0.279715,0.071799,0.003167,-0.206033,-0.013311,0.000156,0.041281,0.002083,0.026476,-0.029067,0.020537
0.128148,0.064593,0.055200,-0.112336,-0.003396,-0.014300,0.028833,0.021567,-0.032889,-0.025476,0.028843,0.043245,0.036559,-0.070760,0.073803,-0.046470,-0.020541,-0.053360,0.064510,-0.031116,0.065836,-0.032236,-0.017535,0.010809,0.029860,-0.351240,-0.089496,0.036563,-0.056588,-0.044731,0.014518,-0.241462,-0.053737,-0.036873,0.281174,0.072418,0.003238,-0.207178,-0.013775,0.000091,0.041281,0.002083,0.026476,-0.029067,0.020537
0.128865,0.064764,0.055693,-0.112915,-0.003038,-0.014248,0.028850,0.021603,-0.032934,-0.025450,0.029340,0.043363,0.036896,-0.071159,0.074050,-0.047014,-0.020675,-0.053731,0.064949,-0.031387,0.066235,-0.032140,-0.017263,0.010488,0.030058,-0.352911,-0.090181,0.036555,-0.056823,-0.044917,0.014521,-0.242608,-0.054196,-0.036817,0.282520,0.073033,0.003195,-0.208105,-0.014142,0.000114,0.041281,0.002083,0.026476,-0.029067,0.020537
0.130079,0.065044,0.056535,-0.113891,-0.002420,-0.014124,0.028886,0.021689,-0.033037,-0.025385,0.030223,0.043568,0.037502,-0.071865,0.074495,-0.047990,-0.020906,-0.054403,0.065734,-0.031882,0.066954,-0.031972,-0.016767,0.009911,0.030421,-0.355268,-0.091152,0.036726,-0.057224,-0.045195,0.014552,-0.244373,-0.054925,-0.036600,0.284554,0.073954,0.002970,-0.209588,-0.014758,0.000253,0.041281,0.002083,0.026476,-0.029067,0.020537
0.131590,0.065382,0.057649,-0.115130,-0.001608,-0.013907,0.028943,0.021849,-0.033219,-0.025267,0.031374,0.043833,0.038339,-0.072805,0.075102,-0.049279,-0.021203,-0.055344,0.066790,-0.032569,0.067910,-0.031747,-0.016069,0.009127,0.030925,-0.357554,-0.092142,0.036544,-0.057759,-0.045495,0.014530,-0.246338,-0.055787,-0.036601,0.286732,0.074953,0.003001,-0.211361,-0.015557,0.000212,0.041281,0.002083,0.026476,-0.029067,0.020537
0.132620,0.065612,0.058430,-0.115988,-0.001042,-0.013764,0.028982,0.021957,-0.033342,-0.025187,0.032152,0.044010,0.038922,-0.073449,0.075522,-0.050151,-0.021404,-0.056000,0.067516,-0.033046,0.068557,-0.031596,-0.015583,0.008588,0.031274,-0.359084,-0.092637,0.036087,-0.058128,-0.045682,0.014462,-0.247646,-0.056200,-0.036852,0.288194,0.075458,0.003306,-0.212552,-0.015953,-0.000027,0.041281,0.002083,0.026476,-0.029067,0.020537
0.132726,0.065638,0.058504,-0.116076,-0.000989,-0.013760,0.028984,0.021960,-0.033346,-0.025185,0.032222,0.044028,0.038970,-0.073506,0.075556,-0.050226,-0.021423,-0.056052,0.067578,-0.033083,0.068612,-0.031582,-0.015545,0.008543,0.031301,-0.359374,-0.092759,0.036041,-0.058163,-0.045714,0.014457,-0.247830,-0.056274,-0.036869,0.288414,0.075562,0.003332,-0.212695,-0.016008,-0.000042,0.041281,0.002083,0.026476,-0.029067,0.020537
0.133173,0.065749,0.058801,-0.116433,-0.000769,-0.013735,0.028993,0.021976,-0.033368,-0.025172,0.032524,0.044102,0.039168,-0.073747,0.075704,-0.050554,-0.021507,-0.056268,0.067841,-0.033244,0.068854,-0.031523,-0.015385,0.008350,0.031420,-0.360489,-0.093246,0.036182,-0.058307,-0.045839,0.014479,-0.248568,-0.056586,-0.036741,0.289285,0.075984,0.003192,-0.213283,-0.016252,0.000041,0.041281,0.002083,0.026476,-0.029067,0.020537
0.134149,0.065980,0.059468,-0.117218,-0.000273,-0.013651,0.029020,0.022033,-0.033438,-0.025129,0.033219,0.044267,0.039639,-0.074304,0.076055,-0.051317,-0.021693,-0.056785,0.068455,-0.033631,0.069416,-0.031388,-0.015002,0.007898,0.031704,-0.362537,-0.094108,0.036412,-0.058626,-0.046080,0.014516,-0.250041,-0.057202,-0.036512,0.290994,0.076779,0.002946,-0.214499,-0.016759,0.000189,0.041281,0.002083,0.026476,-0.029067,0.020537
0.135412,0.066271,0.060356,-0.118242,0.000386,-0.013517,0.029058,0.022127,-0.033551,-0.025057,0.034146,0.044483,0.040285,-0.075052,0.076534,-0.052339,-0.021935,-0.057499,0.069284,-0.034163,0.070176,-0.031209,-0.014470,0.007282,0.032097,-0.364870,-0.095027,0.036554,-0.059049,-0.046360,0.014542,-0.251830,-0.057914,-0.036322,0.293041,0.077669,0.002749,-0.216024,-0.017373,0.000299,0.041281,0.002083,0.026476,-0.029067,0.020537
0.136744,0.066579,0.061303,-0.119328,0.001088,-0.013370,0.029101,0.022232,-0.033676,-0.024977,0.035135,0.044716,0.040981,-0.075856,0.077049,-0.053429,-0.022195,-0.058268,0.070173,-0.034735,0.070989,-0.031016,-0.013894,0.006619,0.032522,-0.367288,-0.096043,0.036641,-0.059501,-0.046662,0.014559,-0.253723,-0.058713,-0.036159,0.295189,0.078652,0.002586,-0.217654,-0.018068,0.000386,0.041281,0.002083,0.026476,-0.029067,0.020537
0.137695,0.066796,0.062012,-0.120116,0.001607,-0.013238,0.029136,0.022330,-0.033788,-0.024904,0.035855,0.044883,0.041510,-0.076448,0.077435,-0.054232,-0.022383,-0.058861,0.070837,-0.035170,0.071588,-0.030874,-0.013454,0.006124,0.032842,-0.368772,-0.096661,0.036467,-0.059835,-0.046856,0.014538,-0.254948,-0.059229,-0.036187,0.296556,0.079263,0.002644,-0.218747,-0.018541,0.000342,0.041281,0.002083,0.026476,-0.029067,0.020537
0.138427,0.066973,0.062520,-0.120713,0.001982,-0.013186,0.029155,0.022367,-0.033834,-0.024876,0.036369,0.045007,0.041863,-0.076865,0.077696,-0.054790,-0.022522,-0.059246,0.071293,-0.035456,0.072003,-0.030774,-0.013167,0.005787,0.033054,-0.370411,-0.097357,0.036476,-0.060075,-0.047048,0.014544,-0.256090,-0.059706,-0.036114,0.297890,0.079892,0.002583,-0.219677,-0.018924,0.000376,0.041281,0.002083,0.026476,-0.029067,0.020537
0.139645,0.067259,0.063381,-0.121707,0.002620,-0.013061,0.029192,0.022455,-0.033941,-0.024809,0.037275,0.045222,0.042496,-0.077601,0.078167,-0.055781,-0.022761,-0.059940,0.072102,-0.035974,0.072747,-0.030595,-0.012645,0.005181,0.033441,-0.372752,-0.098396,0.036608,-0.060487,-0.047344,0.014570,-0.257892,-0.060502,-0.035917,0.299938,0.080876,0.002385,-0.221211,-0.019604,0.000497,0.041281,0.002083,0.026476,-0.029067,0.020537
0.141212,0.067614,0.064550,-0.123004,0.003488,-0.012825,0.029255,0.022630,-0.034140,-0.024677,0.038495,0.045504,0.043393,-0.078606,0.078829,-0.057136,-0.023077,-0.060941,0.073222,-0.036718,0.073769,-0.030353,-0.011891,0.004335,0.033996,-0.374920,-0.099331,0.036525,-0.061039,-0.047648,0.014568,-0.259820,-0.061360,-0.035816,0.302054,0.081849,0.002310,-0.222971,-0.020408,0.000548,0.041281,0.002083,0.026476,-0.029067,0.020537
0.142208,0.067836,0.065325,-0.123846,0.004056,-0.012681,0.029295,0.022743,-0.034266,-0.024592,0.039260,0.045681,0.043981,-0.079250,0.079258,-0.057989,-0.023274,-0.061598,0.073943,-0.037202,0.074412,-0.030200,-0.011396,0.003792,0.034356,-0.376262,-0.099724,0.035965,-0.061401,-0.047821,0.014482,-0.261014,-0.061706,-0.036140,0.303374,0.082266,0.002699,-0.224086,-0.020754,0.000250,0.041281,0.002083,0.026476,-0.029067,0.020537
0.142315,0.067864,0.065403,-0.123937,0.004111,-0.012678,0.029297,0.022745,-0.034269,-0.024591,0.039331,0.045699,0.044031,-0.079309,0.079294,-0.058064,-0.023295,-0.061653,0.074007,-0.037241,0.074468,-0.030186,-0.011356,0.003745,0.034385,-0.376565,-0.099862,0.035887,-0.061437,-0.047856,0.014472,-0.261207,-0.061790,-0.036176,0.303602,0.082382,0.002748,-0.224235,-0.020817,0.000220,0.041281,0.002083,0.026476,-0.029067,0.020537
0.142792,0.067982,0.065725,-0.124324,0.004354,-0.012651,0.029307,0.022763,-0.034293,-0.024576,0.039656,0.045779,0.044249,-0.079571,0.079459,-0.058415,-0.023385,-0.061889,0.074292,-0.037419,0.074729,-0.030122,-0.011180,0.003534,0.034517,-0.377680,-0.100336,0.036004,-0.061589,-0.047986,0.014491,-0.261953,-0.062099,-0.036061,0.304483,0.082801,0.002626,-0.224832,-0.021058,0.000292,0.041281,0.002083,0.026476,-0.029067,0.020537
0.143792,0.068223,0.066421,-0.125140,0.004878,-0.012566,0.029335,0.022822,-0.034367,-0.024530,0.040380,0.045954,0.044748,-0.080160,0.079836,-0.059203,-0.023580,-0.062433,0.074936,-0.037832,0.075320,-0.029978,-0.010770,0.003052,0.034825,-0.379717,-0.101210,0.036221,-0.061921,-0.048238,0.014528,-0.263451,-0.062737,-0.035836,0.306206,0.083614,0.002385,-0.226082,-0.021588,0.000434,0.041281,0.002083,0.026476,-0.029067,0.020537
0.145029,0.068513,0.067304,-0.126155,0.005541,-0.012432,0.029375,0.022918,-0.034481,-0.024456,0.041308,0.046175,0.045404,-0.080918,0.080328,-0.060217,-0.023825,-0.063151,0.075768,-0.038374,0.076086,-0.029794,-0.010226,0.002423,0.035233,-0.381953,-0.102177,0.036371,-0.062342,-0.048527,0.014556,-0.265210,-0.063500,-0.035629,0.308193,0.084546,0.002172,-0.227598,-0.022251,0.000559,0.041281,0.002083,0.026476,-0.029067,0.020537
0.146385,0.068826,0.068284,-0.127271,0.006277,-0.012274,0.029421,0.023031,-0.034616,-0.024368,0.042331,0.046416,0.046136,-0.081758,0.080877,-0.061339,-0.024093,-0.063956,0.076693,-0.038981,0.076934,-0.029591,-0.009617,0.001724,0.035689,-0.384210,-0.103080,0.036452,-0.062799,-0.048823,0.014576,-0.267026,-0.064244,-0.035455,0.310240,0.085449,0.002003,-0.229180,-0.022907,0.000659,0.041281,0.002083,0.026476,-0.029067,0.020537
0.147346,0.069052,0.069007,-0.128076,0.006817,-0.012140,0.029459,0.023133,-0.034732,-0.024291,0.043075,0.046593,0.046686,-0.082376,0.081287,-0.062158,-0.024290,-0.064566,0.077377,-0.039438,0.077558,-0.029440,-0.009153,0.001204,0.036032,-0.385678,-0.103732,0.036353,-0.063143,-0.049027,0.014567,-0.268261,-0.064796,-0.035419,0.311604,0.086093,0.001991,-0.230292,-0.023413,0.000667,0.041281,0.002083,0.026476,-0.029067,0.020537
0.148114,0.069240,0.069546,-0.128708,0.007220,-0.012085,0.029479,0.023172,-0.034781,-0.024260,0.043622,0.046727,0.047066,-0.082824,0.081573,-0.062749,-0.024439,-0.064978,0.077865,-0.039749,0.078002,-0.029331,-0.008844,0.000839,0.036265,-0.387333,-0.104451,0.036394,-0.063395,-0.049232,0.014580,-0.269437,-0.065301,-0.035313,0.312967,0.086749,0.001895,-0.231255,-0.023821,0.000728,0.041281,0.002083,0.026476,-0.029067,0.020537
0.149339,0.069528,0.070439,-0.129726,0.007889,-0.011953,0.029518,0.023267,-0.034895,-0.024186,0.044546,0.046947,0.047732,-0.083588,0.082072,-0.063755,-0.024683,-0.065705,0.078700,-0.040296,0.078767,-0.029146,-0.008290,0.000204,0.036679,-0.389507,-0.105373,0.036323,-0.063813,-0.049520,0.014576,-0.271155,-0.066035,-0.035248,0.314908,0.087647,0.001855,-0.232740,-0.024459,0.000745,0.041281,0.002083,0.026476,-0.029067,0.020537
0.150874,0.069884,0.071602,-0.131012,0.008764,-0.011713,0.029584,0.023448,-0.035101,-0.024047,0.045776,0.047238,0.048649,-0.084612,0.082759,-0.065106,-0.025005,-0.066717,0.079829,-0.041060,0.079810,-0.028893,-0.007511,-0.000667,0.037261,-0.391572,-0.106353,0.036294,-0.064366,-0.049833,0.014586,-0.273050,-0.066944,-0.035087,0.316956,0.088658,0.001720,-0.234495,-0.025314,0.000852,0.041281,0.002083,0.026476,-0.029067,0.020537
0.151858,0.070106,0.072382,-0.131853,0.009344,-0.011564,0.029627,0.023567,-0.035233,-0.023957,0.046546,0.047418,0.049251,-0.085268,0.083205,-0.065958,-0.025205,-0.067386,0.080558,-0.041559,0.080463,-0.028735,-0.006999,-0.001227,0.037640,-0.392781,-0.106674,0.035706,-0.064728,-0.049999,0.014492,-0.274174,-0.067252,-0.035429,0.318183,0.089020,0.002130,-0.235567,-0.025633,0.000542,0.041281,0.002083,0.026476,-0.029067,0.020537
0.151971,0.070135,0.072468,-0.131952,0.009404,-0.011562,0.029629,0.023569,-0.035236,-0.023955,0.046621,0.047438,0.049306,-0.085332,0.083244,-0.066037,-0.025226,-0.067445,0.080627,-0.041602,0.080523,-0.028720,-0.006955,-0.001278,0.037672,-0.393093,-0.106815,0.035586,-0.064766,-0.050036,0.014476,-0.274373,-0.067339,-0.035490,0.318419,0.089140,0.002212,-0.235722,-0.025698,0.000492,0.041281,0.002083,0.026476,-0.029067,0.020537
0.152463,0.070261,0.072799,-0.132353,0.009660,-0.011537,0.029640,0.023585,-0.035258,-0.023942,0.046961,0.047524,0.049533,-0.085608,0.083420,-0.066401,-0.025323,-0.067688,0.080924,-0.041791,0.080798,-0.028651,-0.006771,-0.001501,0.037814,-0.394244,-0.107350,0.035819,-0.064926,-0.050179,0.014514,-0.275155,-0.067695,-0.035293,0.319335,0.089611,0.001992,-0.236350,-0.025977,0.000627,0.041281,0.002083,0.026476,-0.029067,0.020537
0.153460,0.070503,0.073508,-0.133178,0.010199,-0.011450,0.029669,0.023647,-0.035335,-0.023892,0.047694,0.047703,0.050050,-0.086213,0.083814,-0.067193,-0.025521,-0.068248,0.081581,-0.042219,0.081400,-0.028502,-0.006344,-0.002000,0.038138,-0.396181,-0.108179,0.035945,-0.065260,-0.050432,0.014539,-0.276609,-0.068316,-0.035123,0.320997,0.090395,0.001820,-0.237576,-0.026499,0.000726,0.041281,0.002083,0.026476,-0.029067,0.020537
0.154722,0.070802,0.074428,-0.134228,0.010899,-0.011310,0.029712,0.023749,-0.035456,-0.023812,0.048656,0.047935,0.050743,-0.087009,0.084341,-0.068237,-0.025777,-0.069003,0.082450,-0.042796,0.082201,-0.028307,-0.005764,-0.002666,0.038578,-0.398346,-0.109098,0.036020,-0.065694,-0.050725,0.014558,-0.278352,-0.069064,-0.034955,0.322951,0.091298,0.001658,-0.239096,-0.027155,0.000821,0.041281,0.002083,0.026476,-0.029067,0.020537
0.156118,0.071133,0.075443,-0.135386,0.011673,-0.011142,0.029762,0.023870,-0.035601,-0.023716,0.049738,0.048195,0.051521,-0.087904,0.084935,-0.069411,-0.026063,-0.069850,0.083425,-0.043446,0.083105,-0.028086,-0.005110,-0.003416,0.039075,-0.400615,-0.110084,0.036287,-0.066171,-0.051045,0.014612,-0.280229,-0.069894,-0.034622,0.325041,0.092284,0.001314,-0.240746,-0.027891,0.001054,0.041281,0.002083,0.026476,-0.029067,0.020537
0.157000,0.071344,0.076129,-0.136139,0.012190,-0.011014,0.029799,0.023970,-0.035713,-0.023639,0.050430,0.048364,0.052051,-0.088490,0.085332,-0.070168,-0.026249,-0.070432,0.084070,-0.043887,0.083693,-0.027940,-0.004660,-0.003916,0.039413,-0.401888,-0.110646,0.036019,-0.066497,-0.051232,0.014575,-0.281329,-0.070385,-0.034709,0.326243,0.092846,0.001445,-0.241758,-0.028350,0.000965,0.041281,0.002083,0.026476,-0.029067,0.020537
0.157757,0.071534,0.076671,-0.136773,0.012600,-0.010963,0.029819,0.024007,-0.035760,-0.023609,0.050979,0.048502,0.052439,-0.088947,0.085628,-0.070755,-0.026402,-0.070849,0.084562,-0.044204,0.084143,-0.027827,-0.004341,-0.004291,0.039655,-0.403533,-0.111416,0.036017,-0.066753,-0.051449,0.014582,-0.282518,-0.070933,-0.034629,0.327610,0.093547,0.001382,-0.242740,-0.028797,0.001005,0.041281,0.002083,0.026476,-0.029067,0.020537
0.159022,0.071836,0.077601,-0.137832,0.013309,-0.010823,0.029862,0.024109,-0.035883,-0.023528,0.051953,0.048737,0.053146,-0.089758,0.086167,-0.071806,-0.026661,-0.071615,0.085442,-0.044792,0.084956,-0.027627,-0.003748,-0.004971,0.040106,-0.405664,-0.112338,0.036043,-0.067188,-0.051748,0.014597,-0.284248,-0.071694,-0.034475,0.329546,0.094461,0.001247,-0.244251,-0.029463,0.001098,0.041281,0.002083,0.026476,-0.029067,0.020537
0.160531,0.072193,0.078776,-0.139117,0.014202,-0.010576,0.029932,0.024300,-0.036098,-0.023380,0.053186,0.049036,0.054091,-0.090803,0.086883,-0.073150,-0.026987,-0.072649,0.086584,-0.045581,0.086016,-0.027364,-0.002935,-0.005872,0.040721,-0.407580,-0.113203,0.035841,-0.067749,-0.052056,0.014579,-0.286073,-0.072539,-0.034431,0.331491,0.095382,0.001251,-0.245979,-0.030279,0.001112,0.041281,0.002083,0.026476,-0.029067,0.020537
0.161486,0.072410,0.079545,-0.139941,0.014781,-0.010423,0.029976,0.024423,-0.036234,-0.023285,0.053948,0.049216,0.054695,-0.091457,0.087336,-0.073988,-0.027186,-0.073317,0.087307,-0.046086,0.086668,-0.027205,-0.002417,-0.006435,0.041110,-0.408633,-0.113486,0.035251,-0.068103,-0.052212,0.014485,-0.287095,-0.072825,-0.034759,0.332595,0.095708,0.001651,-0.246973,-0.030580,0.000821,0.041281,0.002083,0.026476,-0.029067,0.020537
0.161606,0.072442,0.079631,-0.140044,0.014846,-0.010422,0.029978,0.024424,-0.036236,-0.023283,0.054028,0.049237,0.054751,-0.091525,0.087379,-0.074071,-0.027210,-0.073376,0.087379,-0.046131,0.086732,-0.027188,-0.002372,-0.006489,0.041144,-0.408961,-0.113646,0.035208,-0.068143,-0.052253,0.014480,-0.287307,-0.072926,-0.034771,0.332845,0.095845,0.001673,-0.247138,-0.030656,0.000809,0.041281,0.002083,0.026476,-0.029067,0.020537
0.162099,0.072571,0.079970,-0.140453,0.015110,-0.010400,0.029990,0.024439,-0.036258,-0.023270,0.054373,0.049327,0.054985,-0.091809,0.087562,-0.074436,-0.027309,-0.073625,0.087682,-0.046327,0.087011,-0.027116,-0.002181,-0.006719,0.041293,-0.410104,-0.114192,0.035410,-0.068306,-0.052402,0.014515,-0.288091,-0.073294,-0.034589,0.333759,0.096327,0.001474,-0.247770,-0.030945,0.000931,0.041281,0.002083,0.026476,-0.029067,0.020537
0.163135,0.072827,0.080713,-0.141317,0.015683,-0.010308,0.030022,0.024504,-0.036339,-0.023217,0.055149,0.049520,0.055537,-0.092454,0.087989,-0.075269,-0.027522,-0.074217,0.088378,-0.046788,0.087654,-0.026954,-0.001722,-0.007256,0.041647,-0.412054,-0.115052,0.035625,-0.068657,-0.052671,0.014557,-0.289588,-0.073955,-0.034341,0.335456,0.097149,0.001217,-0.249042,-0.031504,0.001095,0.041281,0.002083,0.026476,-0.029067,0.020537
0.164359,0.073124,0.081623,-0.142350,0.016384,-0.010171,0.030065,0.024606,-0.036461,-0.023135,0.056100,0.049755,0.056235,-0.093253,0.088528,-0.076291,-0.027778,-0.074971,0.089241,-0.047372,0.088454,-0.026754,-0.001132,-0.007930,0.042101,-0.414104,-0.115969,0.035650,-0.069091,-0.052966,0.014570,-0.291280,-0.074717,-0.034200,0.337335,0.098054,0.001090,-0.250537,-0.032178,0.001170,0.041281,0.002083,0.026476,-0.029067,0.020537
0.165705,0.073449,0.082625,-0.143483,0.017156,-0.010004,0.030116,0.024730,-0.036607,-0.023036,0.057165,0.050016,0.057019,-0.094147,0.089131,-0.077437,-0.028064,-0.075817,0.090207,-0.048027,0.089354,-0.026529,-0.000467,-0.008689,0.042612,-0.416231,-0.116945,0.035778,-0.069567,-0.053288,0.014603,-0.293096,-0.075555,-0.033957,0.339330,0.099031,0.000855,-0.252162,-0.032933,0.001333,0.041281,0.002083,0.026476,-0.029067,0.020537
0.166605,0.073667,0.083337,-0.144260,0.017699,-0.009870,0.030157,0.024836,-0.036726,-0.022952,0.057880,0.050192,0.057575,-0.094759,0.089554,-0.078214,-0.028257,-0.076425,0.090876,-0.048493,0.089967,-0.026375,0.000010,-0.009215,0.042975,-0.417447,-0.117419,0.035464,-0.069899,-0.053472,0.014561,-0.294158,-0.075992,-0.034063,0.340488,0.099528,0.001015,-0.253147,-0.033347,0.001235,0.041281,0.002083,0.026476,-0.029067,0.020537
0.167377,0.073864,0.083898,-0.144914,0.018130,-0.009818,0.030178,0.024874,-0.036775,-0.022921,0.058447,0.050337,0.057982,-0.095236,0.089869,-0.078816,-0.028416,-0.076860,0.091387,-0.048830,0.090435,-0.026255,0.000347,-0.009610,0.043235,-0.419055,-0.118168,0.035445,-0.070164,-0.053694,0.014565,-0.295341,-0.076537,-0.033991,0.341842,0.100218,0.000963,-0.254133,-0.033794,0.001267,0.041281,0.002083,0.026476,-0.029067,0.020537
0.168613,0.074167,0.084817,-0.145959,0.018840,-0.009678,0.030223,0.024978,-0.036899,-0.022837,0.059422,0.050579,0.058698,-0.096056,0.090423,-0.079858,-0.028680,-0.077628,0.092268,-0.049427,0.091257,-0.026048,0.000953,-0.010304,0.043703,-0.421110,-0.119139,0.035548,-0.070600,-0.054003,0.014596,-0.297052,-0.077346,-0.033767,0.343735,0.101173,0.000752,-0.255642,-0.034505,0.001421,0.041281,0.002083,0.026476,-0.029067,0.020537
0.170113,0.074524,0.086012,-0.147252,0.019759,-0.009420,0.030297,0.025181,-0.037127,-0.022677,0.060666,0.050884,0.059672,-0.097123,0.091169,-0.081207,-0.029011,-0.078689,0.093429,-0.050246,0.092338,-0.025776,0.001800,-0.011234,0.044351,-0.422815,-0.119836,0.035195,-0.071166,-0.054294,0.014554,-0.298750,-0.078092,-0.033820,0.345524,0.101965,0.000874,-0.257290,-0.035252,0.001366,0.041281,0.002083,0.026476,-0.029067,0.020537
0.171024,0.074738,0.086757,-0.148048,0.020328,-0.009269,0.030343,0.025304,-0.037263,-0.022580,0.061412,0.051066,0.060272,-0.097771,0.091627,-0.082018,-0.029210,-0.079344,0.094137,-0.050750,0.092986,-0.025613,0.002321,-0.011799,0.044749,-0.423810,-0.120155,0.034638,-0.071517,-0.054454,0.014464,-0.299747,-0.078410,-0.034119,0.346583,0.102316,0.001244,-0.258275,-0.035580,0.001102,0.041281,0.002083,0.026476,-0.029067,0.020537
0.171145,0.074772,0.086845,-0.148153,0.020395,-0.009269,0.030345,0.025304,-0.037264,-0.022579,0.061494,0.051088,0.060329,-0.097841,0.091671,-0.082101,-0.029235,-0.079404,0.094209,-0.050797,0.093051,-0.025595,0.002367,-0.011855,0.044785,-0.424145,-0.120325,0.034618,-0.071560,-0.054498,0.014463,-0.299964,-0.078517,-0.034114,0.346839,0.102461,0.001247,-0.258444,-0.035661,0.001102,0.041281,0.002083,0.026476,-0.029067,0.020537
0.171643,0.074907,0.087195,-0.148574,0.020671,-0.009250,0.030357,0.025317,-0.037284,-0.022567,0.061845,0.051183,0.060574,-0.098136,0.091865,-0.082470,-0.029339,-0.079661,0.094522,-0.051001,0.093339,-0.025518,0.002569,-0.012097,0.044943,-0.425317,-0.120903,0.034759,-0.071731,-0.054658,0.014489,-0.300779,-0.078912,-0.033973,0.347784,0.102974,0.001097,-0.259107,-0.035973,0.001190,0.041281,0.002083,0.026476,-0.029067,0.020537
0.172639,0.075161,0.087920,-0.149415,0.021238,-0.009164,0.030389,0.025380,-0.037363,-0.022514,0.062607,0.051379,0.061123,-0.098777,0.092295,-0.083278,-0.029552,-0.080244,0.095205,-0.051461,0.093975,-0.025353,0.003029,-0.012634,0.045304,-0.427196,-0.121805,0.034980,-0.072081,-0.054935,0.014534,-0.302255,-0.079615,-0.033714,0.349438,0.103831,0.000829,-0.260375,-0.036573,0.001362,0.041281,0.002083,0.026476,-0.029067,0.020537
0.173874,0.075464,0.088847,-0.150465,0.021963,-0.009021,0.030435,0.025487,-0.037490,-0.022427,0.063581,0.051622,0.061846,-0.099602,0.092861,-0.084319,-0.029817,-0.081020,0.096092,-0.052072,0.094801,-0.025143,0.003645,-0.013336,0.045785,-0.429159,-0.122667,0.035062,-0.072522,-0.055232,0.014560,-0.303909,-0.080352,-0.033516,0.351264,0.104697,0.000643,-0.261850,-0.037230,0.001488,0.041281,0.002083,0.026476,-0.029067,0.020537
0.175230,0.075796,0.089882,-0.151624,0.022770,-0.008846,0.030491,0.025619,-0.037646,-0.022319,0.064671,0.051895,0.062667,-0.100530,0.093501,-0.085485,-0.030113,-0.081901,0.097089,-0.052763,0.095733,-0.024905,0.004349,-0.014134,0.046334,-0.431172,-0.123549,0.035060,-0.073014,-0.055551,0.014573,-0.305680,-0.081144,-0.033358,0.353193,0.105608,0.000510,-0.263465,-0.037955,0.001584,0.041281,0.002083,0.026476,-0.029067,0.020537
0.176069,0.076007,0.090553,-0.152355,0.023288,-0.008719,0.030531,0.025722,-0.037761,-0.022237,0.065352,0.052068,0.063202,-0.101119,0.093914,-0.086217,-0.030301,-0.082481,0.097725,-0.053213,0.096323,-0.024752,0.004814,-0.014645,0.046692,-0.432311,-0.124056,0.034800,-0.073334,-0.055738,0.014541,-0.306691,-0.081609,-0.033417,0.354281,0.106128,0.000620,-0.264409,-0.038395,0.001532,0.041281,0.002083,0.026476,-0.029067,0.020537
0.176838,0.076209,0.091118,-0.153013,0.023729,-0.008670,0.030553,0.025758,-0.037808,-0.022206,0.065928,0.052220,0.063619,-0.101608,0.094241,-0.086821,-0.030466,-0.082921,0.098243,-0.053560,0.096801,-0.024626,0.005162,-0.015052,0.046964,-0.433914,-0.124845,0.034815,-0.073607,-0.055971,0.014551,-0.307890,-0.082193,-0.033314,0.355644,0.106858,0.000535,-0.265417,-0.038877,0.001590,0.041281,0.002083,0.026476,-0.029067,0.020537
0.178047,0.076513,0.092038,-0.154051,0.024447,-0.008530,0.030599,0.025864,-0.037934,-0.022119,0.066900,0.052468,0.064349,-0.102438,0.094813,-0.087852,-0.030734,-0.083698,0.099129,-0.054171,0.097632,-0.024411,0.005787,-0.015764,0.047453,-0.435896,-0.125783,0.034802,-0.074051,-0.056285,0.014563,-0.309585,-0.082993,-0.033171,0.357498,0.107790,0.000420,-0.266939,-0.039591,0.001676,0.041281,0.002083,0.026476,-0.029067,0.020537
0.179566,0.076881,0.093259,-0.155369,0.025399,-0.008257,0.030680,0.026081,-0.038177,-0.021945,0.068187,0.052788,0.065365,-0.103549,0.095603,-0.089235,-0.031079,-0.084796,0.100326,-0.055031,0.098762,-0.024122,0.006679,-0.016743,0.048147,-0.437514,-0.126474,0.034545,-0.074630,-0.056583,0.014545,-0.311248,-0.083759,-0.033119,0.359232,0.108586,0.000436,-0.268571,-0.040360,0.001726,0.041281,0.002083,0.026476,-0.029067,0.020537
0.180405,0.077081,0.093965,-0.156113,0.025944,-0.008110,0.030725,0.026204,-0.038311,-0.021847,0.068881,0.052961,0.065939,-0.104161,0.096045,-0.089988,-0.031268,-0.085421,0.100993,-0.055517,0.099372,-0.023964,0.007183,-0.017283,0.048536,-0.438325,-0.126691,0.033872,-0.074965,-0.056721,0.014430,-0.312108,-0.083996,-0.033514,0.360133,0.108841,0.000913,-0.269450,-0.040622,0.001382,0.041281,0.002083,0.026476,-0.029067,0.020537
0.180527,0.077117,0.094057,-0.156222,0.026014,-0.008113,0.030727,0.026203,-0.038311,-0.021847,0.068962,0.052984,0.065999,-0.104233,0.096091,-0.090069,-0.031293,-0.085483,0.101068,-0.055565,0.099438,-0.023945,0.007232,-0.017341,0.048573,-0.438678,-0.126876,0.033786,-0.075010,-0.056769,0.014417,-0.312337,-0.084115,-0.033551,0.360402,0.108999,0.000967,-0.269629,-0.040712,0.001349,0.041281,0.002083,0.026476,-0.029067,0.020537
0.181016,0.077253,0.094403,-0.156639,0.026292,-0.008098,0.030739,0.026213,-0.038328,-0.021837,0.069311,0.053081,0.066244,-0.104529,0.096288,-0.090431,-0.031399,-0.085738,0.101378,-0.055771,0.099725,-0.023866,0.007435,-0.017585,0.048736,-0.439822,-0.127458,0.033969,-0.075182,-0.056933,0.014451,-0.313143,-0.084518,-0.033380,0.361332,0.109518,0.000782,-0.270288,-0.041032,0.001460,0.041281,0.002083,0.026476,-0.029067,0.020537
0.182022,0.077514,0.095151,-0.157501,0.026884,-0.008009,0.030774,0.026278,-0.038410,-0.021781,0.070092,0.053286,0.066818,-0.105194,0.096744,-0.091254,-0.031621,-0.086344,0.102084,-0.056255,0.100383,-0.023692,0.007921,-0.018148,0.049121,-0.441654,-0.128325,0.034124,-0.075546,-0.057216,0.014487,-0.314609,-0.085209,-0.033162,0.362967,0.110354,0.000564,-0.271564,-0.041626,0.001599,0.041281,0.002083,0.026476,-0.029067,0.020537
0.183201,0.077814,0.096048,-0.158515,0.027595,-0.007873,0.030820,0.026382,-0.038534,-0.021694,0.071042,0.053532,0.067533,-0.106009,0.097311,-0.092259,-0.031885,-0.087103,0.102949,-0.056861,0.101199,-0.023477,0.008537,-0.018850,0.049608,-0.443563,-0.129231,0.034214,-0.075986,-0.057523,0.014515,-0.316253,-0.085989,-0.032954,0.364759,0.111257,0.000369,-0.273048,-0.042326,0.001735,0.041281,0.002083,0.026476,-0.029067,0.020537
0.184530,0.078144,0.097077,-0.159660,0.028406,-0.007693,0.030878,0.026519,-0.038695,-0.021580,0.072128,0.053808,0.068362,-0.106941,0.097966,-0.093414,-0.032183,-0.087988,0.103945,-0.057564,0.102136,-0.023234,0.009255,-0.019658,0.050175,-0.445416,-0.130049,0.034214,-0.076476,-0.057835,0.014533,-0.317932,-0.086749,-0.032777,0.366571,0.112117,0.000221,-0.274598,-0.043030,0.001856,0.041281,0.002083,0.026476,-0.029067,0.020537
0.185357,0.078359,0.097744,-0.160387,0.028930,-0.007567,0.030920,0.026623,-0.038811,-0.021496,0.072810,0.053986,0.068903,-0.107536,0.098390,-0.094139,-0.032376,-0.088568,0.104582,-0.058022,0.102733,-0.023075,0.009729,-0.020180,0.050547,-0.446532,-0.130559,0.034004,-0.076801,-0.058027,0.014510,-0.318931,-0.087221,-0.032796,0.367642,0.112639,0.000288,-0.275540,-0.043477,0.001837,0.041281,0.002083,0.026476,-0.029067,0.020537
0.186108,0.078562,0.098305,-0.161039,0.029373,-0.007522,0.030943,0.026657,-0.038856,-0.021466,0.073382,0.054142,0.069325,-0.108029,0.098725,-0.094734,-0.032543,-0.089008,0.105099,-0.058374,0.103213,-0.022944,0.010084,-0.020594,0.050828,-0.448102,-0.131364,0.033995,-0.077077,-0.058268,0.014518,-0.320127,-0.087824,-0.032702,0.368990,0.113385,0.000217,-0.276553,-0.043977,0.001890,0.041281,0.002083,0.026476,-0.029067,0.020537
0.187304,0.078866,0.099236,-0.162078,0.030107,-0.007377,0.030992,0.026769,-0.038988,-0.021373,0.074354,0.054393,0.070071,-0.108870,0.099314,-0.095761,-0.032813,-0.089800,0.105992,-0.059002,0.104051,-0.022723,0.010728,-0.021322,0.051337,-0.449931,-0.132202,0.033837,-0.077525,-0.058574,0.014505,-0.321735,-0.088567,-0.032658,0.370736,0.114241,0.000219,-0.278022,-0.044652,0.001900,0.041281,0.002083,0.026476,-0.029067,0.020537
0.188739,0.079227,0.100410,-0.163339,0.031034,-0.007109,0.031074,0.026985,-0.039229,-0.021197,0.075601,0.054715,0.071071,-0.109958,0.100102,-0.097087,-0.033157,-0.090870,0.107154,-0.059851,0.105162,-0.022429,0.011620,-0.022295,0.052040,-0.451467,-0.132942,0.033575,-0.078100,-0.058879,0.014488,-0.323353,-0.089378,-0.032601,0.372398,0.115071,0.000235,-0.279635,-0.045468,0.001963,0.041281,0.002083,0.026476,-0.029067,0.020537
0.189567,0.079426,0.101116,-0.164079,0.031586,-0.006958,0.031123,0.027113,-0.039369,-0.021093,0.076296,0.054890,0.071652,-0.110576,0.100557,-0.097836,-0.033347,-0.091501,0.107823,-0.060349,0.105780,-0.022266,0.012136,-0.022847,0.052445,-0.452181,-0.133093,0.032884,-0.078436,-0.059007,0.014368,-0.324149,-0.089569,-0.033004,0.373224,0.115269,0.000723,-0.280469,-0.045689,0.001617,0.041281,0.002083,0.026476,-0.029067,0.020537
0.189685,0.079463,0.101206,-0.164186,0.031656,-0.006963,0.031124,0.027111,-0.039367,-0.021094,0.076375,0.054914,0.071711,-0.110647,0.100603,-0.097914,-0.033374,-0.091560,0.107895,-0.060395,0.105845,-0.022247,0.012184,-0.022904,0.052482,-0.452539,-0.133289,0.032824,-0.078482,-0.059059,0.014359,-0.324383,-0.089696,-0.033024,0.373499,0.115437,0.000757,-0.280653,-0.045785,0.001597,0.041281,0.002083,0.026476,-0.029067,0.020537
0.190188,0.079609,0.101562,-0.164618,0.031948,-0.006951,0.031137,0.027118,-0.039382,-0.021085,0.076740,0.055019,0.071967,-0.110958,0.100814,-0.098288,-0.033488,-0.091822,0.108218,-0.060614,0.106147,-0.022161,0.012397,-0.023163,0.052657,-0.453720,-0.133908,0.033103,-0.078665,-0.059236,0.014413,-0.325227,-0.090132,-0.032778,0.374467,0.115992,0.000487,-0.281345,-0.046134,0.001766,0.041281,0.002083,0.026476,-0.029067,0.020537
0.191154,0.079867,0.102292,-0.165456,0.032533,-0.006867,0.031172,0.027180,-0.039461,-0.021030,0.077503,0.055226,0.072538,-0.111618,0.101273,-0.099085,-0.033709,-0.092419,0.108911,-0.061097,0.106798,-0.021983,0.012886,-0.023727,0.053049,-0.455483,-0.134795,0.033212,-0.079029,-0.059525,0.014443,-0.326668,-0.090851,-0.032583,0.376059,0.116848,0.000301,-0.282613,-0.046755,0.001891,0.041281,0.002083,0.026476,-0.029067,0.020537
0.192309,0.080165,0.103191,-0.166462,0.033251,-0.006728,0.031221,0.027289,-0.039589,-0.020939,0.078444,0.055473,0.073261,-0.112434,0.101851,-0.100076,-0.033974,-0.093184,0.109775,-0.061712,0.107613,-0.021765,0.013514,-0.024437,0.053551,-0.457251,-0.135604,0.033173,-0.079469,-0.059823,0.014449,-0.328226,-0.091568,-0.032465,0.377747,0.117671,0.000212,-0.284041,-0.047409,0.001957,0.041281,0.002083,0.026476,-0.029067,0.020537
0.193644,0.080507,0.104233,-0.167622,0.034085,-0.006541,0.031283,0.027432,-0.039758,-0.020817,0.079565,0.055767,0.074123,-0.113404,0.102542,-0.101255,-0.034287,-0.094095,0.110800,-0.062446,0.108592,-0.021504,0.014269,-0.025287,0.054156,-0.459112,-0.136478,0.033303,-0.079978,-0.060156,0.014497,-0.329949,-0.092391,-0.032166,0.379587,0.118589,-0.000064,-0.285647,-0.048174,0.002189,0.041281,0.002083,0.026476,-0.029067,0.020537
0.194373,0.080704,0.104841,-0.168277,0.034567,-0.006429,0.031323,0.027528,-0.039863,-0.020739,0.080170,0.055932,0.074619,-0.113942,0.102934,-0.101894,-0.034465,-0.094624,0.111373,-0.062868,0.109130,-0.021354,0.014710,-0.025767,0.054505,-0.460097,-0.136949,0.032909,-0.080283,-0.060335,0.014437,-0.330839,-0.092824,-0.032333,0.380532,0.119065,0.000169,-0.286501,-0.048587,0.002048,0.041281,0.002083,0.026476,-0.029067,0.020537
0.195105,0.080910,0.105396,-0.168920,0.035011,-0.006390,0.031346,0.027558,-0.039905,-0.020711,0.080737,0.056091,0.075042,-0.114437,0.103275,-0.102477,-0.034635,-0.095061,0.111886,-0.063222,0.109609,-0.021218,0.015070,-0.026186,0.054794,-0.461650,-0.137771,0.032895,-0.080565,-0.060585,0.014444,-0.332043,-0.093449,-0.032244,0.381880,0.119828,0.000103,-0.287532,-0.049110,0.002094,0.041281,0.002083,0.026476,-0.029067,0.020537
0.196314,0.081223,0.106343,-0.169976,0.035769,-0.006238,0.031399,0.027676,-0.040044,-0.020611,0.081741,0.056357,0.075818,-0.115310,0.103897,-0.103529,-0.034918,-0.095877,0.112806,-0.063881,0.110484,-0.020983,0.015747,-0.026950,0.055337,-0.463436,-0.138629,0.032860,-0.081029,-0.060903,0.014460,-0.333654,-0.094230,-0.032083,0.383613,0.120712,-0.000018,-0.289017,-0.049822,0.002212,0.041281,0.002083,0.026476,-0.029067,0.020537
0.197698,0.081578,0.107502,-0.171208,0.036694,-0.005967,0.031485,0.027899,-0.040290,-0.020428,0.082952,0.056676,0.076814,-0.116382,0.104691,-0.104813,-0.035258,-0.096939,0.113947,-0.064733,0.111580,-0.020685,0.016646,-0.027922,0.056054,-0.464790,-0.139214,0.032390,-0.081603,-0.061188,0.014401,-0.335142,-0.094926,-0.032190,0.385122,0.121405,0.000184,-0.290545,-0.050548,0.002140,0.041281,0.002083,0.026476,-0.029067,0.020537
0.198468,0.081767,0.108169,-0.171902,0.037220,-0.005819,0.031533,0.028027,-0.040429,-0.020322,0.083612,0.056846,0.077374,-0.116973,0.105132,-0.105520,-0.035441,-0.097543,0.114584,-0.065213,0.112173,-0.020526,0.017148,-0.028455,0.056452,-0.465400,-0.139363,0.031697,-0.081924,-0.061308,0.014279,-0.335857,-0.095115,-0.032587,0.385854,0.121594,0.000670,-0.291310,-0.050765,0.001808,0.041281,0.002083,0.026476,-0.029067,0.020537
0.198590,0.081808,0.108258,-0.172011,0.037292,-0.005826,0.031535,0.028022,-0.040425,-0.020325,0.083694,0.056873,0.077432,-0.117046,0.105181,-0.105600,-0.035470,-0.097600,0.114656,-0.065261,0.112240,-0.020505,0.017196,-0.028515,0.056492,-0.465774,-0.139574,0.031728,-0.081973,-0.061364,0.014287,-0.336103,-0.095253,-0.032547,0.386143,0.121776,0.000631,-0.291504,-0.050871,0.001833,0.041281,0.002083,0.026476,-0.029067,0.020537
0.199052,0.081949,0.108593,-0.172417,0.037570,-0.005823,0.031547,0.028023,-0.040433,-0.020320,0.084034,0.056976,0.077676,-0.117343,0.105384,-0.105941,-0.035581,-0.097845,0.114959,-0.065467,0.112524,-0.020419,0.017401,-0.028763,0.056661,-0.466942,-0.140237,0.031919,-0.082154,-0.061550,0.014326,-0.336947,-0.095723,-0.032361,0.387103,0.122367,0.000433,-0.292202,-0.051250,0.001955,0.041281,0.002083,0.026476,-0.029067,0.020537
0.200016,0.082214,0.109328,-0.173260,0.038168,-0.005739,0.031584,0.028086,-0.040514,-0.020263,0.084809,0.057191,0.078260,-0.118017,0.105860,-0.106744,-0.035810,-0.098452,0.115662,-0.065966,0.113191,-0.020233,0.017906,-0.029345,0.057072,-0.468662,-0.141110,0.032102,-0.082526,-0.061844,0.014373,-0.338378,-0.096442,-0.032101,0.388675,0.123216,0.000176,-0.293470,-0.051874,0.002137,0.041281,0.002083,0.026476,-0.029067,0.020537
0.201152,0.082515,0.110220,-0.174258,0.038891,-0.005602,0.031635,0.028193,-0.040642,-0.020170,0.085750,0.057446,0.078989,-0.118840,0.106452,-0.107726,-0.036081,-0.099216,0.116526,-0.066590,0.114014,-0.020005,0.018545,-0.030068,0.057591,-0.470395,-0.141943,0.032112,-0.082976,-0.062153,0.014392,-0.339933,-0.097192,-0.031935,0.390346,0.124065,0.000036,-0.294909,-0.052559,0.002246,0.041281,0.002083,0.026476,-0.029067,0.020537
0.202389,0.082840,0.111208,-0.175348,0.039688,-0.005423,0.031697,0.028335,-0.040806,-0.020050,0.086806,0.057730,0.079820,-0.119767,0.107124,-0.108830,-0.036382,-0.100088,0.117498,-0.067299,0.114949,-0.019748,0.019283,-0.030892,0.058187,-0.472094,-0.142805,0.032060,-0.083473,-0.062480,0.014405,-0.341553,-0.098009,-0.031774,0.392054,0.124959,-0.000082,-0.296453,-0.053328,0.002367,0.041281,0.002083,0.026476,-0.029067,0.020537
0.203128,0.083043,0.111832,-0.176016,0.040187,-0.005307,0.031739,0.028435,-0.040917,-0.019966,0.087421,0.057900,0.080331,-0.120319,0.107533,-0.109478,-0.036565,-0.100632,0.118084,-0.067738,0.115501,-0.019593,0.019741,-0.031387,0.058554,-0.473017,-0.143171,0.031632,-0.083781,-0.062650,0.014339,-0.342393,-0.098369,-0.031960,0.392948,0.125354,0.000177,-0.297262,-0.053679,0.002218,0.041281,0.002083,0.026476,-0.029067,0.020537
0.203841,0.083249,0.112380,-0.176649,0.040632,-0.005270,0.031763,0.028464,-0.040957,-0.019938,0.087980,0.058062,0.080754,-0.120811,0.107878,-0.110048,-0.036737,-0.101066,0.118592,-0.068095,0.115978,-0.019454,0.020103,-0.031809,0.058849,-0.474517,-0.143979,0.031608,-0.084067,-0.062903,0.014345,-0.343573,-0.098992,-0.031877,0.394262,0.126110,0.000119,-0.298282,-0.054203,0.002259,0.041281,0.002083,0.026476,-0.029067,0.020537
0.204975,0.083555,0.113279,-0.177652,0.041362,-0.005128,0.031816,0.028576,-0.041090,-0.019842,0.088942,0.058327,0.081506,-0.121658,0.108490,-0.111045,-0.037016,-0.101849,0.119474,-0.068735,0.116827,-0.019216,0.020768,-0.032558,0.059390,-0.476243,-0.144898,0.031589,-0.084525,-0.063230,0.014366,-0.345156,-0.099823,-0.031699,0.395947,0.127038,-0.000018,-0.299757,-0.054963,0.002395,0.041281,0.002083,0.026476,-0.029067,0.020537
0.206344,0.083910,0.114443,-0.178878,0.042299,-0.004846,0.031907,0.028811,-0.041348,-0.019646,0.090152,0.058650,0.082516,-0.122736,0.109302,-0.112325,-0.037360,-0.102922,0.120619,-0.069605,0.117933,-0.018911,0.021689,-0.033547,0.060132,-0.477434,-0.145342,0.031040,-0.085103,-0.063498,0.014292,-0.346530,-0.100421,-0.031862,0.397326,0.127613,0.000249,-0.301203,-0.055611,0.002286,0.041281,0.002083,0.026476,-0.029067,0.020537
0.207073,0.084095,0.115082,-0.179541,0.042810,-0.004701,0.031957,0.028937,-0.041484,-0.019541,0.090788,0.058819,0.083061,-0.123311,0.109738,-0.113001,-0.037541,-0.103507,0.121233,-0.070076,0.118513,-0.018750,0.022184,-0.034072,0.060531,-0.478004,-0.145514,0.030377,-0.085421,-0.063619,0.014174,-0.347217,-0.100627,-0.032236,0.398020,0.127816,0.000711,-0.301950,-0.055840,0.001974,0.041281,0.002083,0.026476,-0.029067,0.020537
0.207181,0.084135,0.115164,-0.179643,0.042878,-0.004713,0.031958,0.028928,-0.041477,-0.019546,0.090861,0.058846,0.083115,-0.123379,0.109784,-0.113068,-0.037570,-0.103557,0.121298,-0.070119,0.118573,-0.018728,0.022229,-0.034128,0.060569,-0.478388,-0.145747,0.030358,-0.085470,-0.063679,0.014172,-0.347472,-0.100780,-0.032229,0.398316,0.128015,0.000712,-0.302151,-0.055958,0.001974,0.041281,0.002083,0.026476,-0.029067,0.020537
0.207648,0.084282,0.115509,-0.180058,0.043167,-0.004713,0.031970,0.028928,-0.041484,-0.019541,0.091206,0.058954,0.083368,-0.123684,0.109996,-0.113413,-0.037685,-0.103810,0.121608,-0.070335,0.118864,-0.018638,0.022444,-0.034386,0.060748,-0.479546,-0.146395,0.030540,-0.085660,-0.063870,0.014210,-0.348319,-0.101246,-0.032051,0.399278,0.128599,0.000522,-0.302857,-0.056335,0.002088,0.041281,0.002083,0.026476,-0.029067,0.020537
0.208548,0.084541,0.116202,-0.180855,0.043741,-0.004639,0.032006,0.028984,-0.041557,-0.019489,0.091946,0.059169,0.083931,-0.124335,0.110463,-0.114168,-0.037912,-0.104387,0.122278,-0.070817,0.119508,-0.018450,0.022937,-0.034955,0.061155,-0.481227,-0.147312,0.030736,-0.086031,-0.064175,0.014260,-0.349743,-0.102004,-0.031782,0.400825,0.129485,0.000255,-0.304135,-0.056999,0.002275,0.041281,0.002083,0.026476,-0.029067,0.020537
0.209634,0.084837,0.117066,-0.181818,0.044449,-0.004506,0.032058,0.029089,-0.041682,-0.019397,0.092857,0.059422,0.084646,-0.125140,0.111050,-0.115114,-0.038180,-0.105132,0.123117,-0.071433,0.120312,-0.018222,0.023569,-0.035668,0.061675,-0.482857,-0.148129,0.030743,-0.086475,-0.064481,0.014282,-0.351230,-0.102749,-0.031609,0.402411,0.130318,0.000112,-0.305522,-0.057682,0.002397,0.041281,0.002083,0.026476,-0.029067,0.020537
0.210893,0.085173,0.118089,-0.182936,0.045283,-0.004315,0.032126,0.029242,-0.041859,-0.019265,0.093939,0.059719,0.085512,-0.126098,0.111759,-0.116243,-0.038493,-0.106040,0.124121,-0.072180,0.121281,-0.017950,0.024345,-0.036529,0.062311,-0.484448,-0.148873,0.030605,-0.086991,-0.064800,0.014281,-0.352788,-0.103487,-0.031504,0.404045,0.131116,0.000061,-0.307032,-0.058388,0.002476,0.041281,0.002083,0.026476,-0.029067,0.020537
0.211558,0.085365,0.118652,-0.183543,0.045741,-0.004213,0.032167,0.029332,-0.041958,-0.019188,0.094506,0.059883,0.085984,-0.126610,0.112142,-0.116831,-0.038668,-0.106534,0.124657,-0.072585,0.121796,-0.017799,0.024773,-0.036994,0.062659,-0.485359,-0.149320,0.030308,-0.087285,-0.064979,0.014240,-0.353615,-0.103906,-0.031594,0.404920,0.131574,0.000211,-0.307829,-0.058787,0.002410,0.041281,0.002083,0.026476,-0.029067,0.020537
0.212258,0.085575,0.119194,-0.184171,0.046188,-0.004181,0.032191,0.029357,-0.041995,-0.019162,0.095065,0.060051,0.086411,-0.127108,0.112496,-0.117393,-0.038845,-0.106966,0.125164,-0.072946,0.122278,-0.017653,0.025143,-0.037424,0.062964,-0.486854,-0.150159,0.030304,-0.087578,-0.065245,0.014252,-0.354811,-0.104563,-0.031486,0.406241,0.132362,0.000129,-0.308871,-0.059343,0.002476,0.041281,0.002083,0.026476,-0.029067,0.020537
0.213345,0.085877,0.120078,-0.185145,0.046912,-0.004040,0.032246,0.029471,-0.042129,-0.019063,0.095997,0.060315,0.087156,-0.127939,0.113109,-0.118356,-0.039122,-0.107740,0.126027,-0.073586,0.123112,-0.017413,0.025810,-0.038170,0.063513,-0.488458,-0.150992,0.030118,-0.088040,-0.065563,0.014238,-0.356319,-0.105334,-0.031441,0.407832,0.133214,0.000140,-0.310304,-0.060058,0.002500,0.041281,0.002083,0.026476,-0.029067,0.020537
