   -0.022098,   -0.021250,   0.007838,   -0.015916,   0.038038,   -0.041909,   0.015152,   -0.049741,   0.002037,   -0.003250,   0.048165,   -0.019016,   -0.013534,   0.010633,   0.010598,   -0.039142,   0.003907,   0.013337,   -0.040699,   -0.020464,   -0.047976,   -0.038449,   0.026405,   -0.019065,   0.029831,0.018526,0.003169,0.024338,0.015055,0.029685,0.034532,0.001430,-0.033343,0.028175,0.041808,0.009708,0.015233,0.007282,0.010918,-0.021389,-0.042837,-0.019668,0.038931,0.017248,-0.045303
   -0.022025,   -0.021101,   0.007743,   -0.015757,   0.038090,   -0.041874,   0.015222,   -0.049786,   0.002112,   -0.003226,   0.048092,   -0.019166,   -0.013437,   0.010476,   0.010546,   -0.039177,   0.003835,   0.013385,   -0.040774,   -0.020489,   -0.047884,   -0.038260,   0.026281,   -0.018867,   0.029897,0.021489,0.004043,0.024369,0.016463,0.030123,0.034544,-0.001591,-0.034423,0.028142,0.040343,0.009111,0.015221,0.011145,0.012489,-0.021345,-0.042837,-0.019668,0.038931,0.017248,-0.045303
   -0.021989,   -0.021037,   0.007698,   -0.015692,   0.038118,   -0.041857,   0.015252,   -0.049807,   0.002142,   -0.003212,   0.048058,   -0.019229,   -0.013391,   0.010413,   0.010519,   -0.039192,   0.003805,   0.013406,   -0.040803,   -0.020502,   -0.047843,   -0.038180,   0.026224,   -0.018792,   0.029931,0.022746,0.004287,0.024393,0.017063,0.030255,0.034555,-0.002863,-0.034766,0.028116,0.039727,0.008909,0.015210,0.012758,0.013017,-0.021312,-0.042837,-0.019668,0.038931,0.017248,-0.045303
   -0.021920,   -0.020914,   0.007601,   -0.015574,   0.038183,   -0.041825,   0.015310,   -0.049854,   0.002198,   -0.003181,   0.047991,   -0.019351,   -0.013294,   0.010299,   0.010454,   -0.039224,   0.003747,   0.013454,   -0.040857,   -0.020533,   -0.047760,   -0.038029,   0.026099,   -0.018651,   0.030013,0.025187,0.004938,0.024262,0.018226,0.030590,0.034491,-0.005335,-0.035593,0.028244,0.038531,0.008446,0.015274,0.015898,0.014232,-0.021473,-0.042837,-0.019668,0.038931,0.017248,-0.045303
   -0.021802,   -0.020729,   0.007453,   -0.015411,   0.038292,   -0.041769,   0.015399,   -0.049924,   0.002275,   -0.003130,   0.047874,   -0.019538,   -0.013143,   0.010137,   0.010344,   -0.039279,   0.003657,   0.013527,   -0.040934,   -0.020586,   -0.047614,   -0.037793,   0.025908,   -0.018448,   0.030151,0.028661,0.006055,0.024184,0.019882,0.031152,0.034451,-0.008877,-0.036944,0.028317,0.036818,0.007713,0.015312,0.020415,0.016169,-0.021562,-0.042837,-0.019668,0.038931,0.017248,-0.045303
   -0.021659,   -0.020527,   0.007301,   -0.015252,   0.038416,   -0.041701,   0.015495,   -0.049997,   0.002351,   -0.003070,   0.047730,   -0.019742,   -0.012987,   0.009977,   0.010218,   -0.039348,   0.003559,   0.013602,   -0.041011,   -0.020646,   -0.047434,   -0.037534,   0.025709,   -0.018247,   0.030311,0.031962,0.006937,0.024400,0.021464,0.031605,0.034551,-0.012277,-0.038068,0.028095,0.035164,0.007087,0.015208,0.024785,0.017828,-0.021278,-0.042837,-0.019668,0.038931,0.017248,-0.045303
   -0.021643,   -0.020506,   0.007310,   -0.015240,   0.038410,   -0.041693,   0.015505,   -0.049993,   0.002357,   -0.003073,   0.047715,   -0.019763,   -0.012996,   0.009965,   0.010225,   -0.039355,   0.003549,   0.013598,   -0.041016,   -0.020643,   -0.047415,   -0.037507,   0.025719,   -0.018232,   0.030302,0.032045,0.006691,0.024872,0.021504,0.031492,0.034775,-0.012370,-0.037855,0.027622,0.035121,0.007179,0.014981,0.024904,0.017589,-0.020678,-0.042837,-0.019668,0.038931,0.017248,-0.045303
   -0.021616,   -0.020468,   0.007271,   -0.015211,   0.038442,   -0.041681,   0.015523,   -0.050012,   0.002370,   -0.003058,   0.047690,   -0.019800,   -0.012957,   0.009938,   0.010194,   -0.039367,   0.003532,   0.013616,   -0.041029,   -0.020658,   -0.047384,   -0.037462,   0.025671,   -0.018199,   0.030340,0.032771,0.006840,0.024782,0.021851,0.031573,0.034732,-0.013101,-0.038060,0.027711,0.034771,0.007061,0.015024,0.025824,0.017901,-0.020791,-0.042837,-0.019668,0.038931,0.017248,-0.045303
   -0.021540,   -0.020366,   0.007170,   -0.015137,   0.038527,   -0.041645,   0.015571,   -0.050060,   0.002405,   -0.003017,   0.047617,   -0.019900,   -0.012857,   0.009866,   0.010110,   -0.039401,   0.003485,   0.013664,   -0.041062,   -0.020697,   -0.047295,   -0.037337,   0.025545,   -0.018112,   0.030444,0.034610,0.007253,0.024608,0.022731,0.031794,0.034649,-0.014964,-0.038614,0.027881,0.033874,0.006747,0.015107,0.028185,0.018734,-0.021004,-0.042837,-0.019668,0.038931,0.017248,-0.045303
   -0.021408,   -0.020201,   0.007014,   -0.015025,   0.038667,   -0.041582,   0.015650,   -0.050134,   0.002458,   -0.002951,   0.047487,   -0.020066,   -0.012699,   0.009755,   0.009971,   -0.039461,   0.003406,   0.013740,   -0.041114,   -0.020763,   -0.047135,   -0.037130,   0.025346,   -0.017974,   0.030617,0.037357,0.007973,0.024498,0.024050,0.032171,0.034595,-0.017773,-0.039534,0.027984,0.032515,0.006239,0.015159,0.031769,0.020086,-0.021134,-0.042837,-0.019668,0.038931,0.017248,-0.045303
   -0.021272,   -0.020037,   0.006853,   -0.014923,   0.038815,   -0.041518,   0.015728,   -0.050211,   0.002506,   -0.002880,   0.047354,   -0.020229,   -0.012538,   0.009656,   0.009824,   -0.039524,   0.003329,   0.013817,   -0.041161,   -0.020833,   -0.046972,   -0.036927,   0.025143,   -0.017851,   0.030800,0.039991,0.008615,0.024391,0.025316,0.032512,0.034543,-0.020463,-0.040376,0.028084,0.031217,0.005769,0.015209,0.035196,0.021337,-0.021259,-0.042837,-0.019668,0.038931,0.017248,-0.045303
   -0.021107,   -0.019845,   0.006671,   -0.014818,   0.038987,   -0.041439,   0.015819,   -0.050299,   0.002557,   -0.002798,   0.047189,   -0.020422,   -0.012353,   0.009550,   0.009652,   -0.039602,   0.003236,   0.013906,   -0.041211,   -0.020915,   -0.046766,   -0.036683,   0.024909,   -0.017719,   0.031017,0.042898,0.009443,0.024466,0.026715,0.032941,0.034577,-0.023446,-0.041412,0.028001,0.029778,0.005203,0.015171,0.038996,0.022844,-0.021152,-0.042837,-0.019668,0.038931,0.017248,-0.045303
   -0.021035,   -0.019763,   0.006584,   -0.014775,   0.039070,   -0.041405,   0.015858,   -0.050340,   0.002577,   -0.002759,   0.047120,   -0.020503,   -0.012267,   0.009509,   0.009571,   -0.039634,   0.003199,   0.013946,   -0.041230,   -0.020953,   -0.046682,   -0.036584,   0.024803,   -0.017669,   0.031116,0.044186,0.009725,0.024415,0.027333,0.033095,0.034552,-0.024748,-0.041794,0.028047,0.029154,0.004989,0.015194,0.040644,0.023419,-0.021210,-0.042837,-0.019668,0.038931,0.017248,-0.045303
   -0.020887,   -0.019602,   0.006417,   -0.014696,   0.039233,   -0.041335,   0.015935,   -0.050420,   0.002615,   -0.002681,   0.046977,   -0.020663,   -0.012101,   0.009431,   0.009410,   -0.039700,   0.003123,   0.014025,   -0.041266,   -0.021028,   -0.046506,   -0.036384,   0.024594,   -0.017573,   0.031316,0.046568,0.010284,0.024389,0.028482,0.033397,0.034539,-0.027180,-0.042537,0.028065,0.027985,0.004576,0.015204,0.043735,0.024525,-0.021231,-0.042837,-0.019668,0.038931,0.017248,-0.045303
   -0.020656,   -0.019360,   0.006160,   -0.014591,   0.039491,   -0.041225,   0.016052,   -0.050544,   0.002665,   -0.002557,   0.046747,   -0.020907,   -0.011840,   0.009327,   0.009152,   -0.039809,   0.003007,   0.014150,   -0.041316,   -0.021151,   -0.046220,   -0.036078,   0.024266,   -0.017442,   0.031640,0.050022,0.011350,0.024324,0.030153,0.033950,0.034507,-0.030731,-0.043843,0.028118,0.026272,0.003874,0.015231,0.048256,0.026399,-0.021297,-0.042837,-0.019668,0.038931,0.017248,-0.045303
   -0.020409,   -0.019110,   0.005885,   -0.014499,   0.039772,   -0.041106,   0.016172,   -0.050676,   0.002709,   -0.002422,   0.046499,   -0.021160,   -0.011562,   0.009234,   0.008869,   -0.039927,   0.002886,   0.014283,   -0.041360,   -0.021286,   -0.045910,   -0.035759,   0.023914,   -0.017326,   0.031995,0.053483,0.012426,0.024248,0.031829,0.034510,0.034469,-0.034289,-0.045161,0.028181,0.024556,0.003167,0.015261,0.052781,0.028284,-0.021376,-0.042837,-0.019668,0.038931,0.017248,-0.045303
   -0.020401,   -0.019096,   0.005913,   -0.014491,   0.039748,   -0.041102,   0.016179,   -0.050663,   0.002713,   -0.002434,   0.046491,   -0.021174,   -0.011590,   0.009226,   0.008893,   -0.039930,   0.002879,   0.014270,   -0.041364,   -0.021274,   -0.045900,   -0.035742,   0.023950,   -0.017315,   0.031964,0.053343,0.012064,0.024928,0.031764,0.034340,0.034796,-0.034162,-0.044823,0.027500,0.024617,0.003322,0.014935,0.052619,0.027878,-0.020516,-0.042837,-0.019668,0.038931,0.017248,-0.045303
   -0.020352,   -0.019046,   0.005853,   -0.014473,   0.039809,   -0.041079,   0.016202,   -0.050692,   0.002721,   -0.002405,   0.046444,   -0.021222,   -0.011531,   0.009208,   0.008834,   -0.039952,   0.002857,   0.014297,   -0.041372,   -0.021302,   -0.045844,   -0.035683,   0.023877,   -0.017295,   0.032036,0.054064,0.012192,0.024856,0.032112,0.034414,0.034761,-0.034892,-0.045010,0.027569,0.024270,0.003216,0.014968,0.053539,0.028167,-0.020603,-0.042837,-0.019668,0.038931,0.017248,-0.045303
   -0.020219,   -0.018917,   0.005697,   -0.014430,   0.039970,   -0.041016,   0.016264,   -0.050766,   0.002742,   -0.002328,   0.046317,   -0.021350,   -0.011376,   0.009166,   0.008677,   -0.040010,   0.002798,   0.014370,   -0.041392,   -0.021375,   -0.045689,   -0.035526,   0.023685,   -0.017242,   0.032229,0.055878,0.012580,0.024695,0.032989,0.034630,0.034684,-0.036738,-0.045542,0.027722,0.023388,0.002921,0.015042,0.055877,0.028968,-0.020796,-0.042837,-0.019668,0.038931,0.017248,-0.045303
   -0.019998,   -0.018705,   0.005450,   -0.014366,   0.040230,   -0.040911,   0.016366,   -0.050885,   0.002773,   -0.002203,   0.046100,   -0.021560,   -0.011129,   0.009102,   0.008420,   -0.040111,   0.002698,   0.014487,   -0.041421,   -0.021496,   -0.045423,   -0.035263,   0.023376,   -0.017164,   0.032549,0.058699,0.013335,0.024591,0.034358,0.035037,0.034634,-0.039625,-0.046506,0.027813,0.022004,0.002401,0.015087,0.059539,0.030369,-0.020912,-0.042837,-0.019668,0.038931,0.017248,-0.045303
   -0.019781,   -0.018505,   0.005200,   -0.014314,   0.040495,   -0.040808,   0.016461,   -0.051006,   0.002797,   -0.002076,   0.045888,   -0.021760,   -0.010879,   0.009051,   0.008157,   -0.040210,   0.002605,   0.014605,   -0.041446,   -0.021619,   -0.045162,   -0.035016,   0.023064,   -0.017100,   0.032874,0.061337,0.013993,0.024305,0.035641,0.035397,0.034496,-0.042328,-0.047366,0.028088,0.020709,0.001933,0.015218,0.062971,0.031633,-0.021258,-0.042837,-0.019668,0.038931,0.017248,-0.045303
   -0.019532,   -0.018274,   0.004938,   -0.014262,   0.040779,   -0.040687,   0.016573,   -0.051133,   0.002823,   -0.001939,   0.045639,   -0.021993,   -0.010614,   0.008998,   0.007872,   -0.040328,   0.002494,   0.014731,   -0.041471,   -0.021754,   -0.044852,   -0.034724,   0.022732,   -0.017033,   0.033230,0.064131,0.014801,0.024437,0.037007,0.035828,0.034561,-0.045213,-0.048375,0.027941,0.019320,0.001390,0.015147,0.066620,0.033084,-0.021076,-0.042837,-0.019668,0.038931,0.017248,-0.045303
   -0.019420,   -0.018172,   0.004810,   -0.014240,   0.040915,   -0.040635,   0.016622,   -0.051194,   0.002833,   -0.001874,   0.045532,   -0.022093,   -0.010489,   0.008977,   0.007740,   -0.040377,   0.002448,   0.014789,   -0.041481,   -0.021815,   -0.044723,   -0.034602,   0.022578,   -0.017007,   0.033392,0.065425,0.015071,0.024380,0.037634,0.035982,0.034533,-0.046526,-0.048749,0.027991,0.018697,0.001185,0.015172,0.068278,0.033647,-0.021139,-0.042837,-0.019668,0.038931,0.017248,-0.045303
   -0.019197,   -0.017973,   0.004565,   -0.014203,   0.041183,   -0.040528,   0.016718,   -0.051312,   0.002851,   -0.001746,   0.045314,   -0.022290,   -0.010245,   0.008940,   0.007477,   -0.040478,   0.002355,   0.014904,   -0.041498,   -0.021938,   -0.044457,   -0.034357,   0.022274,   -0.016962,   0.033716,0.067840,0.015686,0.024319,0.038811,0.036321,0.034504,-0.048995,-0.049549,0.028038,0.017518,0.000756,0.015196,0.071403,0.034815,-0.021198,-0.042837,-0.019668,0.038931,0.017248,-0.045303
   -0.018869,   -0.017687,   0.004223,   -0.014162,   0.041563,   -0.040370,   0.016857,   -0.051479,   0.002871,   -0.001562,   0.044987,   -0.022580,   -0.009899,   0.008897,   0.007095,   -0.040632,   0.002218,   0.015069,   -0.041518,   -0.022119,   -0.044050,   -0.033996,   0.021840,   -0.016908,   0.034193,0.071072,0.016578,0.024409,0.040401,0.036806,0.034550,-0.052344,-0.050681,0.027930,0.015905,0.000146,0.015141,0.075639,0.036447,-0.021066,-0.042837,-0.019668,0.038931,0.017248,-0.045303
   -0.018504,   -0.017371,   0.003822,   -0.014132,   0.042004,   -0.040192,   0.017011,   -0.051674,   0.002886,   -0.001347,   0.044622,   -0.022899,   -0.009494,   0.008866,   0.006652,   -0.040804,   0.002066,   0.015261,   -0.041533,   -0.022329,   -0.043597,   -0.033599,   0.021335,   -0.016869,   0.034745,0.074778,0.017917,0.024299,0.042224,0.037511,0.034499,-0.056152,-0.052259,0.028019,0.014072,-0.000680,0.015179,0.080414,0.038635,-0.021185,-0.042837,-0.019668,0.038931,0.017248,-0.045303
   -0.018502,   -0.017367,   0.003862,   -0.014122,   0.041970,   -0.040192,   0.017013,   -0.051655,   0.002890,   -0.001363,   0.044620,   -0.022904,   -0.009532,   0.008857,   0.006685,   -0.040805,   0.002064,   0.015243,   -0.041538,   -0.022313,   -0.043594,   -0.033592,   0.021382,   -0.016857,   0.034704,0.074441,0.017377,0.024938,0.042066,0.037255,0.034809,-0.055843,-0.051744,0.027381,0.014216,-0.000439,0.014875,0.080046,0.038007,-0.020382,-0.042837,-0.019668,0.038931,0.017248,-0.045303
   -0.018431,   -0.017307,   0.003773,   -0.014118,   0.042066,   -0.040158,   0.017041,   -0.051697,   0.002893,   -0.001318,   0.044552,   -0.022962,   -0.009446,   0.008852,   0.006592,   -0.040836,   0.002037,   0.015283,   -0.041540,   -0.022355,   -0.043514,   -0.033521,   0.021276,   -0.016851,   0.034817,0.075202,0.017533,0.024770,0.042436,0.037345,0.034728,-0.056612,-0.051961,0.027544,0.013854,-0.000556,0.014953,0.081014,0.038334,-0.020588,-0.042837,-0.019668,0.038931,0.017248,-0.045303
   -0.018240,   -0.017147,   0.003554,   -0.014105,   0.042309,   -0.040067,   0.017118,   -0.051802,   0.002899,   -0.001202,   0.044368,   -0.023119,   -0.009230,   0.008839,   0.006355,   -0.040920,   0.001964,   0.015383,   -0.041546,   -0.022465,   -0.043290,   -0.033328,   0.021010,   -0.016836,   0.035107,0.077060,0.017955,0.024566,0.043344,0.037586,0.034630,-0.058507,-0.052532,0.027737,0.012955,-0.000862,0.015045,0.083406,0.039178,-0.020831,-0.042837,-0.019668,0.038931,0.017248,-0.045303
   -0.017936,   -0.016895,   0.003232,   -0.014090,   0.042674,   -0.039922,   0.017240,   -0.051959,   0.002906,   -0.001026,   0.044070,   -0.023370,   -0.008909,   0.008823,   0.005995,   -0.041059,   0.001847,   0.015534,   -0.041553,   -0.022634,   -0.042925,   -0.033018,   0.020611,   -0.016815,   0.035552,0.079765,0.018641,0.024573,0.044676,0.037972,0.034635,-0.061291,-0.053426,0.027711,0.011626,-0.001339,0.015032,0.086920,0.040475,-0.020803,-0.042837,-0.019668,0.038931,0.017248,-0.045303
   -0.017632,   -0.016647,   0.002892,   -0.014085,   0.043056,   -0.039776,   0.017360,   -0.052123,   0.002909,   -0.000841,   0.043773,   -0.023616,   -0.008571,   0.008817,   0.005618,   -0.041197,   0.001732,   0.015693,   -0.041556,   -0.022809,   -0.042562,   -0.032715,   0.020193,   -0.016807,   0.036016,0.082519,0.019388,0.024326,0.046029,0.038388,0.034517,-0.064109,-0.054381,0.027940,0.010285,-0.001843,0.015140,0.090466,0.041847,-0.021095,-0.042837,-0.019668,0.038931,0.017248,-0.045303
   -0.017303,   -0.016382,   0.002551,   -0.014085,   0.043448,   -0.039615,   0.017490,   -0.052291,   0.002909,   -0.000649,   0.043442,   -0.023885,   -0.008224,   0.008816,   0.005223,   -0.041352,   0.001604,   0.015857,   -0.041557,   -0.022996,   -0.042152,   -0.032381,   0.019761,   -0.016805,   0.036507,0.085151,0.020114,0.024384,0.047344,0.038793,0.034549,-0.066852,-0.055301,0.027865,0.008959,-0.002338,0.015099,0.093913,0.043162,-0.021010,-0.042837,-0.019668,0.038931,0.017248,-0.045303
   -0.017146,   -0.016254,   0.002379,   -0.014084,   0.043642,   -0.039541,   0.017551,   -0.052374,   0.002910,   -0.000557,   0.043293,   -0.024010,   -0.008057,   0.008814,   0.005035,   -0.041420,   0.001547,   0.015934,   -0.041558,   -0.023082,   -0.041972,   -0.032228,   0.019556,   -0.016802,   0.036735,0.086513,0.020412,0.024383,0.048010,0.038967,0.034549,-0.068234,-0.055710,0.027855,0.008310,-0.002554,0.015095,0.095649,0.043768,-0.020997,-0.042837,-0.019668,0.038931,0.017248,-0.045303
   -0.016850,   -0.016021,   0.002056,   -0.014092,   0.044012,   -0.039399,   0.017664,   -0.052530,   0.002906,   -0.000378,   0.043004,   -0.024240,   -0.007736,   0.008820,   0.004671,   -0.041554,   0.001439,   0.016084,   -0.041555,   -0.023252,   -0.041620,   -0.031944,   0.019160,   -0.016809,   0.037183,0.088887,0.021018,0.024213,0.049183,0.039312,0.034468,-0.070673,-0.056502,0.028008,0.007151,-0.002971,0.015167,0.098724,0.044914,-0.021191,-0.042837,-0.019668,0.038931,0.017248,-0.045303
   -0.016418,   -0.015683,   0.001609,   -0.014112,   0.044530,   -0.039187,   0.017831,   -0.052751,   0.002897,   -0.000124,   0.042572,   -0.024583,   -0.007284,   0.008838,   0.004150,   -0.041757,   0.001277,   0.016298,   -0.041547,   -0.023498,   -0.041086,   -0.031519,   0.018597,   -0.016831,   0.037830,0.092097,0.021951,0.024281,0.050793,0.039834,0.034506,-0.074012,-0.057669,0.027916,0.005539,-0.003592,0.015117,0.102905,0.046560,-0.021089,-0.042837,-0.019668,0.038931,0.017248,-0.045303
   -0.015927,   -0.015302,   0.001097,   -0.014146,   0.045124,   -0.038946,   0.018019,   -0.053004,   0.002881,   0.000170,   0.042078,   -0.024969,   -0.006764,   0.008871,   0.003550,   -0.041989,   0.001093,   0.016545,   -0.041532,   -0.023781,   -0.040477,   -0.031042,   0.017953,   -0.016870,   0.038572,0.095655,0.023117,0.024301,0.052587,0.040478,0.034523,-0.077714,-0.059078,0.027869,0.003742,-0.004335,0.015085,0.107514,0.048508,-0.021048,-0.042837,-0.019668,0.038931,0.017248,-0.045303
   -0.015953,   -0.015315,   0.001152,   -0.014135,   0.045065,   -0.038959,   0.018013,   -0.052977,   0.002886,   0.000140,   0.042105,   -0.024956,   -0.006819,   0.008860,   0.003608,   -0.041976,   0.001100,   0.016519,   -0.041537,   -0.023753,   -0.040510,   -0.031058,   0.018022,   -0.016856,   0.038499,0.095343,0.022681,0.024830,0.052433,0.040267,0.034783,-0.077408,-0.058659,0.027341,0.003891,-0.004136,0.014834,0.107132,0.047996,-0.020387,-0.042837,-0.019668,0.038931,0.017248,-0.045303
   -0.015859,   -0.015243,   0.001041,   -0.014142,   0.045191,   -0.038914,   0.018047,   -0.053030,   0.002883,   0.000200,   0.042015,   -0.025026,   -0.006711,   0.008866,   0.003487,   -0.042017,   0.001068,   0.016568,   -0.041535,   -0.023808,   -0.040404,   -0.030974,   0.017890,   -0.016864,   0.038646,0.096111,0.022841,0.024687,0.052809,0.040364,0.034713,-0.078185,-0.058883,0.027479,0.003528,-0.004254,0.014899,0.108107,0.048331,-0.020560,-0.042837,-0.019668,0.038931,0.017248,-0.045303
   -0.015610,   -0.015053,   0.000763,   -0.014162,   0.045511,   -0.038796,   0.018138,   -0.053164,   0.002874,   0.000354,   0.041776,   -0.025212,   -0.006438,   0.008884,   0.003175,   -0.042127,   0.000982,   0.016694,   -0.041526,   -0.023952,   -0.040114,   -0.030747,   0.017555,   -0.016885,   0.039026,0.097983,0.023286,0.024480,0.053734,0.040624,0.034613,-0.080097,-0.059479,0.027672,0.002628,-0.004565,0.014990,0.110509,0.049199,-0.020805,-0.042837,-0.019668,0.038931,0.017248,-0.045303
   -0.015215,   -0.014755,   0.000342,   -0.014199,   0.046003,   -0.038604,   0.018284,   -0.053370,   0.002856,   0.000594,   0.041387,   -0.025509,   -0.006019,   0.008919,   0.002689,   -0.042307,   0.000844,   0.016890,   -0.041511,   -0.024178,   -0.039640,   -0.030382,   0.017038,   -0.016926,   0.039624,0.100718,0.023970,0.024365,0.055102,0.041024,0.034562,-0.082923,-0.060377,0.027763,0.001282,-0.005038,0.015030,0.114054,0.050489,-0.020928,-0.042837,-0.019668,0.038931,0.017248,-0.045303
   -0.014823,   -0.014461,   -0.000075,   -0.014239,   0.046490,   -0.038414,   0.018428,   -0.053574,   0.002837,   0.000831,   0.041004,   -0.025801,   -0.005604,   0.008957,   0.002207,   -0.042484,   0.000707,   0.017084,   -0.041493,   -0.024402,   -0.039173,   -0.030024,   0.016528,   -0.016972,   0.040214,0.103360,0.024634,0.024285,0.056424,0.041413,0.034526,-0.085650,-0.061250,0.027820,-0.000015,-0.005496,0.015054,0.117471,0.051741,-0.021008,-0.042837,-0.019668,0.038931,0.017248,-0.045303
   -0.014417,   -0.014157,   -0.000497,   -0.014290,   0.046986,   -0.038214,   0.018579,   -0.053784,   0.002813,   0.001077,   0.040596,   -0.026109,   -0.005177,   0.009006,   0.001708,   -0.042676,   0.000561,   0.017286,   -0.041470,   -0.024638,   -0.038672,   -0.029645,   0.015999,   -0.017032,   0.040830,0.105991,0.025419,0.024301,0.057763,0.041862,0.034541,-0.088392,-0.062223,0.027782,-0.001345,-0.006012,0.015027,0.120864,0.053093,-0.020979,-0.042837,-0.019668,0.038931,0.017248,-0.045303
   -0.014220,   -0.014009,   -0.000709,   -0.014312,   0.047234,   -0.038120,   0.018650,   -0.053886,   0.002802,   0.001196,   0.040408,   -0.026254,   -0.004970,   0.009026,   0.001468,   -0.042761,   0.000495,   0.017381,   -0.041462,   -0.024748,   -0.038446,   -0.029469,   0.015747,   -0.017055,   0.041121,0.107321,0.025694,0.024294,0.058422,0.042031,0.034539,-0.089748,-0.062611,0.027776,-0.001979,-0.006214,0.015025,0.122566,0.053669,-0.020971,-0.042837,-0.019668,0.038931,0.017248,-0.045303
   -0.013840,   -0.013728,   -0.001121,   -0.014363,   0.047716,   -0.037936,   0.018787,   -0.054087,   0.002778,   0.001430,   0.040038,   -0.026531,   -0.004563,   0.009074,   0.000995,   -0.042932,   0.000366,   0.017570,   -0.041440,   -0.024967,   -0.037998,   -0.029131,   0.015249,   -0.017113,   0.041698,0.109820,0.026364,0.024145,0.059671,0.042422,0.034469,-0.092311,-0.063475,0.027901,-0.003191,-0.006660,0.015082,0.125767,0.054896,-0.021135,-0.042837,-0.019668,0.038931,0.017248,-0.045303
   -0.013298,   -0.013337,   -0.001686,   -0.014450,   0.048384,   -0.037668,   0.018983,   -0.054370,   0.002736,   0.001763,   0.039495,   -0.026929,   -0.003990,   0.009159,   0.000321,   -0.043187,   0.000178,   0.017842,   -0.041400,   -0.025285,   -0.037330,   -0.028642,   0.014541,   -0.017217,   0.042529,0.113021,0.027385,0.023997,0.061312,0.043004,0.034405,-0.095656,-0.064719,0.028022,-0.004816,-0.007312,0.015128,0.129910,0.056603,-0.021306,-0.042837,-0.019668,0.038931,0.017248,-0.045303
   -0.012728,   -0.012920,   -0.002261,   -0.014543,   0.049068,   -0.037383,   0.019193,   -0.054660,   0.002690,   0.002106,   0.038920,   -0.027353,   -0.003404,   0.009251,   -0.000373,   -0.043458,   -0.000024,   0.018120,   -0.041357,   -0.025613,   -0.036625,   -0.028122,   0.013820,   -0.017328,   0.043382,0.116243,0.028313,0.024229,0.062983,0.043551,0.034533,-0.099041,-0.065881,0.027760,-0.006476,-0.007937,0.014987,0.134064,0.058201,-0.021010,-0.042837,-0.019668,0.038931,0.017248,-0.045303
   -0.012750,   -0.012929,   -0.002217,   -0.014530,   0.049021,   -0.037395,   0.019188,   -0.054637,   0.002697,   0.002082,   0.038943,   -0.027343,   -0.003448,   0.009237,   -0.000325,   -0.043446,   -0.000019,   0.018098,   -0.041364,   -0.025589,   -0.036655,   -0.028135,   0.013876,   -0.017312,   0.043321,0.116043,0.027985,0.024651,0.062882,0.043392,0.034742,-0.098846,-0.065571,0.027339,-0.006380,-0.007789,0.014788,0.133823,0.057828,-0.020485,-0.042837,-0.019668,0.038931,0.017248,-0.045303
   -0.012627,   -0.012839,   -0.002356,   -0.014549,   0.049184,   -0.037337,   0.019231,   -0.054704,   0.002688,   0.002159,   0.038826,   -0.027430,   -0.003314,   0.009255,   -0.000481,   -0.043499,   -0.000059,   0.018160,   -0.041356,   -0.025660,   -0.036515,   -0.028029,   0.013713,   -0.017333,   0.043509,0.116846,0.028147,0.024571,0.063279,0.043493,0.034703,-0.099660,-0.065802,0.027411,-0.006757,-0.007908,0.014822,0.134843,0.058173,-0.020576,-0.042837,-0.019668,0.038931,0.017248,-0.045303
   -0.012313,   -0.012614,   -0.002701,   -0.014603,   0.049589,   -0.037186,   0.019340,   -0.054872,   0.002662,   0.002355,   0.038523,   -0.027651,   -0.002976,   0.009305,   -0.000876,   -0.043638,   -0.000160,   0.018315,   -0.041333,   -0.025841,   -0.036151,   -0.027762,   0.013301,   -0.017392,   0.043988,0.118754,0.028592,0.024372,0.064234,0.043765,0.034608,-0.101616,-0.066404,0.027591,-0.007674,-0.008217,0.014905,0.137287,0.059045,-0.020807,-0.042837,-0.019668,0.038931,0.017248,-0.045303
   -0.011842,   -0.012278,   -0.003201,   -0.014689,   0.050182,   -0.036956,   0.019506,   -0.055119,   0.002621,   0.002647,   0.038061,   -0.027984,   -0.002478,   0.009388,   -0.001462,   -0.043852,   -0.000316,   0.018547,   -0.041295,   -0.026114,   -0.035591,   -0.027355,   0.012692,   -0.017492,   0.044704,0.121455,0.029343,0.024218,0.065606,0.044210,0.034538,-0.104407,-0.067363,0.027718,-0.009004,-0.008712,0.014959,0.140752,0.060381,-0.020980,-0.042837,-0.019668,0.038931,0.017248,-0.045303
   -0.011357,   -0.011937,   -0.003718,   -0.014783,   0.050796,   -0.036719,   0.019674,   -0.055374,   0.002575,   0.002949,   0.037586,   -0.028324,   -0.001965,   0.009478,   -0.002069,   -0.044071,   -0.000474,   0.018787,   -0.041254,   -0.026395,   -0.035015,   -0.026941,   0.012063,   -0.017600,   0.045444,0.124115,0.030038,0.024006,0.066960,0.044630,0.034439,-0.107162,-0.068268,0.027903,-0.010314,-0.009180,0.015041,0.144181,0.061656,-0.021224,-0.042837,-0.019668,0.038931,0.017248,-0.045303
   -0.010879,   -0.011596,   -0.004208,   -0.014881,   0.051380,   -0.036479,   0.019847,   -0.055622,   0.002527,   0.003243,   0.037105,   -0.028670,   -0.001467,   0.009574,   -0.002659,   -0.044298,   -0.000638,   0.019022,   -0.041209,   -0.026674,   -0.034428,   -0.026519,   0.011455,   -0.017716,   0.046166,0.126622,0.030756,0.024084,0.068270,0.045060,0.034490,-0.109791,-0.069166,0.027800,-0.011603,-0.009660,0.014977,0.147387,0.062885,-0.021122,-0.042837,-0.019668,0.038931,0.017248,-0.045303
   -0.010632,   -0.011421,   -0.004477,   -0.014929,   0.051700,   -0.036361,   0.019931,   -0.055752,   0.002504,   0.003397,   0.036869,   -0.028840,   -0.001205,   0.009619,   -0.002968,   -0.044405,   -0.000716,   0.019142,   -0.041188,   -0.026815,   -0.034145,   -0.026313,   0.011136,   -0.017770,   0.046539,0.128025,0.031076,0.023986,0.068972,0.045259,0.034442,-0.111223,-0.069604,0.027882,-0.012269,-0.009882,0.015017,0.149177,0.063522,-0.021226,-0.042837,-0.019668,0.038931,0.017248,-0.045303
   -0.010178,   -0.011101,   -0.004953,   -0.015021,   0.052268,   -0.036140,   0.020089,   -0.055987,   0.002460,   0.003676,   0.036426,   -0.029157,   -0.000734,   0.009707,   -0.003526,   -0.044609,   -0.000863,   0.019361,   -0.041148,   -0.027073,   -0.033611,   -0.025929,   0.010562,   -0.017875,   0.047218,0.130405,0.031662,0.023980,0.070185,0.045622,0.034445,-0.113683,-0.070386,0.027860,-0.013433,-0.010284,0.015003,0.152233,0.064629,-0.021209,-0.042837,-0.019668,0.038931,0.017248,-0.045303
   -0.009523,   -0.010642,   -0.005641,   -0.015174,   0.053085,   -0.035810,   0.020322,   -0.056336,   0.002384,   0.004089,   0.035769,   -0.029622,   -0.000038,   0.009857,   -0.004350,   -0.044919,   -0.001084,   0.019691,   -0.041078,   -0.027463,   -0.032814,   -0.025366,   0.009716,   -0.018057,   0.048219,0.133793,0.032842,0.023825,0.071964,0.046308,0.034384,-0.117215,-0.071782,0.027981,-0.015170,-0.011019,0.015039,0.156507,0.066484,-0.021396,-0.042837,-0.019668,0.038931,0.017248,-0.045303
   -0.008881,   -0.010197,   -0.006278,   -0.015324,   0.053854,   -0.035485,   0.020550,   -0.056662,   0.002309,   0.004481,   0.035120,   -0.030077,   0.000614,   0.010006,   -0.005133,   -0.045224,   -0.001301,   0.020001,   -0.041008,   -0.027833,   -0.032021,   -0.024811,   0.008917,   -0.018238,   0.049177,0.136634,0.033547,0.024068,0.073481,0.046758,0.034520,-0.120235,-0.072709,0.027709,-0.016667,-0.011523,0.014890,0.160182,0.067755,-0.021095,-0.042837,-0.019668,0.038931,0.017248,-0.045303
   -0.008890,   -0.010196,   -0.006253,   -0.015313,   0.053827,   -0.035491,   0.020550,   -0.056649,   0.002315,   0.004466,   0.035131,   -0.030077,   0.000588,   0.009994,   -0.005104,   -0.045218,   -0.001300,   0.019988,   -0.041014,   -0.027818,   -0.032036,   -0.024812,   0.008951,   -0.018223,   0.049140,0.136557,0.033335,0.024428,0.073439,0.046656,0.034700,-0.120160,-0.072516,0.027348,-0.016627,-0.011431,0.014721,0.160093,0.067529,-0.020646,-0.042837,-0.019668,0.038931,0.017248,-0.045303
   -0.008742,   -0.010094,   -0.006419,   -0.015346,   0.054023,   -0.035421,   0.020599,   -0.056729,   0.002299,   0.004560,   0.034991,   -0.030175,   0.000748,   0.010025,   -0.005292,   -0.045281,   -0.001345,   0.020060,   -0.041000,   -0.027904,   -0.031869,   -0.024694,   0.008758,   -0.018260,   0.049366,0.137365,0.033510,0.024302,0.073843,0.046768,0.034639,-0.120982,-0.072761,0.027465,-0.017005,-0.011553,0.014775,0.161119,0.067889,-0.020793,-0.042837,-0.019668,0.038931,0.017248,-0.045303
   -0.008368,   -0.009836,   -0.006824,   -0.015433,   0.054506,   -0.035240,   0.020725,   -0.056927,   0.002258,   0.004795,   0.034630,   -0.030427,   0.001145,   0.010108,   -0.005762,   -0.045446,   -0.001461,   0.020243,   -0.040963,   -0.028119,   -0.031437,   -0.024389,   0.008276,   -0.018358,   0.049934,0.139262,0.033950,0.024118,0.074807,0.047047,0.034552,-0.122932,-0.073361,0.027626,-0.017918,-0.011858,0.014848,0.163543,0.068749,-0.021003,-0.042837,-0.019668,0.038931,0.017248,-0.045303
   -0.007799,   -0.009446,   -0.007422,   -0.015572,   0.055222,   -0.034959,   0.020920,   -0.057225,   0.002190,   0.005151,   0.034072,   -0.030815,   0.001739,   0.010241,   -0.006470,   -0.045705,   -0.001642,   0.020520,   -0.040901,   -0.028448,   -0.030765,   -0.023920,   0.007555,   -0.018518,   0.050792,0.141971,0.034683,0.024005,0.076210,0.047501,0.034505,-0.125744,-0.074306,0.027706,-0.019262,-0.012344,0.014877,0.167003,0.070051,-0.021124,-0.042837,-0.019668,0.038931,0.017248,-0.045303
   -0.007233,   -0.009062,   -0.008029,   -0.015719,   0.055947,   -0.034680,   0.021111,   -0.057529,   0.002119,   0.005512,   0.033517,   -0.031197,   0.002342,   0.010382,   -0.007187,   -0.045962,   -0.001820,   0.020801,   -0.040836,   -0.028781,   -0.030096,   -0.023459,   0.006822,   -0.018686,   0.051660,0.144651,0.035449,0.023665,0.077597,0.047971,0.034342,-0.128520,-0.075278,0.028016,-0.020584,-0.012840,0.015014,0.170420,0.071386,-0.021527,-0.042837,-0.019668,0.038931,0.017248,-0.045303
   -0.006679,   -0.008681,   -0.008594,   -0.015865,   0.056625,   -0.034398,   0.021307,   -0.057819,   0.002046,   0.005858,   0.032960,   -0.031583,   0.002916,   0.010526,   -0.007872,   -0.046224,   -0.002004,   0.021073,   -0.040769,   -0.029106,   -0.029423,   -0.022992,   0.006127,   -0.018861,   0.052490,0.147074,0.036142,0.023739,0.078899,0.048405,0.034395,-0.131072,-0.076143,0.027916,-0.021853,-0.013307,0.014947,0.173483,0.072541,-0.021438,-0.042837,-0.019668,0.038931,0.017248,-0.045303
   -0.006391,   -0.008482,   -0.008904,   -0.015935,   0.056996,   -0.034260,   0.021403,   -0.057970,   0.002012,   0.006037,   0.032686,   -0.031776,   0.003217,   0.010592,   -0.008229,   -0.046349,   -0.002092,   0.021211,   -0.040739,   -0.029269,   -0.029095,   -0.022760,   0.005764,   -0.018939,   0.052919,0.148489,0.036499,0.023698,0.079615,0.048629,0.034376,-0.132516,-0.076620,0.027936,-0.022522,-0.013542,0.014958,0.175276,0.073219,-0.021465,-0.042837,-0.019668,0.038931,0.017248,-0.045303
   -0.005840,   -0.008109,   -0.009488,   -0.016081,   0.057695,   -0.033989,   0.021589,   -0.058261,   0.001941,   0.006385,   0.032148,   -0.032145,   0.003793,   0.010732,   -0.008917,   -0.046597,   -0.002264,   0.021478,   -0.040675,   -0.029587,   -0.028450,   -0.022315,   0.005066,   -0.019105,   0.053750,0.150959,0.037154,0.023538,0.080895,0.049042,0.034303,-0.135073,-0.077473,0.028063,-0.023735,-0.013976,0.015013,0.178426,0.074400,-0.021636,-0.042837,-0.019668,0.038931,0.017248,-0.045303
   -0.005077,   -0.007591,   -0.010264,   -0.016297,   0.058627,   -0.033598,   0.021857,   -0.058663,   0.001832,   0.006865,   0.031380,   -0.032672,   0.004583,   0.010945,   -0.009861,   -0.046961,   -0.002516,   0.021855,   -0.040574,   -0.030036,   -0.027524,   -0.021683,   0.004113,   -0.019363,   0.054890,0.154091,0.038153,0.023584,0.082600,0.049661,0.034346,-0.138379,-0.078679,0.027982,-0.025392,-0.014626,0.014946,0.182370,0.075978,-0.021582,-0.042837,-0.019668,0.038931,0.017248,-0.045303
   -0.004375,   -0.007115,   -0.010967,   -0.016498,   0.059473,   -0.033238,   0.022105,   -0.059028,   0.001730,   0.007302,   0.030671,   -0.033158,   0.005301,   0.011145,   -0.010722,   -0.047295,   -0.002749,   0.022197,   -0.040481,   -0.030444,   -0.026669,   -0.021097,   0.003245,   -0.019603,   0.055930,0.156847,0.038870,0.023798,0.084110,0.050133,0.034475,-0.141304,-0.079604,0.027738,-0.026862,-0.015132,0.014803,0.185858,0.077208,-0.021326,-0.042837,-0.019668,0.038931,0.017248,-0.045303
   -0.004370,   -0.007105,   -0.010961,   -0.016492,   0.059468,   -0.033237,   0.022109,   -0.059023,   0.001734,   0.007298,   0.030668,   -0.033167,   0.005293,   0.011138,   -0.010714,   -0.047296,   -0.002752,   0.022193,   -0.040484,   -0.030439,   -0.026666,   -0.021087,   0.003256,   -0.019594,   0.055919,0.156864,0.038746,0.024089,0.084115,0.050076,0.034622,-0.141323,-0.079499,0.027444,-0.026867,-0.015081,0.014666,0.185884,0.077092,-0.020960,-0.042837,-0.019668,0.038931,0.017248,-0.045303
   -0.004191,   -0.006986,   -0.011163,   -0.016541,   0.059708,   -0.033152,   0.022166,   -0.059121,   0.001710,   0.007414,   0.030499,   -0.033281,   0.005488,   0.011185,   -0.010944,   -0.047372,   -0.002803,   0.022281,   -0.040463,   -0.030543,   -0.026466,   -0.020951,   0.003021,   -0.019649,   0.056195,0.157711,0.038929,0.023893,0.084542,0.050196,0.034525,-0.142185,-0.079757,0.027629,-0.027262,-0.015207,0.014752,0.186959,0.077470,-0.021194,-0.042837,-0.019668,0.038931,0.017248,-0.045303
   -0.003747,   -0.006689,   -0.011645,   -0.016667,   0.060285,   -0.032935,   0.022313,   -0.059359,   0.001650,   0.007697,   0.030071,   -0.033571,   0.005959,   0.011304,   -0.011505,   -0.047568,   -0.002937,   0.022498,   -0.040409,   -0.030801,   -0.025954,   -0.020602,   0.002453,   -0.019791,   0.056869,0.159662,0.039412,0.023655,0.085549,0.050509,0.034410,-0.144194,-0.080404,0.027841,-0.028202,-0.015531,0.014848,0.189438,0.078378,-0.021468,-0.042837,-0.019668,0.038931,0.017248,-0.045303
   -0.003099,   -0.006254,   -0.012321,   -0.016854,   0.061098,   -0.032612,   0.022532,   -0.059700,   0.001558,   0.008105,   0.029436,   -0.034003,   0.006630,   0.011484,   -0.012308,   -0.047863,   -0.003139,   0.022811,   -0.040326,   -0.031175,   -0.025196,   -0.020085,   0.001646,   -0.020005,   0.057833,0.162318,0.040170,0.023583,0.086953,0.050991,0.034386,-0.146957,-0.081367,0.027875,-0.029531,-0.016024,0.014853,0.192797,0.079674,-0.021537,-0.042837,-0.019668,0.038931,0.017248,-0.045303
   -0.002434,   -0.005810,   -0.013027,   -0.017053,   0.061943,   -0.032281,   0.022756,   -0.060057,   0.001460,   0.008530,   0.028785,   -0.034443,   0.007330,   0.011675,   -0.013142,   -0.048165,   -0.003345,   0.023138,   -0.040237,   -0.031564,   -0.024419,   -0.019559,   0.000805,   -0.020233,   0.058834,0.165062,0.040945,0.023348,0.088403,0.051488,0.034279,-0.149803,-0.082356,0.028073,-0.030897,-0.016531,0.014933,0.196251,0.081007,-0.021809,-0.042837,-0.019668,0.038931,0.017248,-0.045303
   -0.001816,   -0.005398,   -0.013654,   -0.017247,   0.062696,   -0.031962,   0.022972,   -0.060385,   0.001361,   0.008922,   0.028163,   -0.034863,   0.007968,   0.011867,   -0.013905,   -0.048460,   -0.003546,   0.023443,   -0.040147,   -0.031927,   -0.023673,   -0.019056,   0.000039,   -0.020462,   0.059750,0.167334,0.041624,0.023378,0.089662,0.051927,0.034311,-0.152207,-0.083189,0.028017,-0.032114,-0.016985,0.014883,0.199096,0.082091,-0.021776,-0.042837,-0.019668,0.038931,0.017248,-0.045303
   -0.001471,   -0.005165,   -0.014022,   -0.017345,   0.063139,   -0.031795,   0.023086,   -0.060565,   0.001314,   0.009138,   0.027833,   -0.035088,   0.008325,   0.011959,   -0.014331,   -0.048610,   -0.003649,   0.023606,   -0.040105,   -0.032121,   -0.023281,   -0.018786,   -0.000390,   -0.020571,   0.060261,0.168780,0.041962,0.023362,0.090406,0.052151,0.034306,-0.153691,-0.083654,0.028007,-0.032801,-0.017213,0.014879,0.200931,0.082752,-0.021767,-0.042837,-0.019668,0.038931,0.017248,-0.045303
   -0.000854,   -0.004756,   -0.014678,   -0.017535,   0.063925,   -0.031488,   0.023291,   -0.060895,   0.001221,   0.009532,   0.027233,   -0.035491,   0.008971,   0.012141,   -0.015103,   -0.048887,   -0.003837,   0.023906,   -0.040021,   -0.032480,   -0.022566,   -0.018304,   -0.001165,   -0.020787,   0.061185,0.171233,0.042696,0.023144,0.091699,0.052617,0.034203,-0.156227,-0.084579,0.028191,-0.034010,-0.017679,0.014958,0.204018,0.083994,-0.022012,-0.042837,-0.019668,0.038931,0.017248,-0.045303
   0.000008,   -0.004183,   -0.015551,   -0.017817,   0.064972,   -0.031039,   0.023594,   -0.061356,   0.001076,   0.010082,   0.026364,   -0.036075,   0.009860,   0.012421,   -0.016165,   -0.049302,   -0.004119,   0.024334,   -0.039888,   -0.032989,   -0.021527,   -0.017610,   -0.002228,   -0.021122,   0.062456,0.174235,0.043626,0.023180,0.093389,0.053224,0.034246,-0.159413,-0.085704,0.028118,-0.035640,-0.018299,0.014889,0.207753,0.085433,-0.021974,-0.042837,-0.019668,0.038931,0.017248,-0.045303
   0.000785,   -0.003663,   -0.016326,   -0.018071,   0.065903,   -0.030634,   0.023869,   -0.061766,   0.000945,   0.010572,   0.025578,   -0.036605,   0.010652,   0.012674,   -0.017113,   -0.049674,   -0.004374,   0.024714,   -0.039770,   -0.033441,   -0.020589,   -0.016979,   -0.003174,   -0.021422,   0.063588,0.176866,0.044282,0.023450,0.094879,0.053684,0.034409,-0.162216,-0.086557,0.027816,-0.037080,-0.018776,0.014712,0.211034,0.086539,-0.021656,-0.042837,-0.019668,0.038931,0.017248,-0.045303
   0.000816,   -0.003640,   -0.016352,   -0.018075,   0.065935,   -0.030621,   0.023880,   -0.061777,   0.000944,   0.010586,   0.025551,   -0.036627,   0.010675,   0.012677,   -0.017142,   -0.049686,   -0.004384,   0.024724,   -0.039768,   -0.033453,   -0.020558,   -0.016953,   -0.003201,   -0.021425,   0.063621,0.176982,0.044247,0.023615,0.094936,0.053672,0.034494,-0.162336,-0.086541,0.027647,-0.037131,-0.018768,0.014634,0.211187,0.086536,-0.021444,-0.042837,-0.019668,0.038931,0.017248,-0.045303
   0.001022,   -0.003502,   -0.016582,   -0.018138,   0.066210,   -0.030522,   0.023946,   -0.061889,   0.000914,   0.010718,   0.025357,   -0.036759,   0.010896,   0.012735,   -0.017404,   -0.049774,   -0.004443,   0.024823,   -0.039742,   -0.033571,   -0.020328,   -0.016796,   -0.003465,   -0.021494,   0.063934,0.177866,0.044467,0.023492,0.095386,0.053816,0.034433,-0.163235,-0.086840,0.027755,-0.037542,-0.018910,0.014684,0.212300,0.086961,-0.021582,-0.042837,-0.019668,0.038931,0.017248,-0.045303
   0.001528,   -0.003169,   -0.017129,   -0.018300,   0.066865,   -0.030274,   0.024112,   -0.062161,   0.000835,   0.011043,   0.024870,   -0.037084,   0.011430,   0.012888,   -0.018039,   -0.049997,   -0.004593,   0.025069,   -0.039672,   -0.033864,   -0.019752,   -0.016409,   -0.004103,   -0.021675,   0.064692,0.179845,0.044999,0.023249,0.096423,0.054166,0.034317,-0.165273,-0.087538,0.027967,-0.038500,-0.019256,0.014777,0.214788,0.087917,-0.021861,-0.042837,-0.019668,0.038931,0.017248,-0.045303
   0.002269,   -0.002684,   -0.017904,   -0.018544,   0.067796,   -0.029900,   0.024360,   -0.062558,   0.000714,   0.011517,   0.024144,   -0.037566,   0.012198,   0.013124,   -0.018959,   -0.050336,   -0.004820,   0.025430,   -0.039563,   -0.034294,   -0.018890,   -0.015837,   -0.005021,   -0.021953,   0.065788,0.182458,0.045718,0.023062,0.097839,0.054647,0.034234,-0.168003,-0.088460,0.028115,-0.039824,-0.019733,0.014833,0.218076,0.089141,-0.022072,-0.042837,-0.019668,0.038931,0.017248,-0.045303
   0.003025,   -0.002188,   -0.018692,   -0.018795,   0.068742,   -0.029518,   0.024614,   -0.062962,   0.000589,   0.011999,   0.023404,   -0.038058,   0.012981,   0.013366,   -0.019894,   -0.050681,   -0.005051,   0.025797,   -0.039450,   -0.034732,   -0.018012,   -0.015252,   -0.005954,   -0.022240,   0.066901,0.185103,0.046444,0.022937,0.099274,0.055137,0.034185,-0.170765,-0.089397,0.028198,-0.041164,-0.020217,0.014857,0.221390,0.090381,-0.022206,-0.042837,-0.019668,0.038931,0.017248,-0.045303
   0.003714,   -0.001732,   -0.019396,   -0.019037,   0.069582,   -0.029157,   0.024856,   -0.063335,   0.000463,   0.012443,   0.022712,   -0.038520,   0.013695,   0.013606,   -0.020743,   -0.051012,   -0.005275,   0.026141,   -0.039336,   -0.035140,   -0.017191,   -0.014706,   -0.006801,   -0.022524,   0.067909,0.187370,0.047176,0.022922,0.100565,0.055620,0.034195,-0.173157,-0.090271,0.028185,-0.042399,-0.020697,0.014823,0.224170,0.091486,-0.022228,-0.042837,-0.019668,0.038931,0.017248,-0.045303
   0.004104,   -0.001474,   -0.019815,   -0.019162,   0.070085,   -0.028968,   0.024983,   -0.063542,   0.000403,   0.012690,   0.022341,   -0.038769,   0.014099,   0.013723,   -0.021225,   -0.051181,   -0.005389,   0.026326,   -0.039283,   -0.035360,   -0.016753,   -0.014410,   -0.007283,   -0.022661,   0.068483,0.188837,0.047557,0.022855,0.101329,0.055874,0.034164,-0.174662,-0.090780,0.028224,-0.043097,-0.020944,0.014842,0.226018,0.092193,-0.022280,-0.042837,-0.019668,0.038931,0.017248,-0.045303
   0.004825,   -0.001001,   -0.020574,   -0.019406,   0.070995,   -0.028606,   0.025223,   -0.063929,   0.000282,   0.013151,   0.021640,   -0.039235,   0.014846,   0.013956,   -0.022117,   -0.051507,   -0.005607,   0.026676,   -0.039175,   -0.035777,   -0.015927,   -0.013859,   -0.008171,   -0.022936,   0.069541,0.191345,0.048277,0.022712,0.102683,0.056355,0.034102,-0.177266,-0.091698,0.028324,-0.044350,-0.021410,0.014879,0.229148,0.093410,-0.022427,-0.042837,-0.019668,0.038931,0.017248,-0.045303
   0.005806,   -0.000361,   -0.021577,   -0.019768,   0.072190,   -0.028085,   0.025568,   -0.064468,   0.000092,   0.013791,   0.020651,   -0.039886,   0.015866,   0.014316,   -0.023329,   -0.051982,   -0.005925,   0.027171,   -0.039003,   -0.036363,   -0.014755,   -0.013091,   -0.009378,   -0.023362,   0.070976,0.194362,0.049313,0.022505,0.104432,0.057040,0.034018,-0.180459,-0.092911,0.028494,-0.046018,-0.022083,0.014921,0.232829,0.094911,-0.022682,-0.042837,-0.019668,0.038931,0.017248,-0.045303
   0.006614,   0.000178,   -0.022371,   -0.020055,   0.073140,   -0.027656,   0.025859,   -0.064897,   -0.000058,   0.014301,   0.019833,   -0.040437,   0.016680,   0.014603,   -0.024298,   -0.052374,   -0.006193,   0.027565,   -0.038867,   -0.036830,   -0.013789,   -0.012443,   -0.010338,   -0.023700,   0.072120,0.196689,0.049817,0.022981,0.105809,0.057433,0.034295,-0.182966,-0.093594,0.027988,-0.047347,-0.022486,0.014638,0.235698,0.095775,-0.022124,-0.042837,-0.019668,0.038931,0.017248,-0.045303
   0.006663,   0.000214,   -0.022419,   -0.020068,   0.073199,   -0.027634,   0.025876,   -0.064920,   -0.000063,   0.014329,   0.019788,   -0.040471,   0.016724,   0.014614,   -0.024353,   -0.052394,   -0.006207,   0.027585,   -0.038862,   -0.036854,   -0.013737,   -0.012404,   -0.010390,   -0.023712,   0.072184,0.196885,0.049862,0.023103,0.105908,0.057463,0.034358,-0.183162,-0.093656,0.027859,-0.047435,-0.022515,0.014581,0.235942,0.095867,-0.021961,-0.042837,-0.019668,0.038931,0.017248,-0.045303
   0.006904,   0.000371,   -0.022683,   -0.020148,   0.073515,   -0.027518,   0.025952,   -0.065048,   -0.000102,   0.014482,   0.019561,   -0.040622,   0.016978,   0.014688,   -0.024654,   -0.052496,   -0.006276,   0.027699,   -0.038828,   -0.036990,   -0.013469,   -0.012224,   -0.010692,   -0.023800,   0.072543,0.197773,0.050069,0.023001,0.106367,0.057608,0.034308,-0.184072,-0.093947,0.027944,-0.047850,-0.022652,0.014620,0.237066,0.096281,-0.022070,-0.042837,-0.019668,0.038931,0.017248,-0.045303
   0.007485,   0.000749,   -0.023307,   -0.020350,   0.074261,   -0.027231,   0.026142,   -0.065362,   -0.000200,   0.014856,   0.019003,   -0.040990,   0.017585,   0.014879,   -0.025378,   -0.052753,   -0.006446,   0.027980,   -0.038740,   -0.037325,   -0.012813,   -0.011789,   -0.011413,   -0.024024,   0.073399,0.199764,0.050599,0.022774,0.107432,0.057971,0.034200,-0.186130,-0.094646,0.028136,-0.048824,-0.022999,0.014703,0.239559,0.097227,-0.022326,-0.042837,-0.019668,0.038931,0.017248,-0.045303
   0.008304,   0.001283,   -0.024168,   -0.020645,   0.075290,   -0.026813,   0.026418,   -0.065808,   -0.000349,   0.015385,   0.018203,   -0.041518,   0.018436,   0.015163,   -0.026390,   -0.053130,   -0.006697,   0.028383,   -0.038607,   -0.037803,   -0.011874,   -0.011170,   -0.012417,   -0.024356,   0.074592,0.202424,0.051414,0.022560,0.108902,0.058521,0.034105,-0.188900,-0.095660,0.028305,-0.050184,-0.023523,0.014764,0.242840,0.098532,-0.022568,-0.042837,-0.019668,0.038931,0.017248,-0.045303
   0.009168,   0.001841,   -0.025076,   -0.020963,   0.076374,   -0.026371,   0.026708,   -0.066279,   -0.000510,   0.015946,   0.017358,   -0.042070,   0.019335,   0.015470,   -0.027460,   -0.053527,   -0.006959,   0.028808,   -0.038463,   -0.038308,   -0.010880,   -0.010520,   -0.013479,   -0.024716,   0.075855,0.205102,0.052224,0.022234,0.110391,0.059073,0.033948,-0.191697,-0.096672,0.028588,-0.051558,-0.024048,0.014881,0.246157,0.099837,-0.022943,-0.042837,-0.019668,0.038931,0.017248,-0.045303
   0.009906,   0.002327,   -0.025823,   -0.021244,   0.077262,   -0.025977,   0.026970,   -0.066684,   -0.000658,   0.016425,   0.016617,   -0.042562,   0.020093,   0.015749,   -0.028357,   -0.053884,   -0.007200,   0.029178,   -0.038330,   -0.038743,   -0.010010,   -0.009944,   -0.014369,   -0.025043,   0.076909,0.207216,0.052881,0.022288,0.111640,0.059532,0.033997,-0.193936,-0.097458,0.028504,-0.052747,-0.024495,0.014809,0.248710,0.100806,-0.022881,-0.042837,-0.019668,0.038931,0.017248,-0.045303
   0.010351,   0.002617,   -0.026301,   -0.021399,   0.077834,   -0.025760,   0.027114,   -0.066922,   -0.000733,   0.016708,   0.016195,   -0.042843,   0.020554,   0.015894,   -0.028906,   -0.054078,   -0.007328,   0.029389,   -0.038263,   -0.038995,   -0.009514,   -0.009613,   -0.014915,   -0.025213,   0.077558,0.208716,0.053274,0.022193,0.112434,0.059804,0.033951,-0.195477,-0.097985,0.028568,-0.053464,-0.024750,0.014840,0.250589,0.101528,-0.022963,-0.042837,-0.019668,0.038931,0.017248,-0.045303
   0.011139,   0.003131,   -0.027123,   -0.021687,   0.078817,   -0.025359,   0.027380,   -0.067346,   -0.000877,   0.017213,   0.015429,   -0.043349,   0.021363,   0.016169,   -0.029869,   -0.054437,   -0.007567,   0.029770,   -0.038135,   -0.039448,   -0.008618,   -0.009019,   -0.015867,   -0.025533,   0.078689,0.211135,0.053979,0.022147,0.113774,0.060293,0.033940,-0.197998,-0.098882,0.028566,-0.054693,-0.025210,0.014828,0.253581,0.102692,-0.022985,-0.042837,-0.019668,0.038931,0.017248,-0.045303
   0.012223,   0.003840,   -0.028234,   -0.022118,   0.080129,   -0.024773,   0.027769,   -0.067956,   -0.001108,   0.017930,   0.014340,   -0.044067,   0.022488,   0.016597,   -0.031195,   -0.054968,   -0.007923,   0.030325,   -0.037928,   -0.040099,   -0.007345,   -0.008185,   -0.017178,   -0.026033,   0.080237,0.214177,0.055141,0.021949,0.115598,0.061070,0.033862,-0.201204,-0.100199,0.028724,-0.056424,-0.025952,0.014856,0.257190,0.104270,-0.023225,-0.042837,-0.019668,0.038931,0.017248,-0.045303
   0.013111,   0.004425,   -0.029105,   -0.022462,   0.081165,   -0.024294,   0.028090,   -0.068435,   -0.001291,   0.018496,   0.013441,   -0.044666,   0.023381,   0.016940,   -0.032252,   -0.055401,   -0.008216,   0.030761,   -0.037763,   -0.040613,   -0.006294,   -0.007488,   -0.018222,   -0.026435,   0.081473,0.216349,0.055544,0.022369,0.116936,0.061425,0.034112,-0.203564,-0.100768,0.028274,-0.057704,-0.026307,0.014597,0.259854,0.104975,-0.022736,-0.042837,-0.019668,0.038931,0.017248,-0.045303
   0.013169,   0.004467,   -0.029162,   -0.022478,   0.081234,   -0.024267,   0.028110,   -0.068462,   -0.001298,   0.018529,   0.013388,   -0.044705,   0.023433,   0.016954,   -0.032315,   -0.055425,   -0.008234,   0.030784,   -0.037757,   -0.040641,   -0.006232,   -0.007441,   -0.018283,   -0.026450,   0.081547,0.216556,0.055591,0.022519,0.117041,0.061458,0.034190,-0.203772,-0.100836,0.028114,-0.057797,-0.026338,0.014527,0.260113,0.105073,-0.022534,-0.042837,-0.019668,0.038931,0.017248,-0.045303
   0.013444,   0.004644,   -0.029469,   -0.022578,   0.081600,   -0.024135,   0.028196,   -0.068612,   -0.001346,   0.018707,   0.013130,   -0.044873,   0.023726,   0.017047,   -0.032663,   -0.055542,   -0.008310,   0.030917,   -0.037715,   -0.040799,   -0.005931,   -0.007242,   -0.018630,   -0.026559,   0.081957,0.217499,0.055851,0.022308,0.117534,0.061635,0.034083,-0.204735,-0.101182,0.028307,-0.058238,-0.026500,0.014615,0.261295,0.105553,-0.022777,-0.042837,-0.019668,0.038931,0.017248,-0.045303
   0.014090,   0.005062,   -0.030161,   -0.022819,   0.082425,   -0.023812,   0.028408,   -0.068964,   -0.001464,   0.019124,   0.012511,   -0.045280,   0.024398,   0.017275,   -0.033461,   -0.055829,   -0.008500,   0.031231,   -0.037609,   -0.041171,   -0.005209,   -0.006767,   -0.019421,   -0.026823,   0.082894,0.219501,0.056424,0.022081,0.118626,0.062036,0.033973,-0.206807,-0.101923,0.028495,-0.059226,-0.026869,0.014696,0.263777,0.106533,-0.023026,-0.042837,-0.019668,0.038931,0.017248,-0.045303
   0.014990,   0.005646,   -0.031097,   -0.023165,   0.083539,   -0.023347,   0.028715,   -0.069456,   -0.001641,   0.019707,   0.011633,   -0.045857,   0.025323,   0.017607,   -0.034558,   -0.056246,   -0.008776,   0.031672,   -0.037452,   -0.041693,   -0.004186,   -0.006095,   -0.020501,   -0.027209,   0.084174,0.222063,0.057174,0.021968,0.120086,0.062572,0.033931,-0.209488,-0.102867,0.028559,-0.060567,-0.027368,0.014706,0.266910,0.107726,-0.023141,-0.042837,-0.019668,0.038931,0.017248,-0.045303
   0.015934,   0.006256,   -0.032094,   -0.023537,   0.084721,   -0.022858,   0.029035,   -0.069981,   -0.001831,   0.020327,   0.010712,   -0.046458,   0.026307,   0.017965,   -0.035720,   -0.056684,   -0.009064,   0.032142,   -0.037283,   -0.042248,   -0.003116,   -0.005397,   -0.021649,   -0.027625,   0.085530,0.224767,0.058081,0.021577,0.121622,0.063195,0.033738,-0.212302,-0.103964,0.028904,-0.061972,-0.027943,0.014850,0.270195,0.109101,-0.023590,-0.042837,-0.019668,0.038931,0.017248,-0.045303
   0.016739,   0.006784,   -0.032908,   -0.023865,   0.085681,   -0.022420,   0.029327,   -0.070431,   -0.002008,   0.020854,   0.009905,   -0.046993,   0.027131,   0.018291,   -0.036688,   -0.057078,   -0.009330,   0.032550,   -0.037124,   -0.042724,   -0.002178,   -0.004777,   -0.022606,   -0.028004,   0.086655,0.226796,0.058703,0.021630,0.122868,0.063652,0.033786,-0.214456,-0.104707,0.028819,-0.063151,-0.028378,0.014775,0.272609,0.109992,-0.023523,-0.042837,-0.019668,0.038931,0.017248,-0.045303
   0.017233,   0.007108,   -0.033439,   -0.024048,   0.086314,   -0.022178,   0.029488,   -0.070697,   -0.002096,   0.021169,   0.009438,   -0.047304,   0.027640,   0.018461,   -0.037292,   -0.057293,   -0.009473,   0.032785,   -0.037046,   -0.043003,   -0.001635,   -0.004414,   -0.023203,   -0.028200,   0.087362,0.228354,0.059160,0.021578,0.123705,0.063968,0.033764,-0.216054,-0.105300,0.028833,-0.063901,-0.028663,0.014782,0.274535,0.110785,-0.023545,-0.042837,-0.019668,0.038931,0.017248,-0.045303
   0.018133,   0.007688,   -0.034383,   -0.024402,   0.087435,   -0.021714,   0.029792,   -0.071192,   -0.002277,   0.021754,   0.008565,   -0.047874,   0.028567,   0.018800,   -0.038389,   -0.057707,   -0.009745,   0.033226,   -0.036886,   -0.043525,   -0.000622,   -0.003751,   -0.024284,   -0.028592,   0.088640,0.230826,0.059904,0.021337,0.125110,0.064501,0.033645,-0.218633,-0.106235,0.029024,-0.065176,-0.029149,0.014862,0.277560,0.111974,-0.023797,-0.042837,-0.019668,0.038931,0.017248,-0.045303
   0.019318,   0.008465,   -0.035579,   -0.024901,   0.088838,   -0.021060,   0.030228,   -0.071863,   -0.002549,   0.022538,   0.007374,   -0.048662,   0.029780,   0.019296,   -0.039808,   -0.058295,   -0.010141,   0.033833,   -0.036642,   -0.044232,   0.000753,   -0.002846,   -0.025681,   -0.029165,   0.090275,0.233664,0.060932,0.021354,0.126895,0.065234,0.033680,-0.221646,-0.107401,0.028963,-0.066866,-0.029840,0.014784,0.280882,0.113326,-0.023767,-0.042837,-0.019668,0.038931,0.017248,-0.045303
   0.020238,   0.009072,   -0.036488,   -0.025283,   0.089907,   -0.020553,   0.030569,   -0.072375,   -0.002757,   0.023136,   0.006446,   -0.049282,   0.030709,   0.019677,   -0.040897,   -0.058751,   -0.010450,   0.034295,   -0.036457,   -0.044772,   0.001825,   -0.002134,   -0.026751,   -0.029604,   0.091531,0.235747,0.061407,0.021705,0.128224,0.065636,0.033898,-0.223898,-0.108018,0.028583,-0.068131,-0.030228,0.014553,0.283366,0.114060,-0.023359,-0.042837,-0.019668,0.038931,0.017248,-0.045303
   0.020306,   0.009120,   -0.036559,   -0.025305,   0.089992,   -0.020521,   0.030591,   -0.072408,   -0.002767,   0.023176,   0.006383,   -0.049326,   0.030774,   0.019696,   -0.040975,   -0.058779,   -0.010470,   0.034324,   -0.036448,   -0.044806,   0.001898,   -0.002081,   -0.026827,   -0.029626,   0.091622,0.235974,0.061467,0.021807,0.128341,0.065678,0.033951,-0.224127,-0.108100,0.028470,-0.068234,-0.030265,0.014504,0.283650,0.114177,-0.023216,-0.042837,-0.019668,0.038931,0.017248,-0.045303
   0.020608,   0.009314,   -0.036894,   -0.025421,   0.090391,   -0.020376,   0.030686,   -0.072572,   -0.002822,   0.023371,   0.006101,   -0.049511,   0.031093,   0.019803,   -0.041352,   -0.058907,   -0.010554,   0.034469,   -0.036400,   -0.044978,   0.002226,   -0.001865,   -0.027203,   -0.029750,   0.092065,0.236929,0.061743,0.021619,0.128846,0.065870,0.033855,-0.225103,-0.108465,0.028638,-0.068681,-0.030435,0.014582,0.284840,0.114675,-0.023428,-0.042837,-0.019668,0.038931,0.017248,-0.045303
   0.021326,   0.009778,   -0.037664,   -0.025705,   0.091304,   -0.020014,   0.030924,   -0.072968,   -0.002963,   0.023838,   0.005415,   -0.049960,   0.031839,   0.020071,   -0.042233,   -0.059228,   -0.010766,   0.034820,   -0.036274,   -0.045392,   0.003019,   -0.001344,   -0.028072,   -0.030059,   0.093089,0.238959,0.062348,0.021334,0.129977,0.066303,0.033712,-0.227205,-0.109240,0.028880,-0.069696,-0.030823,0.014688,0.287333,0.115681,-0.023743,-0.042837,-0.019668,0.038931,0.017248,-0.045303
   0.022317,   0.010420,   -0.038699,   -0.026109,   0.092526,   -0.019495,   0.031266,   -0.073520,   -0.003172,   0.024486,   0.004451,   -0.050593,   0.032858,   0.020458,   -0.043432,   -0.059692,   -0.011073,   0.035313,   -0.036089,   -0.045971,   0.004128,   -0.000617,   -0.029248,   -0.030504,   0.094473,0.241540,0.063165,0.021146,0.131487,0.066897,0.033628,-0.229903,-0.110243,0.029015,-0.071071,-0.031360,0.014730,0.290438,0.116917,-0.023940,-0.042837,-0.019668,0.038931,0.017248,-0.045303
   0.023349,   0.011091,   -0.039779,   -0.026535,   0.093798,   -0.018952,   0.031624,   -0.074099,   -0.003393,   0.025165,   0.003447,   -0.051253,   0.033922,   0.020868,   -0.044680,   -0.060176,   -0.011394,   0.035830,   -0.035892,   -0.046576,   0.005281,   0.000141,   -0.030472,   -0.030973,   0.095909,0.244206,0.064028,0.020925,0.133057,0.067525,0.033526,-0.232687,-0.111293,0.029181,-0.072502,-0.031928,0.014786,0.293624,0.118203,-0.024176,-0.042837,-0.019668,0.038931,0.017248,-0.045303
   0.024199,   0.011649,   -0.040637,   -0.026903,   0.094801,   -0.018482,   0.031939,   -0.074582,   -0.003595,   0.025727,   0.002597,   -0.051817,   0.034788,   0.021233,   -0.045689,   -0.060597,   -0.011678,   0.036264,   -0.035712,   -0.047080,   0.006260,   0.000788,   -0.031468,   -0.031393,   0.097070,0.246116,0.064659,0.020961,0.134269,0.067996,0.033560,-0.234711,-0.112025,0.029114,-0.073642,-0.032367,0.014723,0.295862,0.119058,-0.024115,-0.042837,-0.019668,0.038931,0.017248,-0.045303
   0.024743,   0.012004,   -0.041219,   -0.027116,   0.095492,   -0.018212,   0.032117,   -0.074876,   -0.003699,   0.026074,   0.002083,   -0.052158,   0.035345,   0.021430,   -0.046349,   -0.060836,   -0.011836,   0.036523,   -0.035621,   -0.047387,   0.006854,   0.001184,   -0.032117,   -0.031620,   0.097836,0.247652,0.065107,0.020916,0.135114,0.068320,0.033540,-0.236295,-0.112610,0.029117,-0.074392,-0.032652,0.014725,0.297758,0.119832,-0.024124,-0.042837,-0.019668,0.038931,0.017248,-0.045303
   0.025698,   0.012624,   -0.042227,   -0.027511,   0.096678,   -0.017714,   0.032446,   -0.075412,   -0.003903,   0.026702,   0.001163,   -0.052763,   0.036329,   0.021806,   -0.047503,   -0.061278,   -0.012130,   0.037000,   -0.035441,   -0.047944,   0.007907,   0.001877,   -0.033247,   -0.032050,   0.099162,0.250154,0.065982,0.020653,0.136569,0.068942,0.033409,-0.238889,-0.113666,0.029327,-0.075706,-0.033206,0.014810,0.300742,0.121130,-0.024398,-0.042837,-0.019668,0.038931,0.017248,-0.045303
   0.026992,   0.013473,   -0.043531,   -0.028089,   0.098194,   -0.016984,   0.032933,   -0.076162,   -0.004225,   0.027570,   -0.000136,   -0.053622,   0.037648,   0.022380,   -0.049033,   -0.061931,   -0.012569,   0.037672,   -0.035154,   -0.048721,   0.009390,   0.002854,   -0.034750,   -0.032705,   0.100905,0.252878,0.066961,0.020596,0.138356,0.069674,0.033396,-0.241785,-0.114762,0.029337,-0.077389,-0.033885,0.014771,0.303879,0.122364,-0.024436,-0.042837,-0.019668,0.038931,0.017248,-0.045303
   0.027963,   0.014119,   -0.044489,   -0.028515,   0.099311,   -0.016438,   0.033303,   -0.076713,   -0.004461,   0.028208,   -0.001115,   -0.054280,   0.038627,   0.022805,   -0.050168,   -0.062420,   -0.012903,   0.038167,   -0.034943,   -0.049294,   0.010507,   0.003601,   -0.035861,   -0.033189,   0.102197,0.254847,0.067402,0.020999,0.139671,0.070071,0.033644,-0.243920,-0.115329,0.028903,-0.078638,-0.034261,0.014510,0.306183,0.123016,-0.023962,-0.042837,-0.019668,0.038931,0.017248,-0.045303
   0.028039,   0.014170,   -0.044569,   -0.028542,   0.099407,   -0.016402,   0.033328,   -0.076751,   -0.004474,   0.028253,   -0.001185,   -0.054329,   0.038701,   0.022829,   -0.050256,   -0.062451,   -0.012925,   0.038200,   -0.034932,   -0.049334,   0.010588,   0.003658,   -0.035948,   -0.033216,   0.102300,0.255082,0.067469,0.021072,0.139793,0.070118,0.033682,-0.244158,-0.115419,0.028819,-0.078744,-0.034301,0.014475,0.306477,0.123143,-0.023855,-0.042837,-0.019668,0.038931,0.017248,-0.045303
   0.028380,   0.014392,   -0.044945,   -0.028677,   0.099852,   -0.016238,   0.033436,   -0.076936,   -0.004538,   0.028471,   -0.001502,   -0.054538,   0.039056,   0.022952,   -0.050675,   -0.062596,   -0.013021,   0.038363,   -0.034876,   -0.049525,   0.010953,   0.003901,   -0.036363,   -0.033358,   0.102787,0.256084,0.067770,0.020943,0.140332,0.070332,0.033617,-0.245184,-0.115816,0.028922,-0.079218,-0.034486,0.014522,0.307719,0.123677,-0.023988,-0.042837,-0.019668,0.038931,0.017248,-0.045303
   0.029154,   0.014894,   -0.045777,   -0.028997,   0.100830,   -0.015845,   0.033696,   -0.077368,   -0.004699,   0.028977,   -0.002237,   -0.055023,   0.039858,   0.023253,   -0.051616,   -0.062945,   -0.013252,   0.038746,   -0.034734,   -0.049974,   0.011793,   0.004456,   -0.037285,   -0.033701,   0.103867,0.258149,0.068436,0.020651,0.141509,0.070816,0.033470,-0.247318,-0.116650,0.029166,-0.080268,-0.034910,0.014626,0.310210,0.124733,-0.024308,-0.042837,-0.019668,0.038931,0.017248,-0.045303
   0.030203,   0.015575,   -0.046873,   -0.029447,   0.102114,   -0.015287,   0.034064,   -0.077962,   -0.004935,   0.029670,   -0.003254,   -0.055691,   0.040934,   0.023684,   -0.052871,   -0.063441,   -0.013581,   0.039274,   -0.034524,   -0.050589,   0.012951,   0.005216,   -0.038513,   -0.034191,   0.105301,0.260635,0.069267,0.020411,0.143007,0.071434,0.033351,-0.249917,-0.117650,0.029354,-0.081624,-0.035458,0.014695,0.313158,0.125936,-0.024560,-0.042837,-0.019668,0.038931,0.017248,-0.045303
   0.031317,   0.016301,   -0.048031,   -0.029930,   0.103468,   -0.014690,   0.034460,   -0.078595,   -0.005190,   0.030407,   -0.004338,   -0.056406,   0.042074,   0.024148,   -0.054201,   -0.063972,   -0.013935,   0.039837,   -0.034298,   -0.051244,   0.014185,   0.006029,   -0.039813,   -0.034719,   0.106815,0.263193,0.070070,0.020229,0.144570,0.072052,0.033266,-0.252601,-0.118633,0.029479,-0.083041,-0.036006,0.014732,0.316184,0.127113,-0.024739,-0.042837,-0.019668,0.038931,0.017248,-0.045303
   0.032219,   0.016898,   -0.048949,   -0.030342,   0.104529,   -0.014182,   0.034803,   -0.079122,   -0.005420,   0.031012,   -0.005236,   -0.057006,   0.042995,   0.024554,   -0.055262,   -0.064425,   -0.014242,   0.040307,   -0.034094,   -0.051785,   0.015204,   0.006708,   -0.040856,   -0.035179,   0.108018,0.265090,0.070759,0.020202,0.145810,0.072571,0.033261,-0.254596,-0.119408,0.029471,-0.084202,-0.036480,0.014699,0.318354,0.127997,-0.024739,-0.042837,-0.019668,0.038931,0.017248,-0.045303
   0.032821,   0.017291,   -0.049597,   -0.030588,   0.105294,   -0.013882,   0.035002,   -0.079452,   -0.005541,   0.031399,   -0.005800,   -0.057380,   0.043612,   0.024782,   -0.055986,   -0.064690,   -0.014419,   0.040598,   -0.033987,   -0.052126,   0.015849,   0.007139,   -0.041567,   -0.035438,   0.108852,0.266693,0.071284,0.020077,0.146707,0.072949,0.033196,-0.256245,-0.120072,0.029550,-0.084992,-0.036804,0.014739,0.320306,0.128854,-0.024839,-0.042837,-0.019668,0.038931,0.017248,-0.045303
   0.033859,   0.017971,   -0.050681,   -0.031035,   0.106560,   -0.013332,   0.035368,   -0.080038,   -0.005775,   0.032082,   -0.006800,   -0.058044,   0.044669,   0.025208,   -0.057219,   -0.065179,   -0.014745,   0.041118,   -0.033780,   -0.052731,   0.016982,   0.007890,   -0.042768,   -0.035919,   0.110250,0.269120,0.072080,0.019978,0.148172,0.073553,0.033152,-0.258779,-0.121045,0.029588,-0.086310,-0.037333,0.014744,0.323176,0.130030,-0.024904,-0.042837,-0.019668,0.038931,0.017248,-0.045303
   0.035236,   0.018878,   -0.052074,   -0.031685,   0.108163,   -0.012536,   0.035901,   -0.080859,   -0.006146,   0.033022,   -0.008176,   -0.058959,   0.046073,   0.025851,   -0.058829,   -0.065886,   -0.015223,   0.041850,   -0.033451,   -0.053568,   0.018533,   0.008917,   -0.044345,   -0.036644,   0.112061,0.271797,0.073134,0.019761,0.149992,0.074352,0.033038,-0.261603,-0.122192,0.029758,-0.088017,-0.038061,0.014787,0.326175,0.131285,-0.025109,-0.042837,-0.019668,0.038931,0.017248,-0.045303
   0.036228,   0.019545,   -0.053049,   -0.032140,   0.109286,   -0.011966,   0.036293,   -0.081434,   -0.006405,   0.033681,   -0.009176,   -0.059639,   0.047068,   0.026305,   -0.059971,   -0.066395,   -0.015576,   0.042365,   -0.033221,   -0.054158,   0.019658,   0.009679,   -0.045459,   -0.037156,   0.113342,0.273593,0.073532,0.020256,0.151257,0.074732,0.033339,-0.263561,-0.122694,0.029231,-0.089222,-0.038418,0.014477,0.328235,0.131838,-0.024524,-0.042837,-0.019668,0.038931,0.017248,-0.045303
   0.036313,   0.019604,   -0.053138,   -0.032171,   0.109392,   -0.011927,   0.036321,   -0.081475,   -0.006418,   0.033730,   -0.009253,   -0.059694,   0.047149,   0.026332,   -0.060068,   -0.066430,   -0.015601,   0.042402,   -0.033209,   -0.054201,   0.019747,   0.009743,   -0.045553,   -0.037185,   0.113454,0.273845,0.073611,0.020376,0.151389,0.074788,0.033404,-0.263817,-0.122799,0.029097,-0.089336,-0.038465,0.014419,0.328549,0.131983,-0.024353,-0.042837,-0.019668,0.038931,0.017248,-0.045303
   0.036676,   0.019841,   -0.053541,   -0.032320,   0.109866,   -0.011752,   0.036437,   -0.081674,   -0.006489,   0.033963,   -0.009587,   -0.059915,   0.047527,   0.026468,   -0.060511,   -0.066584,   -0.015703,   0.042576,   -0.033147,   -0.054406,   0.020129,   0.009998,   -0.045991,   -0.037340,   0.113966,0.274850,0.073937,0.020198,0.151938,0.075022,0.033310,-0.264846,-0.123220,0.029249,-0.089815,-0.038663,0.014489,0.329786,0.132542,-0.024547,-0.042837,-0.019668,0.038931,0.017248,-0.045303
   0.037511,   0.020386,   -0.054434,   -0.032680,   0.110910,   -0.011322,   0.036723,   -0.082144,   -0.006672,   0.034510,   -0.010380,   -0.060440,   0.048387,   0.026805,   -0.061512,   -0.066966,   -0.015957,   0.042992,   -0.032985,   -0.054889,   0.021026,   0.010594,   -0.046970,   -0.037722,   0.115105,0.276876,0.074584,0.019960,0.153127,0.075514,0.033189,-0.266947,-0.124035,0.029435,-0.090869,-0.039085,0.014567,0.332211,0.133556,-0.024795,-0.042837,-0.019668,0.038931,0.017248,-0.045303
   0.038633,   0.021122,   -0.055609,   -0.033181,   0.112274,   -0.010718,   0.037127,   -0.082792,   -0.006939,   0.035257,   -0.011462,   -0.061159,   0.049534,   0.027284,   -0.062840,   -0.067504,   -0.016318,   0.043567,   -0.032748,   -0.055553,   0.022242,   0.011401,   -0.048262,   -0.038259,   0.116599,0.279388,0.075464,0.019724,0.154685,0.076184,0.033069,-0.269566,-0.125078,0.029612,-0.092274,-0.039669,0.014631,0.335130,0.134784,-0.025031,-0.042837,-0.019668,0.038931,0.017248,-0.045303
   0.039842,   0.021912,   -0.056875,   -0.033733,   0.113740,   -0.010057,   0.037565,   -0.083498,   -0.007236,   0.036071,   -0.012634,   -0.061933,   0.050775,   0.027812,   -0.064272,   -0.068090,   -0.016709,   0.044192,   -0.032485,   -0.056274,   0.023558,   0.012270,   -0.049657,   -0.038852,   0.118210,0.281990,0.076392,0.019318,0.156320,0.076895,0.032847,-0.272281,-0.126170,0.029959,-0.093745,-0.040287,0.014782,0.338145,0.136058,-0.025456,-0.042837,-0.019668,0.038931,0.017248,-0.045303
   0.040746,   0.022518,   -0.057787,   -0.034163,   0.114784,   -0.009537,   0.037921,   -0.084034,   -0.007482,   0.036682,   -0.013531,   -0.062542,   0.051689,   0.028236,   -0.065316,   -0.068552,   -0.017028,   0.044670,   -0.032268,   -0.056818,   0.024567,   0.012952,   -0.050682,   -0.039328,   0.119380,0.283693,0.076985,0.019409,0.157488,0.077371,0.032905,-0.274078,-0.126833,0.029833,-0.094844,-0.040720,0.014691,0.340061,0.136793,-0.025313,-0.042837,-0.019668,0.038931,0.017248,-0.045303
   0.041376,   0.022933,   -0.058467,   -0.034429,   0.115579,   -0.009222,   0.038133,   -0.084381,   -0.007613,   0.037087,   -0.014118,   -0.062936,   0.052331,   0.028481,   -0.066065,   -0.068831,   -0.017215,   0.044976,   -0.032152,   -0.057175,   0.025230,   0.013400,   -0.051413,   -0.039603,   0.120232,0.285294,0.077554,0.019326,0.158400,0.077784,0.032860,-0.275722,-0.127538,0.029866,-0.095643,-0.041069,0.014711,0.341986,0.137686,-0.025354,-0.042837,-0.019668,0.038931,0.017248,-0.045303
   0.042475,   0.023659,   -0.059616,   -0.034923,   0.116911,   -0.008630,   0.038531,   -0.085015,   -0.007875,   0.037817,   -0.015174,   -0.063642,   0.053448,   0.028949,   -0.067355,   -0.069357,   -0.017570,   0.045537,   -0.031919,   -0.057822,   0.026411,   0.014190,   -0.052666,   -0.040126,   0.121678,0.287680,0.078378,0.019215,0.159888,0.078425,0.032804,-0.278213,-0.128529,0.029910,-0.096976,-0.041621,0.014723,0.344761,0.138854,-0.025418,-0.042837,-0.019668,0.038931,0.017248,-0.045303
   0.043918,   0.024625,   -0.061073,   -0.035631,   0.118568,   -0.007774,   0.039113,   -0.085896,   -0.008291,   0.038817,   -0.016611,   -0.064612,   0.054912,   0.029649,   -0.069016,   -0.070117,   -0.018091,   0.046322,   -0.031552,   -0.058711,   0.028007,   0.015263,   -0.054283,   -0.040904,   0.123515,0.290296,0.079451,0.019096,0.161744,0.079263,0.032736,-0.280960,-0.129671,0.029977,-0.098721,-0.042379,0.014718,0.347607,0.140067,-0.025490,-0.042837,-0.019668,0.038931,0.017248,-0.045303
   0.044947,   0.025321,   -0.062082,   -0.036127,   0.119719,   -0.007169,   0.039531,   -0.086506,   -0.008579,   0.039508,   -0.017647,   -0.065321,   0.055940,   0.030144,   -0.070185,   -0.070654,   -0.018466,   0.046866,   -0.031297,   -0.059327,   0.029162,   0.016050,   -0.055424,   -0.041455,   0.124813,0.291917,0.079781,0.019566,0.162952,0.079612,0.033017,-0.282740,-0.130088,0.029477,-0.099870,-0.042703,0.014426,0.349446,0.140507,-0.024922,-0.042837,-0.019668,0.038931,0.017248,-0.045303
   0.045038,   0.025384,   -0.062178,   -0.036161,   0.119834,   -0.007128,   0.039561,   -0.086550,   -0.008594,   0.039561,   -0.017728,   -0.065379,   0.056027,   0.030173,   -0.070288,   -0.070691,   -0.018492,   0.046905,   -0.031283,   -0.059373,   0.029255,   0.016118,   -0.055524,   -0.041487,   0.124931,0.292177,0.079867,0.019677,0.163089,0.079673,0.033078,-0.283003,-0.130202,0.029350,-0.099988,-0.042753,0.014372,0.349769,0.140662,-0.024760,-0.042837,-0.019668,0.038931,0.017248,-0.045303
   0.045438,   0.025645,   -0.062626,   -0.036333,   0.120357,   -0.006936,   0.039688,   -0.086772,   -0.008675,   0.039818,   -0.018094,   -0.065622,   0.056445,   0.030328,   -0.070774,   -0.070861,   -0.018605,   0.047100,   -0.031211,   -0.059600,   0.029668,   0.016395,   -0.056004,   -0.041663,   0.125489,0.293232,0.080227,0.019407,0.163675,0.079937,0.032932,-0.284084,-0.130662,0.029593,-0.100495,-0.042971,0.014484,0.351059,0.141265,-0.025065,-0.042837,-0.019668,0.038931,0.017248,-0.045303
   0.046331,   0.026233,   -0.063585,   -0.036733,   0.121468,   -0.006471,   0.040001,   -0.087284,   -0.008881,   0.040409,   -0.018936,   -0.066185,   0.057362,   0.030701,   -0.071834,   -0.071275,   -0.018883,   0.047552,   -0.031029,   -0.060122,   0.030610,   0.017025,   -0.057034,   -0.042078,   0.126678,0.295297,0.080966,0.019122,0.164916,0.080497,0.032777,-0.286219,-0.131563,0.029821,-0.101591,-0.043445,0.014587,0.353487,0.142361,-0.025354,-0.042837,-0.019668,0.038931,0.017248,-0.045303
   0.047471,   0.026990,   -0.064773,   -0.037260,   0.122836,   -0.005846,   0.040425,   -0.087951,   -0.009166,   0.041173,   -0.020034,   -0.066924,   0.058520,   0.031204,   -0.073163,   -0.071831,   -0.019262,   0.048145,   -0.030775,   -0.060801,   0.031830,   0.017846,   -0.058322,   -0.042637,   0.128156,0.297654,0.081796,0.019009,0.166435,0.081157,0.032721,-0.288681,-0.132541,0.029871,-0.102959,-0.044014,0.014592,0.356184,0.143485,-0.025433,-0.042837,-0.019668,0.038931,0.017248,-0.045303
   0.048722,   0.027819,   -0.066084,   -0.037851,   0.124339,   -0.005151,   0.040893,   -0.088696,   -0.009490,   0.042024,   -0.021239,   -0.067731,   0.059797,   0.031768,   -0.074624,   -0.072448,   -0.019679,   0.048805,   -0.030488,   -0.061555,   0.033165,   0.018739,   -0.059739,   -0.043262,   0.129776,0.300217,0.082787,0.018637,0.168097,0.081927,0.032508,-0.291342,-0.133677,0.030183,-0.104455,-0.044680,0.014728,0.359083,0.144777,-0.025807,-0.042837,-0.019668,0.038931,0.017248,-0.045303
   0.049669,   0.028461,   -0.067038,   -0.038320,   0.125421,   -0.004594,   0.041278,   -0.089269,   -0.009764,   0.042671,   -0.022177,   -0.068376,   0.060751,   0.032229,   -0.075701,   -0.072943,   -0.020024,   0.049315,   -0.030246,   -0.062130,   0.034206,   0.019454,   -0.060794,   -0.043773,   0.130969,0.301843,0.083342,0.018760,0.169256,0.082394,0.032577,-0.293058,-0.134295,0.030019,-0.105543,-0.045098,0.014627,0.360891,0.145449,-0.025606,-0.042837,-0.019668,0.038931,0.017248,-0.045303
   0.050344,   0.028912,   -0.067766,   -0.038615,   0.126267,   -0.004254,   0.041510,   -0.089646,   -0.009911,   0.043106,   -0.022802,   -0.068801,   0.061437,   0.032499,   -0.076495,   -0.073245,   -0.020230,   0.049647,   -0.030116,   -0.062515,   0.034905,   0.019931,   -0.061566,   -0.044073,   0.131862,0.303473,0.083928,0.018698,0.170209,0.082834,0.032544,-0.294735,-0.135021,0.030025,-0.106375,-0.045464,0.014633,0.362829,0.146355,-0.025617,-0.042837,-0.019668,0.038931,0.017248,-0.045303
   0.051505,   0.029682,   -0.068984,   -0.039160,   0.127665,   -0.003617,   0.041941,   -0.090331,   -0.010206,   0.043889,   -0.023912,   -0.069547,   0.062616,   0.033014,   -0.077845,   -0.073810,   -0.020613,   0.050254,   -0.029855,   -0.063208,   0.036133,   0.020756,   -0.062872,   -0.044642,   0.133357,0.305834,0.084802,0.018433,0.171728,0.083524,0.032386,-0.297191,-0.136047,0.030223,-0.107729,-0.046050,0.014728,0.365527,0.147540,-0.025849,-0.042837,-0.019668,0.038931,0.017248,-0.045303
   0.052999,   0.030698,   -0.070478,   -0.039921,   0.129347,   -0.002708,   0.042569,   -0.091260,   -0.010664,   0.044932,   -0.025400,   -0.070568,   0.064116,   0.033767,   -0.079531,   -0.074616,   -0.021175,   0.051080,   -0.029450,   -0.064134,   0.037768,   0.021875,   -0.064512,   -0.045470,   0.135200,0.308206,0.085732,0.018534,0.173519,0.084306,0.032430,-0.299696,-0.137025,0.030068,-0.109421,-0.046757,0.014623,0.368058,0.148531,-0.025643,-0.042837,-0.019668,0.038931,0.017248,-0.045303
   0.054021,   0.031400,   -0.071485,   -0.040434,   0.130483,   -0.002091,   0.043002,   -0.091885,   -0.010970,   0.045634,   -0.026426,   -0.071281,   0.065137,   0.034278,   -0.080680,   -0.075165,   -0.021564,   0.051638,   -0.029178,   -0.064759,   0.038893,   0.022654,   -0.065627,   -0.046031,   0.136455,0.309752,0.086124,0.018970,0.174717,0.084692,0.032689,-0.301381,-0.137483,0.029600,-0.110563,-0.047111,0.014349,0.369759,0.149004,-0.025102,-0.042837,-0.019668,0.038931,0.017248,-0.045303
   0.054121,   0.031468,   -0.071595,   -0.040474,   0.130612,   -0.002047,   0.043034,   -0.091936,   -0.010988,   0.045693,   -0.026513,   -0.071342,   0.065236,   0.034312,   -0.080795,   -0.075204,   -0.021591,   0.051682,   -0.029162,   -0.064811,   0.038992,   0.022725,   -0.065740,   -0.046068,   0.136586,0.310030,0.086225,0.019009,0.174866,0.084764,0.032710,-0.301663,-0.137613,0.029546,-0.110690,-0.047169,0.014328,0.370103,0.149179,-0.025032,-0.042837,-0.019668,0.038931,0.017248,-0.045303
   0.054529,   0.031740,   -0.072053,   -0.040652,   0.131143,   -0.001852,   0.043167,   -0.092162,   -0.011071,   0.045954,   -0.026881,   -0.071593,   0.065658,   0.034471,   -0.081283,   -0.075378,   -0.021710,   0.051882,   -0.029088,   -0.065042,   0.039403,   0.023007,   -0.066218,   -0.046244,   0.137138,0.311109,0.086643,0.018818,0.175472,0.085067,0.032606,-0.302763,-0.138132,0.029705,-0.111215,-0.047418,0.014402,0.371401,0.149844,-0.025235,-0.042837,-0.019668,0.038931,0.017248,-0.045303
   0.055447,   0.032352,   -0.073042,   -0.041078,   0.132280,   -0.001369,   0.043495,   -0.092696,   -0.011292,   0.046565,   -0.027742,   -0.072175,   0.066599,   0.034865,   -0.082361,   -0.075808,   -0.022003,   0.052355,   -0.028891,   -0.065584,   0.040354,   0.023652,   -0.067263,   -0.046680,   0.138335,0.313138,0.087411,0.018504,0.176724,0.085661,0.032429,-0.304857,-0.139053,0.029962,-0.112316,-0.047915,0.014520,0.373752,0.150943,-0.025553,-0.042837,-0.019668,0.038931,0.017248,-0.045303
   0.056660,   0.033164,   -0.074311,   -0.041661,   0.133727,   -0.000692,   0.043958,   -0.093422,   -0.011614,   0.047390,   -0.028905,   -0.072964,   0.067830,   0.035419,   -0.083762,   -0.076412,   -0.022416,   0.053000,   -0.028605,   -0.066317,   0.041632,   0.024518,   -0.068617,   -0.047289,   0.139875,0.315487,0.088248,0.018272,0.178288,0.086350,0.032294,-0.307308,-0.140032,0.030129,-0.113720,-0.048500,0.014589,0.376401,0.152050,-0.025760,-0.042837,-0.019668,0.038931,0.017248,-0.045303
   0.057950,   0.034034,   -0.075656,   -0.042291,   0.135255,   0.000039,   0.044461,   -0.094204,   -0.011966,   0.048275,   -0.030147,   -0.073812,   0.069139,   0.036020,   -0.085244,   -0.077064,   -0.022867,   0.053696,   -0.028292,   -0.067104,   0.042990,   0.025444,   -0.070047,   -0.047945,   0.141495,0.317938,0.089189,0.018090,0.179953,0.087116,0.032184,-0.309861,-0.141105,0.030244,-0.115224,-0.049157,0.014630,0.379124,0.153242,-0.025898,-0.042837,-0.019668,0.038931,0.017248,-0.045303
   0.058892,   0.034682,   -0.076603,   -0.042774,   0.136320,   0.000606,   0.044858,   -0.094787,   -0.012256,   0.048927,   -0.031076,   -0.074459,   0.070082,   0.036495,   -0.086301,   -0.077566,   -0.023221,   0.054212,   -0.028036,   -0.067681,   0.044011,   0.026155,   -0.071081,   -0.048467,   0.142653,0.319445,0.089752,0.018215,0.181063,0.087593,0.032240,-0.311443,-0.141713,0.030077,-0.116266,-0.049583,0.014540,0.380773,0.153888,-0.025674,-0.042837,-0.019668,0.038931,0.017248,-0.045303
   0.059582,   0.035147,   -0.077351,   -0.043086,   0.137182,   0.000955,   0.045099,   -0.095177,   -0.012411,   0.049373,   -0.031709,   -0.074895,   0.070781,   0.036777,   -0.087104,   -0.077878,   -0.023436,   0.054558,   -0.027898,   -0.068078,   0.044711,   0.026639,   -0.071859,   -0.048777,   0.143546,0.321053,0.090370,0.018135,0.182025,0.088063,0.032194,-0.313096,-0.142467,0.030098,-0.117104,-0.049969,0.014556,0.382662,0.154815,-0.025703,-0.042837,-0.019668,0.038931,0.017248,-0.045303
   0.060759,   0.035943,   -0.078592,   -0.043656,   0.138593,   0.001613,   0.045553,   -0.095888,   -0.012725,   0.050179,   -0.032828,   -0.075661,   0.071975,   0.037313,   -0.088458,   -0.078465,   -0.023842,   0.055190,   -0.027618,   -0.068795,   0.045929,   0.027474,   -0.073160,   -0.049361,   0.145021,0.323417,0.091338,0.017908,0.183593,0.088828,0.032053,-0.315542,-0.143572,0.030255,-0.118507,-0.050616,0.014629,0.385294,0.156064,-0.025885,-0.042837,-0.019668,0.038931,0.017248,-0.045303
   0.062327,   0.037020,   -0.080159,   -0.044486,   0.140340,   0.002590,   0.046236,   -0.096890,   -0.013238,   0.051293,   -0.034383,   -0.076740,   0.073542,   0.038132,   -0.090202,   -0.079331,   -0.024451,   0.056079,   -0.027165,   -0.069781,   0.047618,   0.028643,   -0.074854,   -0.050251,   0.146907,0.325677,0.092242,0.017916,0.185380,0.089620,0.032015,-0.317921,-0.144504,0.030190,-0.120193,-0.051329,0.014595,0.387660,0.156979,-0.025755,-0.042837,-0.019668,0.038931,0.017248,-0.045303
   0.063329,   0.037720,   -0.081139,   -0.045008,   0.141435,   0.003212,   0.046680,   -0.097516,   -0.013558,   0.051989,   -0.035391,   -0.077453,   0.074539,   0.038654,   -0.091312,   -0.079884,   -0.024850,   0.056639,   -0.026880,   -0.070403,   0.048713,   0.029416,   -0.075930,   -0.050818,   0.148106,0.327029,0.092545,0.018471,0.186502,0.089955,0.032344,-0.319409,-0.144857,0.029604,-0.121273,-0.051638,0.014258,0.389120,0.157323,-0.025076,-0.042837,-0.019668,0.038931,0.017248,-0.045303
   0.063429,   0.037791,   -0.081251,   -0.045048,   0.141565,   0.003255,   0.046712,   -0.097566,   -0.013575,   0.052047,   -0.035477,   -0.077516,   0.074637,   0.038687,   -0.091426,   -0.079923,   -0.024878,   0.056683,   -0.026865,   -0.070455,   0.048808,   0.029487,   -0.076041,   -0.050854,   0.148234,0.327319,0.092664,0.018540,0.186658,0.090039,0.032383,-0.319702,-0.145007,0.029517,-0.121406,-0.051705,0.014223,0.389476,0.157522,-0.024965,-0.042837,-0.019668,0.038931,0.017248,-0.045303
   0.063863,   0.038084,   -0.081737,   -0.045243,   0.142125,   0.003462,   0.046856,   -0.097807,   -0.013666,   0.052323,   -0.035866,   -0.077785,   0.075083,   0.038860,   -0.091939,   -0.080109,   -0.025007,   0.056897,   -0.026783,   -0.070700,   0.049239,   0.029787,   -0.076541,   -0.051044,   0.148808,0.328402,0.093083,0.018369,0.187281,0.090353,0.032289,-0.320811,-0.145529,0.029653,-0.121943,-0.051959,0.014286,0.390776,0.158186,-0.025141,-0.042837,-0.019668,0.038931,0.017248,-0.045303
   0.064806,   0.038723,   -0.082757,   -0.045694,   0.143287,   0.003963,   0.047203,   -0.098365,   -0.013902,   0.052956,   -0.036744,   -0.078389,   0.076048,   0.039274,   -0.093034,   -0.080559,   -0.025319,   0.057394,   -0.026571,   -0.071264,   0.050195,   0.030446,   -0.077598,   -0.051495,   0.150007,0.330433,0.093887,0.018062,0.188570,0.090986,0.032112,-0.322903,-0.146482,0.029899,-0.123079,-0.052484,0.014398,0.393088,0.159304,-0.025448,-0.042837,-0.019668,0.038931,0.017248,-0.045303
   0.066003,   0.039537,   -0.084015,   -0.046289,   0.144708,   0.004643,   0.047676,   -0.099099,   -0.014236,   0.053782,   -0.037884,   -0.079176,   0.077261,   0.039837,   -0.094401,   -0.081167,   -0.025743,   0.058048,   -0.026274,   -0.072001,   0.051432,   0.031299,   -0.078913,   -0.052105,   0.151489,0.332698,0.094799,0.017823,0.190123,0.091730,0.031961,-0.325253,-0.147516,0.030075,-0.124475,-0.053115,0.014477,0.395587,0.160452,-0.025654,-0.042837,-0.019668,0.038931,0.017248,-0.045303
   0.067324,   0.040438,   -0.085386,   -0.046956,   0.146253,   0.005409,   0.048209,   -0.099915,   -0.014618,   0.054699,   -0.039155,   -0.080054,   0.078594,   0.040474,   -0.095900,   -0.081851,   -0.026220,   0.058774,   -0.025933,   -0.072816,   0.052810,   0.032250,   -0.080358,   -0.052797,   0.153113,0.334992,0.095654,0.017655,0.191750,0.092467,0.031843,-0.327649,-0.148489,0.030176,-0.125943,-0.053741,0.014522,0.398105,0.161509,-0.025763,-0.042837,-0.019668,0.038931,0.017248,-0.045303
   0.068280,   0.041106,   -0.086355,   -0.047464,   0.147332,   0.005994,   0.048626,   -0.100522,   -0.014928,   0.055371,   -0.040089,   -0.080715,   0.079551,   0.040970,   -0.096961,   -0.082371,   -0.026593,   0.059314,   -0.025658,   -0.073414,   0.053822,   0.032967,   -0.081392,   -0.053334,   0.154260,0.336486,0.096267,0.017708,0.192878,0.092984,0.031848,-0.329204,-0.149136,0.030080,-0.127003,-0.054200,0.014475,0.399710,0.162193,-0.025615,-0.042837,-0.019668,0.038931,0.017248,-0.045303
   0.069000,   0.041598,   -0.087140,   -0.047800,   0.148229,   0.006361,   0.048883,   -0.100936,   -0.015097,   0.055842,   -0.040746,   -0.081173,   0.080279,   0.041272,   -0.097792,   -0.082700,   -0.026823,   0.059682,   -0.025507,   -0.073833,   0.054538,   0.033470,   -0.082192,   -0.053661,   0.155172,0.338121,0.096930,0.017591,0.193878,0.093496,0.031773,-0.330881,-0.149934,0.030136,-0.127872,-0.054616,0.014512,0.401607,0.163159,-0.025679,-0.042837,-0.019668,0.038931,0.017248,-0.045303
   0.070194,   0.042420,   -0.088388,   -0.048395,   0.149635,   0.007042,   0.049362,   -0.101667,   -0.015431,   0.056663,   -0.041881,   -0.081966,   0.081480,   0.041833,   -0.099142,   -0.083310,   -0.027253,   0.060334,   -0.025207,   -0.074566,   0.055764,   0.034326,   -0.083488,   -0.054267,   0.156628,0.340317,0.097804,0.017576,0.195404,0.094225,0.031749,-0.333166,-0.150933,0.030075,-0.129241,-0.055230,0.014484,0.404023,0.164263,-0.025601,-0.042837,-0.019668,0.038931,0.017248,-0.045303
   0.071746,   0.043505,   -0.089943,   -0.049248,   0.151352,   0.008039,   0.050070,   -0.102692,   -0.015975,   0.057791,   -0.043415,   -0.083049,   0.083029,   0.042673,   -0.100848,   -0.084195,   -0.027886,   0.061244,   -0.024726,   -0.075567,   0.057407,   0.035485,   -0.085139,   -0.055168,   0.158448,0.342472,0.098769,0.017540,0.197174,0.095064,0.031663,-0.335414,-0.151898,0.030056,-0.130918,-0.055984,0.014488,0.406215,0.165199,-0.025505,-0.042837,-0.019668,0.038931,0.017248,-0.045303
   0.072741,   0.044212,   -0.090914,   -0.049785,   0.152426,   0.008673,   0.050531,   -0.103330,   -0.016314,   0.058495,   -0.044416,   -0.083769,   0.084018,   0.043211,   -0.101939,   -0.084761,   -0.028301,   0.061817,   -0.024425,   -0.076197,   0.058485,   0.036257,   -0.086195,   -0.055746,   0.159613,0.343685,0.099016,0.018141,0.198250,0.095371,0.032018,-0.336757,-0.152182,0.029421,-0.131964,-0.056268,0.014129,0.407499,0.165455,-0.024768,-0.042837,-0.019668,0.038931,0.017248,-0.045303
   0.072847,   0.044288,   -0.091030,   -0.049827,   0.152561,   0.008717,   0.050565,   -0.103381,   -0.016330,   0.058554,   -0.044504,   -0.083836,   0.084117,   0.043244,   -0.102054,   -0.084801,   -0.028332,   0.061863,   -0.024409,   -0.076250,   0.058582,   0.036332,   -0.086306,   -0.055782,   0.159742,0.343985,0.099142,0.018252,0.198413,0.095462,0.032082,-0.337061,-0.152341,0.029288,-0.132102,-0.056340,0.014073,0.407866,0.165664,-0.024600,-0.042837,-0.019668,0.038931,0.017248,-0.045303
   0.073284,   0.044588,   -0.091533,   -0.050031,   0.153136,   0.008922,   0.050710,   -0.103628,   -0.016424,   0.058834,   -0.044888,   -0.084105,   0.084570,   0.043419,   -0.102570,   -0.084988,   -0.028463,   0.062083,   -0.024324,   -0.076502,   0.058998,   0.036627,   -0.086807,   -0.055971,   0.160311,0.345111,0.099635,0.017957,0.199068,0.095826,0.031912,-0.338207,-0.152938,0.029551,-0.132665,-0.056633,0.014198,0.409196,0.166410,-0.024928,-0.042837,-0.019668,0.038931,0.017248,-0.045303
   0.074226,   0.045236,   -0.092548,   -0.050493,   0.154283,   0.009429,   0.051068,   -0.104192,   -0.016669,   0.059470,   -0.045761,   -0.084717,   0.085527,   0.043844,   -0.103649,   -0.085446,   -0.028786,   0.062588,   -0.024103,   -0.077071,   0.059939,   0.037289,   -0.087843,   -0.056428,   0.161478,0.347045,0.100418,0.017742,0.200337,0.096461,0.031781,-0.340203,-0.153860,0.029702,-0.133783,-0.057156,0.014268,0.411374,0.167476,-0.025118,-0.042837,-0.019668,0.038931,0.017248,-0.045303
   0.075449,   0.046083,   -0.093831,   -0.051119,   0.155721,   0.010137,   0.051569,   -0.104956,   -0.017026,   0.060322,   -0.046924,   -0.085533,   0.086762,   0.044435,   -0.105030,   -0.086081,   -0.029237,   0.063272,   -0.023782,   -0.077834,   0.061188,   0.038165,   -0.089169,   -0.057064,   0.162960,0.349242,0.101306,0.017579,0.201898,0.097211,0.031664,-0.342483,-0.154860,0.029799,-0.135189,-0.057788,0.014313,0.413767,0.168568,-0.025225,-0.042837,-0.019668,0.038931,0.017248,-0.045303
   0.076809,   0.047023,   -0.095253,   -0.051831,   0.157308,   0.010944,   0.052138,   -0.105824,   -0.017445,   0.061288,   -0.048223,   -0.086442,   0.088135,   0.045112,   -0.106559,   -0.086804,   -0.029748,   0.064045,   -0.023408,   -0.078695,   0.062577,   0.039136,   -0.090636,   -0.057788,   0.164593,0.351564,0.102272,0.017219,0.203591,0.098038,0.031407,-0.344887,-0.155929,0.030093,-0.136716,-0.058488,0.014474,0.416257,0.169714,-0.025534,-0.042837,-0.019668,0.038931,0.017248,-0.045303
   0.077691,   0.047654,   -0.096141,   -0.052314,   0.158288,   0.011497,   0.052542,   -0.106394,   -0.017748,   0.061913,   -0.049085,   -0.087069,   0.089012,   0.045585,   -0.107523,   -0.087298,   -0.030111,   0.064555,   -0.023139,   -0.079255,   0.063502,   0.039811,   -0.091574,   -0.058295,   0.165625,0.352848,0.102802,0.017461,0.204609,0.098502,0.031525,-0.346226,-0.156479,0.029808,-0.137687,-0.058903,0.014331,0.417617,0.170283,-0.025172,-0.042837,-0.019668,0.038931,0.017248,-0.045303
   0.078396,   0.048147,   -0.096916,   -0.052650,   0.159168,   0.011855,   0.052801,   -0.106803,   -0.017915,   0.062376,   -0.049719,   -0.087523,   0.089723,   0.045882,   -0.108327,   -0.087624,   -0.030345,   0.064923,   -0.022986,   -0.079671,   0.064182,   0.040301,   -0.092343,   -0.058612,   0.166494,0.354478,0.103533,0.017386,0.205627,0.099064,0.031473,-0.347892,-0.157340,0.029817,-0.138573,-0.059360,0.014346,0.419476,0.171310,-0.025182,-0.042837,-0.019668,0.038931,0.017248,-0.045303
   0.079623,   0.049003,   -0.098203,   -0.053284,   0.160606,   0.012568,   0.053309,   -0.107574,   -0.018278,   0.063235,   -0.050881,   -0.088344,   0.090956,   0.046476,   -0.109702,   -0.088266,   -0.030803,   0.065613,   -0.022659,   -0.080440,   0.065422,   0.041178,   -0.093659,   -0.059247,   0.167961,0.356639,0.104435,0.017276,0.207180,0.099833,0.031374,-0.350134,-0.158354,0.029851,-0.139965,-0.060003,0.014380,0.421818,0.172411,-0.025200,-0.042837,-0.019668,0.038931,0.017248,-0.045303
   0.081159,   0.050100,   -0.099735,   -0.054155,   0.162280,   0.013586,   0.054048,   -0.108615,   -0.018850,   0.064371,   -0.052401,   -0.089442,   0.092484,   0.047337,   -0.111370,   -0.089173,   -0.031466,   0.066543,   -0.022151,   -0.081454,   0.067035,   0.042341,   -0.095270,   -0.060162,   0.169720,0.358626,0.105294,0.017437,0.208908,0.100626,0.031399,-0.352209,-0.159199,0.029631,-0.141623,-0.060721,0.014286,0.423793,0.173199,-0.024875,-0.042837,-0.019668,0.038931,0.017248,-0.045303
   0.082130,   0.050799,   -0.100678,   -0.054696,   0.163315,   0.014220,   0.054515,   -0.109253,   -0.019202,   0.065068,   -0.053377,   -0.090154,   0.093443,   0.047880,   -0.112419,   -0.089739,   -0.031887,   0.067115,   -0.021838,   -0.082078,   0.068078,   0.043100,   -0.096288,   -0.060742,   0.170833,0.359674,0.105513,0.018054,0.209905,0.100909,0.031752,-0.353378,-0.159437,0.028982,-0.142596,-0.060985,0.013933,0.424884,0.173400,-0.024107,-0.042837,-0.019668,0.038931,0.017248,-0.045303
   0.082234,   0.050875,   -0.100799,   -0.054740,   0.163454,   0.014261,   0.054547,   -0.109304,   -0.019218,   0.065126,   -0.053460,   -0.090218,   0.093544,   0.047913,   -0.112535,   -0.089777,   -0.031917,   0.067161,   -0.021822,   -0.082132,   0.068167,   0.043171,   -0.096399,   -0.060776,   0.170961,0.359991,0.105662,0.018090,0.210078,0.101015,0.031772,-0.353698,-0.159620,0.028927,-0.142743,-0.061069,0.013912,0.425268,0.173637,-0.024036,-0.042837,-0.019668,0.038931,0.017248,-0.045303
   0.082665,   0.051176,   -0.101297,   -0.054944,   0.164020,   0.014460,   0.054692,   -0.109547,   -0.019310,   0.065401,   -0.053832,   -0.090485,   0.093988,   0.048086,   -0.113037,   -0.089961,   -0.032049,   0.067381,   -0.021737,   -0.082380,   0.068565,   0.043460,   -0.096883,   -0.060960,   0.171508,0.361112,0.106179,0.017817,0.210739,0.101400,0.031611,-0.354836,-0.160241,0.029166,-0.143310,-0.061376,0.014027,0.426580,0.174404,-0.024332,-0.042837,-0.019668,0.038931,0.017248,-0.045303
   0.083633,   0.051853,   -0.102348,   -0.055434,   0.165199,   0.014988,   0.055071,   -0.110140,   -0.019573,   0.066064,   -0.054722,   -0.091118,   0.094971,   0.048533,   -0.114137,   -0.090441,   -0.032392,   0.067914,   -0.021498,   -0.082977,   0.069512,   0.044136,   -0.097935,   -0.061436,   0.172684,0.363069,0.107017,0.017507,0.212056,0.102089,0.031410,-0.356848,-0.161214,0.029414,-0.144470,-0.061940,0.014154,0.428752,0.175515,-0.024625,-0.042837,-0.019668,0.038931,0.017248,-0.045303
   0.084816,   0.052687,   -0.103592,   -0.056057,   0.166582,   0.015682,   0.055573,   -0.110894,   -0.019934,   0.066899,   -0.055840,   -0.091919,   0.096162,   0.049118,   -0.115458,   -0.091070,   -0.032848,   0.068594,   -0.021171,   -0.083730,   0.070698,   0.044986,   -0.099197,   -0.062057,   0.174083,0.365151,0.107925,0.017400,0.213585,0.102859,0.031317,-0.359003,-0.162216,0.029452,-0.145853,-0.062589,0.014177,0.430981,0.176596,-0.024659,-0.042837,-0.019668,0.038931,0.017248,-0.045303
   0.086129,   0.053614,   -0.104963,   -0.056764,   0.168099,   0.016480,   0.056148,   -0.111752,   -0.020359,   0.067846,   -0.057092,   -0.092815,   0.097483,   0.049789,   -0.116918,   -0.091790,   -0.033368,   0.069364,   -0.020789,   -0.084581,   0.072023,   0.045933,   -0.100592,   -0.062768,   0.175624,0.367328,0.108897,0.017190,0.215239,0.103700,0.031141,-0.361252,-0.163271,0.029597,-0.147360,-0.063306,0.014265,0.433269,0.177707,-0.024791,-0.042837,-0.019668,0.038931,0.017248,-0.045303
   0.087024,   0.054266,   -0.105863,   -0.057268,   0.169086,   0.017052,   0.056573,   -0.112340,   -0.020683,   0.068487,   -0.057966,   -0.093461,   0.098370,   0.050283,   -0.117886,   -0.092302,   -0.033750,   0.069891,   -0.020500,   -0.085155,   0.072954,   0.046624,   -0.101535,   -0.063294,   0.176653,0.368541,0.109349,0.017488,0.216231,0.104128,0.031282,-0.362522,-0.163743,0.029249,-0.148303,-0.063685,0.014104,0.434556,0.178188,-0.024350,-0.042837,-0.019668,0.038931,0.017248,-0.045303
   0.087732,   0.054770,   -0.106643,   -0.057615,   0.169964,   0.017413,   0.056839,   -0.112756,   -0.020856,   0.068954,   -0.058597,   -0.093922,   0.099081,   0.050587,   -0.118685,   -0.092634,   -0.033994,   0.070268,   -0.020340,   -0.085579,   0.073623,   0.047116,   -0.102296,   -0.063615,   0.177508,0.370136,0.110078,0.017431,0.217255,0.104701,0.031239,-0.364155,-0.164598,0.029240,-0.149196,-0.064147,0.014110,0.436360,0.179198,-0.024341,-0.042837,-0.019668,0.038931,0.017248,-0.045303
   0.088924,   0.055615,   -0.107900,   -0.058250,   0.171358,   0.018121,   0.057352,   -0.113526,   -0.021228,   0.069805,   -0.059718,   -0.094729,   0.100279,   0.051180,   -0.120010,   -0.093274,   -0.034458,   0.070961,   -0.020004,   -0.086345,   0.074805,   0.047968,   -0.103558,   -0.064241,   0.178903,0.372227,0.111050,0.017249,0.218798,0.105518,0.031078,-0.366309,-0.165663,0.029352,-0.150582,-0.064831,0.014195,0.438581,0.180346,-0.024437,-0.042837,-0.019668,0.038931,0.017248,-0.045303
   0.090455,   0.056728,   -0.109415,   -0.059145,   0.173002,   0.019163,   0.058122,   -0.114586,   -0.021833,   0.070954,   -0.061239,   -0.095846,   0.101795,   0.052068,   -0.121653,   -0.094206,   -0.035151,   0.071911,   -0.019465,   -0.087374,   0.076411,   0.049146,   -0.105149,   -0.065180,   0.180626,0.373976,0.111742,0.017590,0.220435,0.106228,0.031200,-0.368151,-0.166330,0.028950,-0.152170,-0.065482,0.014020,0.440289,0.180920,-0.023901,-0.042837,-0.019668,0.038931,0.017248,-0.045303
   0.091380,   0.057407,   -0.110317,   -0.059677,   0.173982,   0.019784,   0.058589,   -0.115213,   -0.022188,   0.071634,   -0.062166,   -0.096536,   0.102709,   0.052602,   -0.122644,   -0.094764,   -0.035574,   0.072476,   -0.019146,   -0.087986,   0.077389,   0.049873,   -0.106106,   -0.065744,   0.181664,0.374962,0.112011,0.018185,0.221408,0.106535,0.031535,-0.369240,-0.166602,0.028322,-0.153129,-0.065767,0.013682,0.441285,0.181157,-0.023151,-0.042837,-0.019668,0.038931,0.017248,-0.045303
   0.091479,   0.057481,   -0.110436,   -0.059720,   0.174118,   0.019820,   0.058619,   -0.115261,   -0.022202,   0.071688,   -0.062241,   -0.096596,   0.102806,   0.052632,   -0.122754,   -0.094799,   -0.035602,   0.072521,   -0.019132,   -0.088037,   0.077468,   0.049938,   -0.106211,   -0.065774,   0.181783,0.375286,0.112172,0.018196,0.221586,0.106650,0.031541,-0.369565,-0.166798,0.028293,-0.153279,-0.065858,0.013674,0.441674,0.181409,-0.023113,-0.042837,-0.019668,0.038931,0.017248,-0.045303
   0.091903,   0.057786,   -0.110931,   -0.059923,   0.174677,   0.020011,   0.058764,   -0.115500,   -0.022291,   0.071956,   -0.062598,   -0.096863,   0.103239,   0.052800,   -0.123241,   -0.094979,   -0.035737,   0.072741,   -0.019047,   -0.088284,   0.077841,   0.050222,   -0.106676,   -0.065948,   0.182305,0.376434,0.112733,0.017977,0.222275,0.107071,0.031413,-0.370730,-0.167465,0.028473,-0.153872,-0.066193,0.013759,0.443003,0.182224,-0.023344,-0.042837,-0.019668,0.038931,0.017248,-0.045303
   0.092820,   0.058441,   -0.111936,   -0.060400,   0.175796,   0.020515,   0.059134,   -0.116074,   -0.022549,   0.072593,   -0.063432,   -0.097470,   0.104170,   0.053230,   -0.124276,   -0.095443,   -0.036077,   0.073262,   -0.018810,   -0.088863,   0.078717,   0.050862,   -0.107659,   -0.066399,   0.183396,0.378326,0.113634,0.017661,0.223578,0.107803,0.031199,-0.372664,-0.168486,0.028731,-0.155027,-0.066795,0.013893,0.445065,0.183376,-0.023646,-0.042837,-0.019668,0.038931,0.017248,-0.045303
   0.094002,   0.059286,   -0.113182,   -0.061042,   0.177172,   0.021221,   0.059652,   -0.116843,   -0.022928,   0.073440,   -0.064547,   -0.098280,   0.105360,   0.053832,   -0.125586,   -0.096086,   -0.036548,   0.073958,   -0.018466,   -0.089630,   0.079890,   0.051714,   -0.108910,   -0.067035,   0.184775,0.380321,0.114506,0.017499,0.225089,0.108565,0.031055,-0.374729,-0.169445,0.028829,-0.156392,-0.067433,0.013958,0.447184,0.184401,-0.023738,-0.042837,-0.019668,0.038931,0.017248,-0.045303
   0.095320,   0.060236,   -0.114554,   -0.061772,   0.178678,   0.022040,   0.060256,   -0.117722,   -0.023378,   0.074403,   -0.065805,   -0.099199,   0.106683,   0.054528,   -0.127036,   -0.096830,   -0.037098,   0.074753,   -0.018058,   -0.090501,   0.081211,   0.052678,   -0.110295,   -0.067765,   0.186292,0.382374,0.115402,0.017432,0.226726,0.109378,0.030957,-0.376860,-0.170412,0.028827,-0.157894,-0.068124,0.013977,0.449316,0.185400,-0.023702,-0.042837,-0.019668,0.038931,0.017248,-0.045303
   0.096148,   0.060849,   -0.115390,   -0.062252,   0.179588,   0.022580,   0.060664,   -0.118280,   -0.023693,   0.075007,   -0.066606,   -0.099803,   0.107500,   0.054994,   -0.127922,   -0.097315,   -0.037467,   0.075255,   -0.017776,   -0.091044,   0.082055,   0.053318,   -0.111155,   -0.068258,   0.187224,0.383503,0.115894,0.017686,0.227663,0.109827,0.031062,-0.378027,-0.170912,0.028526,-0.158790,-0.068524,0.013850,0.450493,0.185911,-0.023309,-0.042837,-0.019668,0.038931,0.017248,-0.045303
   0.096836,   0.061349,   -0.116158,   -0.062597,   0.180447,   0.022929,   0.060929,   -0.118690,   -0.023864,   0.075464,   -0.067209,   -0.100255,   0.108191,   0.055292,   -0.128693,   -0.097642,   -0.037711,   0.075631,   -0.017615,   -0.091464,   0.082684,   0.053794,   -0.111884,   -0.068567,   0.188037,0.385096,0.116682,0.017592,0.228705,0.110446,0.030989,-0.379652,-0.171822,0.028553,-0.159699,-0.069023,0.013879,0.452273,0.186973,-0.023340,-0.042837,-0.019668,0.038931,0.017248,-0.045303
   0.097994,   0.062190,   -0.117379,   -0.063231,   0.181791,   0.023631,   0.061451,   -0.119456,   -0.024243,   0.076305,   -0.068297,   -0.101057,   0.109354,   0.055884,   -0.129969,   -0.098284,   -0.038189,   0.076327,   -0.017268,   -0.092229,   0.083818,   0.054630,   -0.113094,   -0.069185,   0.189365,0.387107,0.117636,0.017535,0.230245,0.111268,0.030905,-0.381723,-0.172859,0.028537,-0.161098,-0.069713,0.013895,0.454374,0.188078,-0.023292,-0.042837,-0.019668,0.038931,0.017248,-0.045303
   0.099538,   0.063325,   -0.118909,   -0.064160,   0.183440,   0.024710,   0.062257,   -0.120555,   -0.024888,   0.077488,   -0.069826,   -0.102194,   0.110880,   0.056805,   -0.131613,   -0.099251,   -0.038915,   0.077313,   -0.016692,   -0.093290,   0.085422,   0.055823,   -0.114685,   -0.070153,   0.191078,0.388758,0.118332,0.017794,0.231856,0.111992,0.030940,-0.383453,-0.173513,0.028219,-0.162662,-0.070377,0.013800,0.455960,0.188630,-0.022831,-0.042837,-0.019668,0.038931,0.017248,-0.045303
   0.100390,   0.063965,   -0.119731,   -0.064666,   0.184327,   0.025298,   0.062709,   -0.121144,   -0.025236,   0.078122,   -0.070688,   -0.102849,   0.111723,   0.057318,   -0.132518,   -0.099781,   -0.039327,   0.077848,   -0.016379,   -0.093865,   0.086330,   0.056512,   -0.115565,   -0.070693,   0.192023,0.389542,0.118501,0.018527,0.232715,0.112222,0.031372,-0.384339,-0.173674,0.027456,-0.163527,-0.070599,0.013381,0.456737,0.188745,-0.021938,-0.042837,-0.019668,0.038931,0.017248,-0.045303
   0.100484,   0.064039,   -0.119846,   -0.064705,   0.184458,   0.025328,   0.062737,   -0.121187,   -0.025246,   0.078170,   -0.070755,   -0.102908,   0.111811,   0.057343,   -0.132619,   -0.099812,   -0.039355,   0.077890,   -0.016367,   -0.093912,   0.086397,   0.056575,   -0.115658,   -0.070716,   0.192129,0.389882,0.118680,0.018603,0.232902,0.112351,0.031418,-0.384679,-0.173890,0.027356,-0.163686,-0.070700,0.013339,0.457142,0.189020,-0.021814,-0.042837,-0.019668,0.038931,0.017248,-0.045303
   0.100883,   0.064333,   -0.120321,   -0.064901,   0.184991,   0.025501,   0.062874,   -0.121412,   -0.025329,   0.078421,   -0.071082,   -0.103160,   0.112219,   0.057500,   -0.133075,   -0.099981,   -0.039484,   0.078100,   -0.016286,   -0.094147,   0.086732,   0.056838,   -0.116090,   -0.070876,   0.192611,0.391005,0.119257,0.018335,0.233586,0.112787,0.031256,-0.385817,-0.174570,0.027590,-0.164274,-0.071047,0.013450,0.458432,0.189845,-0.022110,-0.042837,-0.019668,0.038931,0.017248,-0.045303
   0.101797,   0.064999,   -0.121324,   -0.065389,   0.186100,   0.026009,   0.063256,   -0.121992,   -0.025595,   0.079060,   -0.071910,   -0.103776,   0.113145,   0.057938,   -0.134097,   -0.100453,   -0.039838,   0.078632,   -0.016038,   -0.094734,   0.087593,   0.057481,   -0.117058,   -0.071332,   0.193678,0.392847,0.120142,0.018084,0.234894,0.113524,0.031076,-0.387704,-0.175570,0.027781,-0.165436,-0.071649,0.013553,0.460425,0.190965,-0.022335,-0.042837,-0.019668,0.038931,0.017248,-0.045303
